digraph Tree {
node [shape=box, style="filled, rounded", color="black", fontname="helvetica"] ;
edge [fontname="helvetica"] ;
0 [label="location <= -0.679\ngini = 0.483\nsamples = 7529\nvalue = [3067, 4462]\nclass = 0", fillcolor="#c1e0f7"] ;
1 [label="CFCs <= -0.117\ngini = 0.432\nsamples = 2047\nvalue = [1402, 645]\nclass = 1", fillcolor="#f1bb94"] ;
0 -> 1 [labeldistance=2.5, labelangle=45, headlabel="True"] ;
2 [label="PM2.5 <= -0.022\ngini = 0.249\nsamples = 1213\nvalue = [1036, 177]\nclass = 1", fillcolor="#e9975b"] ;
1 -> 2 ;
3 [label="index <= -1.242\ngini = 0.082\nsamples = 906\nvalue = [867, 39]\nclass = 1", fillcolor="#e68742"] ;
2 -> 3 ;
4 [label="PM10 <= 18.5\ngini = 0.444\nsamples = 3\nvalue = [1, 2]\nclass = 0", fillcolor="#9ccef2"] ;
3 -> 4 ;
5 [label="gini = 0.0\nsamples = 1\nvalue = [1, 0]\nclass = 1", fillcolor="#e58139"] ;
4 -> 5 ;
6 [label="gini = 0.0\nsamples = 2\nvalue = [0, 2]\nclass = 0", fillcolor="#399de5"] ;
4 -> 6 ;
7 [label="O3 <= 1.382\ngini = 0.079\nsamples = 903\nvalue = [866, 37]\nclass = 1", fillcolor="#e68641"] ;
3 -> 7 ;
8 [label="TEMP <= -0.161\ngini = 0.064\nsamples = 840\nvalue = [812, 28]\nclass = 1", fillcolor="#e68540"] ;
7 -> 8 ;
9 [label="CH4 <= 1.755\ngini = 0.024\nsamples = 498\nvalue = [492, 6]\nclass = 1", fillcolor="#e5833b"] ;
8 -> 9 ;
10 [label="index <= -0.364\ngini = 0.017\nsamples = 472\nvalue = [468, 4]\nclass = 1", fillcolor="#e5823b"] ;
9 -> 10 ;
11 [label="PM2.5 <= -0.999\ngini = 0.142\nsamples = 26\nvalue = [24, 2]\nclass = 1", fillcolor="#e78c49"] ;
10 -> 11 ;
12 [label="gini = 0.0\nsamples = 2\nvalue = [0, 2]\nclass = 0", fillcolor="#399de5"] ;
11 -> 12 ;
13 [label="gini = 0.0\nsamples = 24\nvalue = [24, 0]\nclass = 1", fillcolor="#e58139"] ;
11 -> 13 ;
14 [label="C2H3NO5 <= 1.436\ngini = 0.009\nsamples = 446\nvalue = [444, 2]\nclass = 1", fillcolor="#e5823a"] ;
10 -> 14 ;
15 [label="gini = 0.0\nsamples = 409\nvalue = [409, 0]\nclass = 1", fillcolor="#e58139"] ;
14 -> 15 ;
16 [label="PRES <= 1.639\ngini = 0.102\nsamples = 37\nvalue = [35, 2]\nclass = 1", fillcolor="#e68844"] ;
14 -> 16 ;
17 [label="C2H3NO5 <= 1.465\ngini = 0.054\nsamples = 36\nvalue = [35, 1]\nclass = 1", fillcolor="#e6853f"] ;
16 -> 17 ;
18 [label="gini = 0.0\nsamples = 1\nvalue = [0, 1]\nclass = 0", fillcolor="#399de5"] ;
17 -> 18 ;
19 [label="gini = 0.0\nsamples = 35\nvalue = [35, 0]\nclass = 1", fillcolor="#e58139"] ;
17 -> 19 ;
20 [label="gini = 0.0\nsamples = 1\nvalue = [0, 1]\nclass = 0", fillcolor="#399de5"] ;
16 -> 20 ;
21 [label="CH4 <= 1.764\ngini = 0.142\nsamples = 26\nvalue = [24, 2]\nclass = 1", fillcolor="#e78c49"] ;
9 -> 21 ;
22 [label="gini = 0.0\nsamples = 1\nvalue = [0, 1]\nclass = 0", fillcolor="#399de5"] ;
21 -> 22 ;
23 [label="C2H3NO5 <= -1.898\ngini = 0.077\nsamples = 25\nvalue = [24, 1]\nclass = 1", fillcolor="#e68641"] ;
21 -> 23 ;
24 [label="CFCs <= -0.464\ngini = 0.5\nsamples = 2\nvalue = [1, 1]\nclass = 1", fillcolor="#ffffff"] ;
23 -> 24 ;
25 [label="gini = 0.0\nsamples = 1\nvalue = [0, 1]\nclass = 0", fillcolor="#399de5"] ;
24 -> 25 ;
26 [label="gini = 0.0\nsamples = 1\nvalue = [1, 0]\nclass = 1", fillcolor="#e58139"] ;
24 -> 26 ;
27 [label="gini = 0.0\nsamples = 23\nvalue = [23, 0]\nclass = 1", fillcolor="#e58139"] ;
23 -> 27 ;
28 [label="PAHs <= 0.199\ngini = 0.12\nsamples = 342\nvalue = [320, 22]\nclass = 1", fillcolor="#e78a47"] ;
8 -> 28 ;
29 [label="PM2.5 <= -0.511\ngini = 0.097\nsamples = 333\nvalue = [316, 17]\nclass = 1", fillcolor="#e68844"] ;
28 -> 29 ;
30 [label="index <= -0.818\ngini = 0.024\nsamples = 243\nvalue = [240, 3]\nclass = 1", fillcolor="#e5833b"] ;
29 -> 30 ;
31 [label="TEMP <= 0.284\ngini = 0.444\nsamples = 3\nvalue = [2, 1]\nclass = 1", fillcolor="#f2c09c"] ;
30 -> 31 ;
32 [label="gini = 0.0\nsamples = 1\nvalue = [0, 1]\nclass = 0", fillcolor="#399de5"] ;
31 -> 32 ;
33 [label="gini = 0.0\nsamples = 2\nvalue = [2, 0]\nclass = 1", fillcolor="#e58139"] ;
31 -> 33 ;
34 [label="Pb <= -0.159\ngini = 0.017\nsamples = 240\nvalue = [238, 2]\nclass = 1", fillcolor="#e5823b"] ;
30 -> 34 ;
35 [label="H2CO <= -1.837\ngini = 0.009\nsamples = 233\nvalue = [232, 1]\nclass = 1", fillcolor="#e5823a"] ;
34 -> 35 ;
36 [label="PM10 <= 110.0\ngini = 0.165\nsamples = 11\nvalue = [10, 1]\nclass = 1", fillcolor="#e88e4d"] ;
35 -> 36 ;
37 [label="gini = 0.0\nsamples = 10\nvalue = [10, 0]\nclass = 1", fillcolor="#e58139"] ;
36 -> 37 ;
38 [label="gini = 0.0\nsamples = 1\nvalue = [0, 1]\nclass = 0", fillcolor="#399de5"] ;
36 -> 38 ;
39 [label="gini = 0.0\nsamples = 222\nvalue = [222, 0]\nclass = 1", fillcolor="#e58139"] ;
35 -> 39 ;
40 [label="PAHs <= -0.002\ngini = 0.245\nsamples = 7\nvalue = [6, 1]\nclass = 1", fillcolor="#e9965a"] ;
34 -> 40 ;
41 [label="gini = 0.0\nsamples = 1\nvalue = [0, 1]\nclass = 0", fillcolor="#399de5"] ;
40 -> 41 ;
42 [label="gini = 0.0\nsamples = 6\nvalue = [6, 0]\nclass = 1", fillcolor="#e58139"] ;
40 -> 42 ;
43 [label="location <= -1.336\ngini = 0.263\nsamples = 90\nvalue = [76, 14]\nclass = 1", fillcolor="#ea985d"] ;
29 -> 43 ;
44 [label="PAHs <= -0.552\ngini = 0.126\nsamples = 74\nvalue = [69, 5]\nclass = 1", fillcolor="#e78a47"] ;
43 -> 44 ;
45 [label="TEMP <= -0.139\ngini = 0.056\nsamples = 70\nvalue = [68, 2]\nclass = 1", fillcolor="#e6853f"] ;
44 -> 45 ;
46 [label="Pb <= -0.79\ngini = 0.5\nsamples = 2\nvalue = [1, 1]\nclass = 1", fillcolor="#ffffff"] ;
45 -> 46 ;
47 [label="gini = 0.0\nsamples = 1\nvalue = [1, 0]\nclass = 1", fillcolor="#e58139"] ;
46 -> 47 ;
48 [label="gini = 0.0\nsamples = 1\nvalue = [0, 1]\nclass = 0", fillcolor="#399de5"] ;
46 -> 48 ;
49 [label="CFCs <= -0.493\ngini = 0.029\nsamples = 68\nvalue = [67, 1]\nclass = 1", fillcolor="#e5833c"] ;
45 -> 49 ;
50 [label="gini = 0.0\nsamples = 63\nvalue = [63, 0]\nclass = 1", fillcolor="#e58139"] ;
49 -> 50 ;
51 [label="CFCs <= -0.465\ngini = 0.32\nsamples = 5\nvalue = [4, 1]\nclass = 1", fillcolor="#eca06a"] ;
49 -> 51 ;
52 [label="gini = 0.0\nsamples = 1\nvalue = [0, 1]\nclass = 0", fillcolor="#399de5"] ;
51 -> 52 ;
53 [label="gini = 0.0\nsamples = 4\nvalue = [4, 0]\nclass = 1", fillcolor="#e58139"] ;
51 -> 53 ;
54 [label="PM2.5 <= -0.449\ngini = 0.375\nsamples = 4\nvalue = [1, 3]\nclass = 0", fillcolor="#7bbeee"] ;
44 -> 54 ;
55 [label="gini = 0.0\nsamples = 3\nvalue = [0, 3]\nclass = 0", fillcolor="#399de5"] ;
54 -> 55 ;
56 [label="gini = 0.0\nsamples = 1\nvalue = [1, 0]\nclass = 1", fillcolor="#e58139"] ;
54 -> 56 ;
57 [label="index <= 0.808\ngini = 0.492\nsamples = 16\nvalue = [7, 9]\nclass = 0", fillcolor="#d3e9f9"] ;
43 -> 57 ;
58 [label="CH4 <= 1.612\ngini = 0.198\nsamples = 9\nvalue = [1, 8]\nclass = 0", fillcolor="#52a9e8"] ;
57 -> 58 ;
59 [label="gini = 0.0\nsamples = 8\nvalue = [0, 8]\nclass = 0", fillcolor="#399de5"] ;
58 -> 59 ;
60 [label="gini = 0.0\nsamples = 1\nvalue = [1, 0]\nclass = 1", fillcolor="#e58139"] ;
58 -> 60 ;
61 [label="NOx <= -1.716\ngini = 0.245\nsamples = 7\nvalue = [6, 1]\nclass = 1", fillcolor="#e9965a"] ;
57 -> 61 ;
62 [label="gini = 0.0\nsamples = 1\nvalue = [0, 1]\nclass = 0", fillcolor="#399de5"] ;
61 -> 62 ;
63 [label="gini = 0.0\nsamples = 6\nvalue = [6, 0]\nclass = 1", fillcolor="#e58139"] ;
61 -> 63 ;
64 [label="CO <= -0.414\ngini = 0.494\nsamples = 9\nvalue = [4, 5]\nclass = 0", fillcolor="#d7ebfa"] ;
28 -> 64 ;
65 [label="gini = 0.0\nsamples = 4\nvalue = [0, 4]\nclass = 0", fillcolor="#399de5"] ;
64 -> 65 ;
66 [label="index <= -0.267\ngini = 0.32\nsamples = 5\nvalue = [4, 1]\nclass = 1", fillcolor="#eca06a"] ;
64 -> 66 ;
67 [label="gini = 0.0\nsamples = 1\nvalue = [0, 1]\nclass = 0", fillcolor="#399de5"] ;
66 -> 67 ;
68 [label="gini = 0.0\nsamples = 4\nvalue = [4, 0]\nclass = 1", fillcolor="#e58139"] ;
66 -> 68 ;
69 [label="O3 <= 1.39\ngini = 0.245\nsamples = 63\nvalue = [54, 9]\nclass = 1", fillcolor="#e9965a"] ;
7 -> 69 ;
70 [label="gini = 0.0\nsamples = 2\nvalue = [0, 2]\nclass = 0", fillcolor="#399de5"] ;
69 -> 70 ;
71 [label="TEMP <= 0.428\ngini = 0.203\nsamples = 61\nvalue = [54, 7]\nclass = 1", fillcolor="#e89153"] ;
69 -> 71 ;
72 [label="H2CO <= -1.789\ngini = 0.133\nsamples = 56\nvalue = [52, 4]\nclass = 1", fillcolor="#e78b48"] ;
71 -> 72 ;
73 [label="CH4 <= 0.646\ngini = 0.42\nsamples = 10\nvalue = [7, 3]\nclass = 1", fillcolor="#f0b78e"] ;
72 -> 73 ;
74 [label="gini = 0.0\nsamples = 6\nvalue = [6, 0]\nclass = 1", fillcolor="#e58139"] ;
73 -> 74 ;
75 [label="O3 <= 1.438\ngini = 0.375\nsamples = 4\nvalue = [1, 3]\nclass = 0", fillcolor="#7bbeee"] ;
73 -> 75 ;
76 [label="gini = 0.0\nsamples = 3\nvalue = [0, 3]\nclass = 0", fillcolor="#399de5"] ;
75 -> 76 ;
77 [label="gini = 0.0\nsamples = 1\nvalue = [1, 0]\nclass = 1", fillcolor="#e58139"] ;
75 -> 77 ;
78 [label="NOx <= -0.898\ngini = 0.043\nsamples = 46\nvalue = [45, 1]\nclass = 1", fillcolor="#e6843d"] ;
72 -> 78 ;
79 [label="index <= 0.309\ngini = 0.278\nsamples = 6\nvalue = [5, 1]\nclass = 1", fillcolor="#ea9a61"] ;
78 -> 79 ;
80 [label="gini = 0.0\nsamples = 1\nvalue = [0, 1]\nclass = 0", fillcolor="#399de5"] ;
79 -> 80 ;
81 [label="gini = 0.0\nsamples = 5\nvalue = [5, 0]\nclass = 1", fillcolor="#e58139"] ;
79 -> 81 ;
82 [label="gini = 0.0\nsamples = 40\nvalue = [40, 0]\nclass = 1", fillcolor="#e58139"] ;
78 -> 82 ;
83 [label="CFCs <= -0.864\ngini = 0.48\nsamples = 5\nvalue = [2, 3]\nclass = 0", fillcolor="#bddef6"] ;
71 -> 83 ;
84 [label="gini = 0.0\nsamples = 2\nvalue = [2, 0]\nclass = 1", fillcolor="#e58139"] ;
83 -> 84 ;
85 [label="gini = 0.0\nsamples = 3\nvalue = [0, 3]\nclass = 0", fillcolor="#399de5"] ;
83 -> 85 ;
86 [label="location <= -1.627\ngini = 0.495\nsamples = 307\nvalue = [169, 138]\nclass = 1", fillcolor="#fae8db"] ;
2 -> 86 ;
87 [label="index <= 1.081\ngini = 0.208\nsamples = 102\nvalue = [90, 12]\nclass = 1", fillcolor="#e89253"] ;
86 -> 87 ;
88 [label="CFCs <= -0.382\ngini = 0.15\nsamples = 98\nvalue = [90, 8]\nclass = 1", fillcolor="#e78c4b"] ;
87 -> 88 ;
89 [label="PM2.5 <= 0.003\ngini = 0.07\nsamples = 83\nvalue = [80, 3]\nclass = 1", fillcolor="#e68640"] ;
88 -> 89 ;
90 [label="gini = 0.0\nsamples = 1\nvalue = [0, 1]\nclass = 0", fillcolor="#399de5"] ;
89 -> 90 ;
91 [label="CH4 <= -1.264\ngini = 0.048\nsamples = 82\nvalue = [80, 2]\nclass = 1", fillcolor="#e6843e"] ;
89 -> 91 ;
92 [label="CO <= 0.333\ngini = 0.298\nsamples = 11\nvalue = [9, 2]\nclass = 1", fillcolor="#eb9d65"] ;
91 -> 92 ;
93 [label="gini = 0.0\nsamples = 9\nvalue = [9, 0]\nclass = 1", fillcolor="#e58139"] ;
92 -> 93 ;
94 [label="gini = 0.0\nsamples = 2\nvalue = [0, 2]\nclass = 0", fillcolor="#399de5"] ;
92 -> 94 ;
95 [label="gini = 0.0\nsamples = 71\nvalue = [71, 0]\nclass = 1", fillcolor="#e58139"] ;
91 -> 95 ;
96 [label="PAHs <= -1.215\ngini = 0.444\nsamples = 15\nvalue = [10, 5]\nclass = 1", fillcolor="#f2c09c"] ;
88 -> 96 ;
97 [label="gini = 0.0\nsamples = 4\nvalue = [0, 4]\nclass = 0", fillcolor="#399de5"] ;
96 -> 97 ;
98 [label="index <= 0.636\ngini = 0.165\nsamples = 11\nvalue = [10, 1]\nclass = 1", fillcolor="#e88e4d"] ;
96 -> 98 ;
99 [label="gini = 0.0\nsamples = 10\nvalue = [10, 0]\nclass = 1", fillcolor="#e58139"] ;
98 -> 99 ;
100 [label="gini = 0.0\nsamples = 1\nvalue = [0, 1]\nclass = 0", fillcolor="#399de5"] ;
98 -> 100 ;
101 [label="gini = 0.0\nsamples = 4\nvalue = [0, 4]\nclass = 0", fillcolor="#399de5"] ;
87 -> 101 ;
102 [label="index <= -0.44\ngini = 0.474\nsamples = 205\nvalue = [79, 126]\nclass = 0", fillcolor="#b5daf5"] ;
86 -> 102 ;
103 [label="TEMP <= 0.884\ngini = 0.071\nsamples = 81\nvalue = [3, 78]\nclass = 0", fillcolor="#41a1e6"] ;
102 -> 103 ;
104 [label="CFCs <= -0.225\ngini = 0.049\nsamples = 80\nvalue = [2, 78]\nclass = 0", fillcolor="#3ea0e6"] ;
103 -> 104 ;
105 [label="gini = 0.0\nsamples = 75\nvalue = [0, 75]\nclass = 0", fillcolor="#399de5"] ;
104 -> 105 ;
106 [label="PM2.5 <= 1.082\ngini = 0.48\nsamples = 5\nvalue = [2, 3]\nclass = 0", fillcolor="#bddef6"] ;
104 -> 106 ;
107 [label="gini = 0.0\nsamples = 2\nvalue = [2, 0]\nclass = 1", fillcolor="#e58139"] ;
106 -> 107 ;
108 [label="gini = 0.0\nsamples = 3\nvalue = [0, 3]\nclass = 0", fillcolor="#399de5"] ;
106 -> 108 ;
109 [label="gini = 0.0\nsamples = 1\nvalue = [1, 0]\nclass = 1", fillcolor="#e58139"] ;
103 -> 109 ;
110 [label="TEMP <= -0.245\ngini = 0.475\nsamples = 124\nvalue = [76, 48]\nclass = 1", fillcolor="#f5d1b6"] ;
102 -> 110 ;
111 [label="PM2.5 <= -0.006\ngini = 0.232\nsamples = 82\nvalue = [71, 11]\nclass = 1", fillcolor="#e99558"] ;
110 -> 111 ;
112 [label="gini = 0.0\nsamples = 3\nvalue = [0, 3]\nclass = 0", fillcolor="#399de5"] ;
111 -> 112 ;
113 [label="Pb <= -0.248\ngini = 0.182\nsamples = 79\nvalue = [71, 8]\nclass = 1", fillcolor="#e88f4f"] ;
111 -> 113 ;
114 [label="PM2.5 <= 0.825\ngini = 0.144\nsamples = 77\nvalue = [71, 6]\nclass = 1", fillcolor="#e78c4a"] ;
113 -> 114 ;
115 [label="CO <= 1.504\ngini = 0.058\nsamples = 67\nvalue = [65, 2]\nclass = 1", fillcolor="#e6853f"] ;
114 -> 115 ;
116 [label="O3 <= -1.779\ngini = 0.03\nsamples = 66\nvalue = [65, 1]\nclass = 1", fillcolor="#e5833c"] ;
115 -> 116 ;
117 [label="NH3 <= 0.042\ngini = 0.5\nsamples = 2\nvalue = [1, 1]\nclass = 1", fillcolor="#ffffff"] ;
116 -> 117 ;
118 [label="gini = 0.0\nsamples = 1\nvalue = [0, 1]\nclass = 0", fillcolor="#399de5"] ;
117 -> 118 ;
119 [label="gini = 0.0\nsamples = 1\nvalue = [1, 0]\nclass = 1", fillcolor="#e58139"] ;
117 -> 119 ;
120 [label="gini = 0.0\nsamples = 64\nvalue = [64, 0]\nclass = 1", fillcolor="#e58139"] ;
116 -> 120 ;
121 [label="gini = 0.0\nsamples = 1\nvalue = [0, 1]\nclass = 0", fillcolor="#399de5"] ;
115 -> 121 ;
122 [label="TEMP <= -1.119\ngini = 0.48\nsamples = 10\nvalue = [6, 4]\nclass = 1", fillcolor="#f6d5bd"] ;
114 -> 122 ;
123 [label="gini = 0.0\nsamples = 5\nvalue = [5, 0]\nclass = 1", fillcolor="#e58139"] ;
122 -> 123 ;
124 [label="TEMP <= -0.393\ngini = 0.32\nsamples = 5\nvalue = [1, 4]\nclass = 0", fillcolor="#6ab6ec"] ;
122 -> 124 ;
125 [label="gini = 0.0\nsamples = 4\nvalue = [0, 4]\nclass = 0", fillcolor="#399de5"] ;
124 -> 125 ;
126 [label="gini = 0.0\nsamples = 1\nvalue = [1, 0]\nclass = 1", fillcolor="#e58139"] ;
124 -> 126 ;
127 [label="gini = 0.0\nsamples = 2\nvalue = [0, 2]\nclass = 0", fillcolor="#399de5"] ;
113 -> 127 ;
128 [label="C2H3NO5 <= -1.534\ngini = 0.21\nsamples = 42\nvalue = [5, 37]\nclass = 0", fillcolor="#54aae9"] ;
110 -> 128 ;
129 [label="TEMP <= 0.23\ngini = 0.375\nsamples = 4\nvalue = [3, 1]\nclass = 1", fillcolor="#eeab7b"] ;
128 -> 129 ;
130 [label="gini = 0.0\nsamples = 3\nvalue = [3, 0]\nclass = 1", fillcolor="#e58139"] ;
129 -> 130 ;
131 [label="gini = 0.0\nsamples = 1\nvalue = [0, 1]\nclass = 0", fillcolor="#399de5"] ;
129 -> 131 ;
132 [label="C2H3NO5 <= 1.249\ngini = 0.1\nsamples = 38\nvalue = [2, 36]\nclass = 0", fillcolor="#44a2e6"] ;
128 -> 132 ;
133 [label="H2CO <= -1.177\ngini = 0.053\nsamples = 37\nvalue = [1, 36]\nclass = 0", fillcolor="#3ea0e6"] ;
132 -> 133 ;
134 [label="Pb <= -0.878\ngini = 0.375\nsamples = 4\nvalue = [1, 3]\nclass = 0", fillcolor="#7bbeee"] ;
133 -> 134 ;
135 [label="gini = 0.0\nsamples = 1\nvalue = [1, 0]\nclass = 1", fillcolor="#e58139"] ;
134 -> 135 ;
136 [label="gini = 0.0\nsamples = 3\nvalue = [0, 3]\nclass = 0", fillcolor="#399de5"] ;
134 -> 136 ;
137 [label="gini = 0.0\nsamples = 33\nvalue = [0, 33]\nclass = 0", fillcolor="#399de5"] ;
133 -> 137 ;
138 [label="gini = 0.0\nsamples = 1\nvalue = [1, 0]\nclass = 1", fillcolor="#e58139"] ;
132 -> 138 ;
139 [label="PAHs <= -0.768\ngini = 0.493\nsamples = 834\nvalue = [366, 468]\nclass = 0", fillcolor="#d4eaf9"] ;
1 -> 139 ;
140 [label="Pb <= -0.504\ngini = 0.124\nsamples = 136\nvalue = [9, 127]\nclass = 0", fillcolor="#47a4e7"] ;
139 -> 140 ;
141 [label="TEMP <= 0.377\ngini = 0.099\nsamples = 134\nvalue = [7, 127]\nclass = 0", fillcolor="#44a2e6"] ;
140 -> 141 ;
142 [label="location <= -0.7\ngini = 0.061\nsamples = 127\nvalue = [4, 123]\nclass = 0", fillcolor="#3fa0e6"] ;
141 -> 142 ;
143 [label="PRES <= 1.688\ngini = 0.047\nsamples = 125\nvalue = [3, 122]\nclass = 0", fillcolor="#3e9fe6"] ;
142 -> 143 ;
144 [label="NH3 <= -0.914\ngini = 0.032\nsamples = 122\nvalue = [2, 120]\nclass = 0", fillcolor="#3c9fe5"] ;
143 -> 144 ;
145 [label="PRES <= -1.734\ngini = 0.188\nsamples = 19\nvalue = [2, 17]\nclass = 0", fillcolor="#50a9e8"] ;
144 -> 145 ;
146 [label="gini = 0.0\nsamples = 1\nvalue = [1, 0]\nclass = 1", fillcolor="#e58139"] ;
145 -> 146 ;
147 [label="NH3 <= -0.945\ngini = 0.105\nsamples = 18\nvalue = [1, 17]\nclass = 0", fillcolor="#45a3e7"] ;
145 -> 147 ;
148 [label="gini = 0.0\nsamples = 17\nvalue = [0, 17]\nclass = 0", fillcolor="#399de5"] ;
147 -> 148 ;
149 [label="gini = 0.0\nsamples = 1\nvalue = [1, 0]\nclass = 1", fillcolor="#e58139"] ;
147 -> 149 ;
150 [label="gini = 0.0\nsamples = 103\nvalue = [0, 103]\nclass = 0", fillcolor="#399de5"] ;
144 -> 150 ;
151 [label="Pb <= -0.956\ngini = 0.444\nsamples = 3\nvalue = [1, 2]\nclass = 0", fillcolor="#9ccef2"] ;
143 -> 151 ;
152 [label="gini = 0.0\nsamples = 2\nvalue = [0, 2]\nclass = 0", fillcolor="#399de5"] ;
151 -> 152 ;
153 [label="gini = 0.0\nsamples = 1\nvalue = [1, 0]\nclass = 1", fillcolor="#e58139"] ;
151 -> 153 ;
154 [label="C2H3NO5 <= 0.658\ngini = 0.5\nsamples = 2\nvalue = [1, 1]\nclass = 1", fillcolor="#ffffff"] ;
142 -> 154 ;
155 [label="gini = 0.0\nsamples = 1\nvalue = [1, 0]\nclass = 1", fillcolor="#e58139"] ;
154 -> 155 ;
156 [label="gini = 0.0\nsamples = 1\nvalue = [0, 1]\nclass = 0", fillcolor="#399de5"] ;
154 -> 156 ;
157 [label="NH3 <= 1.092\ngini = 0.49\nsamples = 7\nvalue = [3, 4]\nclass = 0", fillcolor="#cee6f8"] ;
141 -> 157 ;
158 [label="index <= 0.864\ngini = 0.375\nsamples = 4\nvalue = [3, 1]\nclass = 1", fillcolor="#eeab7b"] ;
157 -> 158 ;
159 [label="gini = 0.0\nsamples = 3\nvalue = [3, 0]\nclass = 1", fillcolor="#e58139"] ;
158 -> 159 ;
160 [label="gini = 0.0\nsamples = 1\nvalue = [0, 1]\nclass = 0", fillcolor="#399de5"] ;
158 -> 160 ;
161 [label="gini = 0.0\nsamples = 3\nvalue = [0, 3]\nclass = 0", fillcolor="#399de5"] ;
157 -> 161 ;
162 [label="gini = 0.0\nsamples = 2\nvalue = [2, 0]\nclass = 1", fillcolor="#e58139"] ;
140 -> 162 ;
163 [label="TEMP <= 0.192\ngini = 0.5\nsamples = 698\nvalue = [357, 341]\nclass = 1", fillcolor="#fef9f6"] ;
139 -> 163 ;
164 [label="PM2.5 <= -0.232\ngini = 0.43\nsamples = 342\nvalue = [235, 107]\nclass = 1", fillcolor="#f1ba93"] ;
163 -> 164 ;
165 [label="CFCs <= 1.056\ngini = 0.234\nsamples = 170\nvalue = [147, 23]\nclass = 1", fillcolor="#e99558"] ;
164 -> 165 ;
166 [label="PRES <= -1.014\ngini = 0.086\nsamples = 134\nvalue = [128, 6]\nclass = 1", fillcolor="#e68742"] ;
165 -> 166 ;
167 [label="CFCs <= 0.85\ngini = 0.308\nsamples = 21\nvalue = [17, 4]\nclass = 1", fillcolor="#eb9f68"] ;
166 -> 167 ;
168 [label="PRES <= -1.066\ngini = 0.188\nsamples = 19\nvalue = [17, 2]\nclass = 1", fillcolor="#e89050"] ;
167 -> 168 ;
169 [label="C2H3NO5 <= -1.666\ngini = 0.105\nsamples = 18\nvalue = [17, 1]\nclass = 1", fillcolor="#e78845"] ;
168 -> 169 ;
170 [label="CH4 <= -0.299\ngini = 0.5\nsamples = 2\nvalue = [1, 1]\nclass = 1", fillcolor="#ffffff"] ;
169 -> 170 ;
171 [label="gini = 0.0\nsamples = 1\nvalue = [1, 0]\nclass = 1", fillcolor="#e58139"] ;
170 -> 171 ;
172 [label="gini = 0.0\nsamples = 1\nvalue = [0, 1]\nclass = 0", fillcolor="#399de5"] ;
170 -> 172 ;
173 [label="gini = 0.0\nsamples = 16\nvalue = [16, 0]\nclass = 1", fillcolor="#e58139"] ;
169 -> 173 ;
174 [label="gini = 0.0\nsamples = 1\nvalue = [0, 1]\nclass = 0", fillcolor="#399de5"] ;
168 -> 174 ;
175 [label="gini = 0.0\nsamples = 2\nvalue = [0, 2]\nclass = 0", fillcolor="#399de5"] ;
167 -> 175 ;
176 [label="CFCs <= 0.678\ngini = 0.035\nsamples = 113\nvalue = [111, 2]\nclass = 1", fillcolor="#e5833d"] ;
166 -> 176 ;
177 [label="gini = 0.0\nsamples = 94\nvalue = [94, 0]\nclass = 1", fillcolor="#e58139"] ;
176 -> 177 ;
178 [label="CFCs <= 0.693\ngini = 0.188\nsamples = 19\nvalue = [17, 2]\nclass = 1", fillcolor="#e89050"] ;
176 -> 178 ;
179 [label="gini = 0.0\nsamples = 2\nvalue = [0, 2]\nclass = 0", fillcolor="#399de5"] ;
178 -> 179 ;
180 [label="gini = 0.0\nsamples = 17\nvalue = [17, 0]\nclass = 1", fillcolor="#e58139"] ;
178 -> 180 ;
181 [label="Pb <= 0.128\ngini = 0.498\nsamples = 36\nvalue = [19, 17]\nclass = 1", fillcolor="#fcf2ea"] ;
165 -> 181 ;
182 [label="PM10 <= 6.5\ngini = 0.153\nsamples = 12\nvalue = [1, 11]\nclass = 0", fillcolor="#4ba6e7"] ;
181 -> 182 ;
183 [label="gini = 0.0\nsamples = 1\nvalue = [1, 0]\nclass = 1", fillcolor="#e58139"] ;
182 -> 183 ;
184 [label="gini = 0.0\nsamples = 11\nvalue = [0, 11]\nclass = 0", fillcolor="#399de5"] ;
182 -> 184 ;
185 [label="index <= -0.1\ngini = 0.375\nsamples = 24\nvalue = [18, 6]\nclass = 1", fillcolor="#eeab7b"] ;
181 -> 185 ;
186 [label="gini = 0.0\nsamples = 5\nvalue = [0, 5]\nclass = 0", fillcolor="#399de5"] ;
185 -> 186 ;
187 [label="PM2.5 <= -0.375\ngini = 0.1\nsamples = 19\nvalue = [18, 1]\nclass = 1", fillcolor="#e68844"] ;
185 -> 187 ;
188 [label="gini = 0.0\nsamples = 18\nvalue = [18, 0]\nclass = 1", fillcolor="#e58139"] ;
187 -> 188 ;
189 [label="gini = 0.0\nsamples = 1\nvalue = [0, 1]\nclass = 0", fillcolor="#399de5"] ;
187 -> 189 ;
190 [label="CFCs <= 1.601\ngini = 0.5\nsamples = 172\nvalue = [88, 84]\nclass = 1", fillcolor="#fef9f6"] ;
164 -> 190 ;
191 [label="TEMP <= -0.346\ngini = 0.49\nsamples = 144\nvalue = [62, 82]\nclass = 0", fillcolor="#cfe7f9"] ;
190 -> 191 ;
192 [label="CFCs <= 0.361\ngini = 0.493\nsamples = 95\nvalue = [53, 42]\nclass = 1", fillcolor="#fae5d6"] ;
191 -> 192 ;
193 [label="TEMP <= -0.758\ngini = 0.32\nsamples = 45\nvalue = [36, 9]\nclass = 1", fillcolor="#eca06a"] ;
192 -> 193 ;
194 [label="gini = 0.0\nsamples = 24\nvalue = [24, 0]\nclass = 1", fillcolor="#e58139"] ;
193 -> 194 ;
195 [label="PM2.5 <= 0.201\ngini = 0.49\nsamples = 21\nvalue = [12, 9]\nclass = 1", fillcolor="#f8e0ce"] ;
193 -> 195 ;
196 [label="location <= -0.924\ngini = 0.165\nsamples = 11\nvalue = [10, 1]\nclass = 1", fillcolor="#e88e4d"] ;
195 -> 196 ;
197 [label="gini = 0.0\nsamples = 10\nvalue = [10, 0]\nclass = 1", fillcolor="#e58139"] ;
196 -> 197 ;
198 [label="gini = 0.0\nsamples = 1\nvalue = [0, 1]\nclass = 0", fillcolor="#399de5"] ;
196 -> 198 ;
199 [label="index <= 1.668\ngini = 0.32\nsamples = 10\nvalue = [2, 8]\nclass = 0", fillcolor="#6ab6ec"] ;
195 -> 199 ;
200 [label="gini = 0.0\nsamples = 8\nvalue = [0, 8]\nclass = 0", fillcolor="#399de5"] ;
199 -> 200 ;
201 [label="gini = 0.0\nsamples = 2\nvalue = [2, 0]\nclass = 1", fillcolor="#e58139"] ;
199 -> 201 ;
202 [label="SO2 <= -0.214\ngini = 0.449\nsamples = 50\nvalue = [17, 33]\nclass = 0", fillcolor="#9fcff2"] ;
192 -> 202 ;
203 [label="SO2 <= -0.775\ngini = 0.488\nsamples = 19\nvalue = [11, 8]\nclass = 1", fillcolor="#f8ddc9"] ;
202 -> 203 ;
204 [label="Pb <= -0.238\ngini = 0.346\nsamples = 9\nvalue = [2, 7]\nclass = 0", fillcolor="#72b9ec"] ;
203 -> 204 ;
205 [label="gini = 0.0\nsamples = 7\nvalue = [0, 7]\nclass = 0", fillcolor="#399de5"] ;
204 -> 205 ;
206 [label="gini = 0.0\nsamples = 2\nvalue = [2, 0]\nclass = 1", fillcolor="#e58139"] ;
204 -> 206 ;
207 [label="PRES <= -1.629\ngini = 0.18\nsamples = 10\nvalue = [9, 1]\nclass = 1", fillcolor="#e88f4f"] ;
203 -> 207 ;
208 [label="gini = 0.0\nsamples = 1\nvalue = [0, 1]\nclass = 0", fillcolor="#399de5"] ;
207 -> 208 ;
209 [label="gini = 0.0\nsamples = 9\nvalue = [9, 0]\nclass = 1", fillcolor="#e58139"] ;
207 -> 209 ;
210 [label="Pb <= -0.527\ngini = 0.312\nsamples = 31\nvalue = [6, 25]\nclass = 0", fillcolor="#69b5eb"] ;
202 -> 210 ;
211 [label="CH4 <= 0.019\ngini = 0.494\nsamples = 9\nvalue = [4, 5]\nclass = 0", fillcolor="#d7ebfa"] ;
210 -> 211 ;
212 [label="gini = 0.0\nsamples = 5\nvalue = [0, 5]\nclass = 0", fillcolor="#399de5"] ;
211 -> 212 ;
213 [label="gini = 0.0\nsamples = 4\nvalue = [4, 0]\nclass = 1", fillcolor="#e58139"] ;
211 -> 213 ;
214 [label="PM10 <= 121.5\ngini = 0.165\nsamples = 22\nvalue = [2, 20]\nclass = 0", fillcolor="#4da7e8"] ;
210 -> 214 ;
215 [label="index <= 1.362\ngini = 0.091\nsamples = 21\nvalue = [1, 20]\nclass = 0", fillcolor="#43a2e6"] ;
214 -> 215 ;
216 [label="gini = 0.0\nsamples = 19\nvalue = [0, 19]\nclass = 0", fillcolor="#399de5"] ;
215 -> 216 ;
217 [label="Pb <= -0.346\ngini = 0.5\nsamples = 2\nvalue = [1, 1]\nclass = 1", fillcolor="#ffffff"] ;
215 -> 217 ;
218 [label="gini = 0.0\nsamples = 1\nvalue = [0, 1]\nclass = 0", fillcolor="#399de5"] ;
217 -> 218 ;
219 [label="gini = 0.0\nsamples = 1\nvalue = [1, 0]\nclass = 1", fillcolor="#e58139"] ;
217 -> 219 ;
220 [label="gini = 0.0\nsamples = 1\nvalue = [1, 0]\nclass = 1", fillcolor="#e58139"] ;
214 -> 220 ;
221 [label="Pb <= 1.203\ngini = 0.3\nsamples = 49\nvalue = [9, 40]\nclass = 0", fillcolor="#66b3eb"] ;
191 -> 221 ;
222 [label="CFCs <= 1.353\ngini = 0.165\nsamples = 44\nvalue = [4, 40]\nclass = 0", fillcolor="#4da7e8"] ;
221 -> 222 ;
223 [label="location <= -1.75\ngini = 0.13\nsamples = 43\nvalue = [3, 40]\nclass = 0", fillcolor="#48a4e7"] ;
222 -> 223 ;
224 [label="O3 <= 0.961\ngini = 0.48\nsamples = 5\nvalue = [2, 3]\nclass = 0", fillcolor="#bddef6"] ;
223 -> 224 ;
225 [label="gini = 0.0\nsamples = 3\nvalue = [0, 3]\nclass = 0", fillcolor="#399de5"] ;
224 -> 225 ;
226 [label="gini = 0.0\nsamples = 2\nvalue = [2, 0]\nclass = 1", fillcolor="#e58139"] ;
224 -> 226 ;
227 [label="NOx <= 1.705\ngini = 0.051\nsamples = 38\nvalue = [1, 37]\nclass = 0", fillcolor="#3ea0e6"] ;
223 -> 227 ;
228 [label="gini = 0.0\nsamples = 36\nvalue = [0, 36]\nclass = 0", fillcolor="#399de5"] ;
227 -> 228 ;
229 [label="CH4 <= 0.807\ngini = 0.5\nsamples = 2\nvalue = [1, 1]\nclass = 1", fillcolor="#ffffff"] ;
227 -> 229 ;
230 [label="gini = 0.0\nsamples = 1\nvalue = [0, 1]\nclass = 0", fillcolor="#399de5"] ;
229 -> 230 ;
231 [label="gini = 0.0\nsamples = 1\nvalue = [1, 0]\nclass = 1", fillcolor="#e58139"] ;
229 -> 231 ;
232 [label="gini = 0.0\nsamples = 1\nvalue = [1, 0]\nclass = 1", fillcolor="#e58139"] ;
222 -> 232 ;
233 [label="gini = 0.0\nsamples = 5\nvalue = [5, 0]\nclass = 1", fillcolor="#e58139"] ;
221 -> 233 ;
234 [label="CH4 <= 0.931\ngini = 0.133\nsamples = 28\nvalue = [26, 2]\nclass = 1", fillcolor="#e78b48"] ;
190 -> 234 ;
235 [label="gini = 0.0\nsamples = 25\nvalue = [25, 0]\nclass = 1", fillcolor="#e58139"] ;
234 -> 235 ;
236 [label="PRES <= 0.865\ngini = 0.444\nsamples = 3\nvalue = [1, 2]\nclass = 0", fillcolor="#9ccef2"] ;
234 -> 236 ;
237 [label="gini = 0.0\nsamples = 1\nvalue = [1, 0]\nclass = 1", fillcolor="#e58139"] ;
236 -> 237 ;
238 [label="gini = 0.0\nsamples = 2\nvalue = [0, 2]\nclass = 0", fillcolor="#399de5"] ;
236 -> 238 ;
239 [label="PM2.5 <= 0.421\ngini = 0.451\nsamples = 356\nvalue = [122, 234]\nclass = 0", fillcolor="#a0d0f3"] ;
163 -> 239 ;
240 [label="PAHs <= -0.241\ngini = 0.241\nsamples = 228\nvalue = [32, 196]\nclass = 0", fillcolor="#59ade9"] ;
239 -> 240 ;
241 [label="CFCs <= 0.246\ngini = 0.408\nsamples = 14\nvalue = [10, 4]\nclass = 1", fillcolor="#efb388"] ;
240 -> 241 ;
242 [label="gini = 0.0\nsamples = 8\nvalue = [8, 0]\nclass = 1", fillcolor="#e58139"] ;
241 -> 242 ;
243 [label="CFCs <= 0.702\ngini = 0.444\nsamples = 6\nvalue = [2, 4]\nclass = 0", fillcolor="#9ccef2"] ;
241 -> 243 ;
244 [label="gini = 0.0\nsamples = 3\nvalue = [0, 3]\nclass = 0", fillcolor="#399de5"] ;
243 -> 244 ;
245 [label="CH4 <= -0.441\ngini = 0.444\nsamples = 3\nvalue = [2, 1]\nclass = 1", fillcolor="#f2c09c"] ;
243 -> 245 ;
246 [label="gini = 0.0\nsamples = 1\nvalue = [0, 1]\nclass = 0", fillcolor="#399de5"] ;
245 -> 246 ;
247 [label="gini = 0.0\nsamples = 2\nvalue = [2, 0]\nclass = 1", fillcolor="#e58139"] ;
245 -> 247 ;
248 [label="index <= -1.192\ngini = 0.184\nsamples = 214\nvalue = [22, 192]\nclass = 0", fillcolor="#50a8e8"] ;
240 -> 248 ;
249 [label="C2H3NO5 <= 0.613\ngini = 0.32\nsamples = 5\nvalue = [4, 1]\nclass = 1", fillcolor="#eca06a"] ;
248 -> 249 ;
250 [label="gini = 0.0\nsamples = 4\nvalue = [4, 0]\nclass = 1", fillcolor="#e58139"] ;
249 -> 250 ;
251 [label="gini = 0.0\nsamples = 1\nvalue = [0, 1]\nclass = 0", fillcolor="#399de5"] ;
249 -> 251 ;
252 [label="TEMP <= 0.991\ngini = 0.157\nsamples = 209\nvalue = [18, 191]\nclass = 0", fillcolor="#4ca6e7"] ;
248 -> 252 ;
253 [label="SO2 <= 0.294\ngini = 0.27\nsamples = 87\nvalue = [14, 73]\nclass = 0", fillcolor="#5fb0ea"] ;
252 -> 253 ;
254 [label="CFCs <= 1.318\ngini = 0.375\nsamples = 52\nvalue = [13, 39]\nclass = 0", fillcolor="#7bbeee"] ;
253 -> 254 ;
255 [label="location <= -1.511\ngini = 0.315\nsamples = 46\nvalue = [9, 37]\nclass = 0", fillcolor="#69b5eb"] ;
254 -> 255 ;
256 [label="CH4 <= -0.733\ngini = 0.444\nsamples = 6\nvalue = [4, 2]\nclass = 1", fillcolor="#f2c09c"] ;
255 -> 256 ;
257 [label="gini = 0.0\nsamples = 2\nvalue = [0, 2]\nclass = 0", fillcolor="#399de5"] ;
256 -> 257 ;
258 [label="gini = 0.0\nsamples = 4\nvalue = [4, 0]\nclass = 1", fillcolor="#e58139"] ;
256 -> 258 ;
259 [label="NOx <= 1.67\ngini = 0.219\nsamples = 40\nvalue = [5, 35]\nclass = 0", fillcolor="#55abe9"] ;
255 -> 259 ;
260 [label="PAHs <= 1.579\ngini = 0.105\nsamples = 36\nvalue = [2, 34]\nclass = 0", fillcolor="#45a3e7"] ;
259 -> 260 ;
261 [label="gini = 0.0\nsamples = 33\nvalue = [0, 33]\nclass = 0", fillcolor="#399de5"] ;
260 -> 261 ;
262 [label="CO <= 0.309\ngini = 0.444\nsamples = 3\nvalue = [2, 1]\nclass = 1", fillcolor="#f2c09c"] ;
260 -> 262 ;
263 [label="gini = 0.0\nsamples = 1\nvalue = [0, 1]\nclass = 0", fillcolor="#399de5"] ;
262 -> 263 ;
264 [label="gini = 0.0\nsamples = 2\nvalue = [2, 0]\nclass = 1", fillcolor="#e58139"] ;
262 -> 264 ;
265 [label="index <= 0.622\ngini = 0.375\nsamples = 4\nvalue = [3, 1]\nclass = 1", fillcolor="#eeab7b"] ;
259 -> 265 ;
266 [label="gini = 0.0\nsamples = 3\nvalue = [3, 0]\nclass = 1", fillcolor="#e58139"] ;
265 -> 266 ;
267 [label="gini = 0.0\nsamples = 1\nvalue = [0, 1]\nclass = 0", fillcolor="#399de5"] ;
265 -> 267 ;
268 [label="PM2.5 <= -0.365\ngini = 0.444\nsamples = 6\nvalue = [4, 2]\nclass = 1", fillcolor="#f2c09c"] ;
254 -> 268 ;
269 [label="gini = 0.0\nsamples = 2\nvalue = [0, 2]\nclass = 0", fillcolor="#399de5"] ;
268 -> 269 ;
270 [label="gini = 0.0\nsamples = 4\nvalue = [4, 0]\nclass = 1", fillcolor="#e58139"] ;
268 -> 270 ;
271 [label="PM2.5 <= -1.354\ngini = 0.056\nsamples = 35\nvalue = [1, 34]\nclass = 0", fillcolor="#3fa0e6"] ;
253 -> 271 ;
272 [label="gini = 0.0\nsamples = 1\nvalue = [1, 0]\nclass = 1", fillcolor="#e58139"] ;
271 -> 272 ;
273 [label="gini = 0.0\nsamples = 34\nvalue = [0, 34]\nclass = 0", fillcolor="#399de5"] ;
271 -> 273 ;
274 [label="H2CO <= 1.235\ngini = 0.063\nsamples = 122\nvalue = [4, 118]\nclass = 0", fillcolor="#40a0e6"] ;
252 -> 274 ;
275 [label="PRES <= 1.682\ngini = 0.018\nsamples = 108\nvalue = [1, 107]\nclass = 0", fillcolor="#3b9ee5"] ;
274 -> 275 ;
276 [label="gini = 0.0\nsamples = 104\nvalue = [0, 104]\nclass = 0", fillcolor="#399de5"] ;
275 -> 276 ;
277 [label="TEMP <= 1.718\ngini = 0.375\nsamples = 4\nvalue = [1, 3]\nclass = 0", fillcolor="#7bbeee"] ;
275 -> 277 ;
278 [label="gini = 0.0\nsamples = 3\nvalue = [0, 3]\nclass = 0", fillcolor="#399de5"] ;
277 -> 278 ;
279 [label="gini = 0.0\nsamples = 1\nvalue = [1, 0]\nclass = 1", fillcolor="#e58139"] ;
277 -> 279 ;
280 [label="O3 <= 1.032\ngini = 0.337\nsamples = 14\nvalue = [3, 11]\nclass = 0", fillcolor="#6fb8ec"] ;
274 -> 280 ;
281 [label="gini = 0.0\nsamples = 9\nvalue = [0, 9]\nclass = 0", fillcolor="#399de5"] ;
280 -> 281 ;
282 [label="index <= -0.045\ngini = 0.48\nsamples = 5\nvalue = [3, 2]\nclass = 1", fillcolor="#f6d5bd"] ;
280 -> 282 ;
283 [label="gini = 0.0\nsamples = 3\nvalue = [3, 0]\nclass = 1", fillcolor="#e58139"] ;
282 -> 283 ;
284 [label="gini = 0.0\nsamples = 2\nvalue = [0, 2]\nclass = 0", fillcolor="#399de5"] ;
282 -> 284 ;
285 [label="index <= 1.005\ngini = 0.417\nsamples = 128\nvalue = [90, 38]\nclass = 1", fillcolor="#f0b68d"] ;
239 -> 285 ;
286 [label="CFCs <= 0.278\ngini = 0.106\nsamples = 89\nvalue = [84, 5]\nclass = 1", fillcolor="#e78845"] ;
285 -> 286 ;
287 [label="C2H3NO5 <= 0.428\ngini = 0.444\nsamples = 3\nvalue = [1, 2]\nclass = 0", fillcolor="#9ccef2"] ;
286 -> 287 ;
288 [label="gini = 0.0\nsamples = 1\nvalue = [1, 0]\nclass = 1", fillcolor="#e58139"] ;
287 -> 288 ;
289 [label="gini = 0.0\nsamples = 2\nvalue = [0, 2]\nclass = 0", fillcolor="#399de5"] ;
287 -> 289 ;
290 [label="TEMP <= 0.234\ngini = 0.067\nsamples = 86\nvalue = [83, 3]\nclass = 1", fillcolor="#e68640"] ;
286 -> 290 ;
291 [label="gini = 0.0\nsamples = 1\nvalue = [0, 1]\nclass = 0", fillcolor="#399de5"] ;
290 -> 291 ;
292 [label="CH4 <= -1.311\ngini = 0.046\nsamples = 85\nvalue = [83, 2]\nclass = 1", fillcolor="#e6843e"] ;
290 -> 292 ;
293 [label="CH4 <= -1.389\ngini = 0.26\nsamples = 13\nvalue = [11, 2]\nclass = 1", fillcolor="#ea985d"] ;
292 -> 293 ;
294 [label="gini = 0.0\nsamples = 10\nvalue = [10, 0]\nclass = 1", fillcolor="#e58139"] ;
293 -> 294 ;
295 [label="NOx <= -0.074\ngini = 0.444\nsamples = 3\nvalue = [1, 2]\nclass = 0", fillcolor="#9ccef2"] ;
293 -> 295 ;
296 [label="gini = 0.0\nsamples = 1\nvalue = [1, 0]\nclass = 1", fillcolor="#e58139"] ;
295 -> 296 ;
297 [label="gini = 0.0\nsamples = 2\nvalue = [0, 2]\nclass = 0", fillcolor="#399de5"] ;
295 -> 297 ;
298 [label="gini = 0.0\nsamples = 72\nvalue = [72, 0]\nclass = 1", fillcolor="#e58139"] ;
292 -> 298 ;
299 [label="CFCs <= 1.133\ngini = 0.26\nsamples = 39\nvalue = [6, 33]\nclass = 0", fillcolor="#5dafea"] ;
285 -> 299 ;
300 [label="PAHs <= -0.507\ngini = 0.108\nsamples = 35\nvalue = [2, 33]\nclass = 0", fillcolor="#45a3e7"] ;
299 -> 300 ;
301 [label="gini = 0.0\nsamples = 1\nvalue = [1, 0]\nclass = 1", fillcolor="#e58139"] ;
300 -> 301 ;
302 [label="PM2.5 <= 1.625\ngini = 0.057\nsamples = 34\nvalue = [1, 33]\nclass = 0", fillcolor="#3fa0e6"] ;
300 -> 302 ;
303 [label="gini = 0.0\nsamples = 33\nvalue = [0, 33]\nclass = 0", fillcolor="#399de5"] ;
302 -> 303 ;
304 [label="gini = 0.0\nsamples = 1\nvalue = [1, 0]\nclass = 1", fillcolor="#e58139"] ;
302 -> 304 ;
305 [label="gini = 0.0\nsamples = 4\nvalue = [4, 0]\nclass = 1", fillcolor="#e58139"] ;
299 -> 305 ;
306 [label="PAHs <= 0.332\ngini = 0.423\nsamples = 5482\nvalue = [1665, 3817]\nclass = 0", fillcolor="#8fc8f0"] ;
0 -> 306 [labeldistance=2.5, labelangle=-45, headlabel="False"] ;
307 [label="TEMP <= 0.135\ngini = 0.486\nsamples = 3150\nvalue = [1307, 1843]\nclass = 0", fillcolor="#c5e2f7"] ;
306 -> 307 ;
308 [label="index <= 0.333\ngini = 0.302\nsamples = 1951\nvalue = [362, 1589]\nclass = 0", fillcolor="#66b3eb"] ;
307 -> 308 ;
309 [label="CFCs <= 0.514\ngini = 0.193\nsamples = 1520\nvalue = [164, 1356]\nclass = 0", fillcolor="#51a9e8"] ;
308 -> 309 ;
310 [label="PM2.5 <= -0.514\ngini = 0.08\nsamples = 1346\nvalue = [56, 1290]\nclass = 0", fillcolor="#42a1e6"] ;
309 -> 310 ;
311 [label="NH3 <= -0.798\ngini = 0.198\nsamples = 9\nvalue = [8, 1]\nclass = 1", fillcolor="#e89152"] ;
310 -> 311 ;
312 [label="gini = 0.0\nsamples = 1\nvalue = [0, 1]\nclass = 0", fillcolor="#399de5"] ;
311 -> 312 ;
313 [label="gini = 0.0\nsamples = 8\nvalue = [8, 0]\nclass = 1", fillcolor="#e58139"] ;
311 -> 313 ;
314 [label="CFCs <= 0.164\ngini = 0.069\nsamples = 1337\nvalue = [48, 1289]\nclass = 0", fillcolor="#40a1e6"] ;
310 -> 314 ;
315 [label="NOx <= 1.393\ngini = 0.056\nsamples = 1244\nvalue = [36, 1208]\nclass = 0", fillcolor="#3fa0e6"] ;
314 -> 315 ;
316 [label="PM2.5 <= -0.219\ngini = 0.046\nsamples = 1110\nvalue = [26, 1084]\nclass = 0", fillcolor="#3e9fe6"] ;
315 -> 316 ;
317 [label="PRES <= -1.16\ngini = 0.278\nsamples = 12\nvalue = [2, 10]\nclass = 0", fillcolor="#61b1ea"] ;
316 -> 317 ;
318 [label="gini = 0.0\nsamples = 1\nvalue = [1, 0]\nclass = 1", fillcolor="#e58139"] ;
317 -> 318 ;
319 [label="NOx <= -1.727\ngini = 0.165\nsamples = 11\nvalue = [1, 10]\nclass = 0", fillcolor="#4da7e8"] ;
317 -> 319 ;
320 [label="gini = 0.0\nsamples = 1\nvalue = [1, 0]\nclass = 1", fillcolor="#e58139"] ;
319 -> 320 ;
321 [label="gini = 0.0\nsamples = 10\nvalue = [0, 10]\nclass = 0", fillcolor="#399de5"] ;
319 -> 321 ;
322 [label="H2CO <= -0.717\ngini = 0.043\nsamples = 1098\nvalue = [24, 1074]\nclass = 0", fillcolor="#3d9fe6"] ;
316 -> 322 ;
323 [label="H2CO <= -0.719\ngini = 0.086\nsamples = 265\nvalue = [12, 253]\nclass = 0", fillcolor="#42a2e6"] ;
322 -> 323 ;
324 [label="O3 <= -1.692\ngini = 0.08\nsamples = 264\nvalue = [11, 253]\nclass = 0", fillcolor="#42a1e6"] ;
323 -> 324 ;
325 [label="NOx <= -0.639\ngini = 0.391\nsamples = 15\nvalue = [4, 11]\nclass = 0", fillcolor="#81c1ee"] ;
324 -> 325 ;
326 [label="PAHs <= -0.703\ngini = 0.375\nsamples = 4\nvalue = [3, 1]\nclass = 1", fillcolor="#eeab7b"] ;
325 -> 326 ;
327 [label="gini = 0.0\nsamples = 1\nvalue = [0, 1]\nclass = 0", fillcolor="#399de5"] ;
326 -> 327 ;
328 [label="gini = 0.0\nsamples = 3\nvalue = [3, 0]\nclass = 1", fillcolor="#e58139"] ;
326 -> 328 ;
329 [label="TEMP <= -0.15\ngini = 0.165\nsamples = 11\nvalue = [1, 10]\nclass = 0", fillcolor="#4da7e8"] ;
325 -> 329 ;
330 [label="gini = 0.0\nsamples = 9\nvalue = [0, 9]\nclass = 0", fillcolor="#399de5"] ;
329 -> 330 ;
331 [label="TEMP <= -0.058\ngini = 0.5\nsamples = 2\nvalue = [1, 1]\nclass = 1", fillcolor="#ffffff"] ;
329 -> 331 ;
332 [label="gini = 0.0\nsamples = 1\nvalue = [1, 0]\nclass = 1", fillcolor="#e58139"] ;
331 -> 332 ;
333 [label="gini = 0.0\nsamples = 1\nvalue = [0, 1]\nclass = 0", fillcolor="#399de5"] ;
331 -> 333 ;
334 [label="NH3 <= -1.41\ngini = 0.055\nsamples = 249\nvalue = [7, 242]\nclass = 0", fillcolor="#3fa0e6"] ;
324 -> 334 ;
335 [label="SO2 <= -1.456\ngini = 0.211\nsamples = 25\nvalue = [3, 22]\nclass = 0", fillcolor="#54aae9"] ;
334 -> 335 ;
336 [label="gini = 0.0\nsamples = 1\nvalue = [1, 0]\nclass = 1", fillcolor="#e58139"] ;
335 -> 336 ;
337 [label="SO2 <= 1.496\ngini = 0.153\nsamples = 24\nvalue = [2, 22]\nclass = 0", fillcolor="#4ba6e7"] ;
335 -> 337 ;
338 [label="PM10 <= 103.5\ngini = 0.083\nsamples = 23\nvalue = [1, 22]\nclass = 0", fillcolor="#42a1e6"] ;
337 -> 338 ;
339 [label="gini = 0.0\nsamples = 21\nvalue = [0, 21]\nclass = 0", fillcolor="#399de5"] ;
338 -> 339 ;
340 [label="PAHs <= -0.302\ngini = 0.5\nsamples = 2\nvalue = [1, 1]\nclass = 1", fillcolor="#ffffff"] ;
338 -> 340 ;
341 [label="gini = 0.0\nsamples = 1\nvalue = [1, 0]\nclass = 1", fillcolor="#e58139"] ;
340 -> 341 ;
342 [label="gini = 0.0\nsamples = 1\nvalue = [0, 1]\nclass = 0", fillcolor="#399de5"] ;
340 -> 342 ;
343 [label="gini = 0.0\nsamples = 1\nvalue = [1, 0]\nclass = 1", fillcolor="#e58139"] ;
337 -> 343 ;
344 [label="location <= -0.628\ngini = 0.035\nsamples = 224\nvalue = [4, 220]\nclass = 0", fillcolor="#3d9fe5"] ;
334 -> 344 ;
345 [label="O3 <= -0.628\ngini = 0.375\nsamples = 4\nvalue = [1, 3]\nclass = 0", fillcolor="#7bbeee"] ;
344 -> 345 ;
346 [label="gini = 0.0\nsamples = 1\nvalue = [1, 0]\nclass = 1", fillcolor="#e58139"] ;
345 -> 346 ;
347 [label="gini = 0.0\nsamples = 3\nvalue = [0, 3]\nclass = 0", fillcolor="#399de5"] ;
345 -> 347 ;
348 [label="location <= 1.396\ngini = 0.027\nsamples = 220\nvalue = [3, 217]\nclass = 0", fillcolor="#3c9ee5"] ;
344 -> 348 ;
349 [label="Pb <= -1.292\ngini = 0.01\nsamples = 201\nvalue = [1, 200]\nclass = 0", fillcolor="#3a9de5"] ;
348 -> 349 ;
350 [label="NOx <= -0.903\ngini = 0.142\nsamples = 13\nvalue = [1, 12]\nclass = 0", fillcolor="#49a5e7"] ;
349 -> 350 ;
351 [label="gini = 0.0\nsamples = 1\nvalue = [1, 0]\nclass = 1", fillcolor="#e58139"] ;
350 -> 351 ;
352 [label="gini = 0.0\nsamples = 12\nvalue = [0, 12]\nclass = 0", fillcolor="#399de5"] ;
350 -> 352 ;
353 [label="gini = 0.0\nsamples = 188\nvalue = [0, 188]\nclass = 0", fillcolor="#399de5"] ;
349 -> 353 ;
354 [label="CFCs <= -0.139\ngini = 0.188\nsamples = 19\nvalue = [2, 17]\nclass = 0", fillcolor="#50a9e8"] ;
348 -> 354 ;
355 [label="location <= 1.405\ngini = 0.105\nsamples = 18\nvalue = [1, 17]\nclass = 0", fillcolor="#45a3e7"] ;
354 -> 355 ;
356 [label="gini = 0.0\nsamples = 1\nvalue = [1, 0]\nclass = 1", fillcolor="#e58139"] ;
355 -> 356 ;
357 [label="gini = 0.0\nsamples = 17\nvalue = [0, 17]\nclass = 0", fillcolor="#399de5"] ;
355 -> 357 ;
358 [label="gini = 0.0\nsamples = 1\nvalue = [1, 0]\nclass = 1", fillcolor="#e58139"] ;
354 -> 358 ;
359 [label="gini = 0.0\nsamples = 1\nvalue = [1, 0]\nclass = 1", fillcolor="#e58139"] ;
323 -> 359 ;
360 [label="C2H3NO5 <= -0.85\ngini = 0.028\nsamples = 833\nvalue = [12, 821]\nclass = 0", fillcolor="#3c9ee5"] ;
322 -> 360 ;
361 [label="C2H3NO5 <= -0.853\ngini = 0.077\nsamples = 174\nvalue = [7, 167]\nclass = 0", fillcolor="#41a1e6"] ;
360 -> 361 ;
362 [label="CFCs <= 0.013\ngini = 0.067\nsamples = 173\nvalue = [6, 167]\nclass = 0", fillcolor="#40a1e6"] ;
361 -> 362 ;
363 [label="C2H3NO5 <= -0.862\ngini = 0.048\nsamples = 164\nvalue = [4, 160]\nclass = 0", fillcolor="#3e9fe6"] ;
362 -> 363 ;
364 [label="SO2 <= -1.802\ngini = 0.037\nsamples = 161\nvalue = [3, 158]\nclass = 0", fillcolor="#3d9fe5"] ;
363 -> 364 ;
365 [label="PM2.5 <= 1.397\ngini = 0.245\nsamples = 7\nvalue = [1, 6]\nclass = 0", fillcolor="#5aade9"] ;
364 -> 365 ;
366 [label="gini = 0.0\nsamples = 6\nvalue = [0, 6]\nclass = 0", fillcolor="#399de5"] ;
365 -> 366 ;
367 [label="gini = 0.0\nsamples = 1\nvalue = [1, 0]\nclass = 1", fillcolor="#e58139"] ;
365 -> 367 ;
368 [label="NH3 <= 1.567\ngini = 0.026\nsamples = 154\nvalue = [2, 152]\nclass = 0", fillcolor="#3c9ee5"] ;
364 -> 368 ;
369 [label="CO <= -1.583\ngini = 0.014\nsamples = 143\nvalue = [1, 142]\nclass = 0", fillcolor="#3a9ee5"] ;
368 -> 369 ;
370 [label="NOx <= -0.807\ngini = 0.142\nsamples = 13\nvalue = [1, 12]\nclass = 0", fillcolor="#49a5e7"] ;
369 -> 370 ;
371 [label="gini = 0.0\nsamples = 1\nvalue = [1, 0]\nclass = 1", fillcolor="#e58139"] ;
370 -> 371 ;
372 [label="gini = 0.0\nsamples = 12\nvalue = [0, 12]\nclass = 0", fillcolor="#399de5"] ;
370 -> 372 ;
373 [label="gini = 0.0\nsamples = 130\nvalue = [0, 130]\nclass = 0", fillcolor="#399de5"] ;
369 -> 373 ;
374 [label="NH3 <= 1.575\ngini = 0.165\nsamples = 11\nvalue = [1, 10]\nclass = 0", fillcolor="#4da7e8"] ;
368 -> 374 ;
375 [label="gini = 0.0\nsamples = 1\nvalue = [1, 0]\nclass = 1", fillcolor="#e58139"] ;
374 -> 375 ;
376 [label="gini = 0.0\nsamples = 10\nvalue = [0, 10]\nclass = 0", fillcolor="#399de5"] ;
374 -> 376 ;
377 [label="CFCs <= -0.841\ngini = 0.444\nsamples = 3\nvalue = [1, 2]\nclass = 0", fillcolor="#9ccef2"] ;
363 -> 377 ;
378 [label="gini = 0.0\nsamples = 1\nvalue = [1, 0]\nclass = 1", fillcolor="#e58139"] ;
377 -> 378 ;
379 [label="gini = 0.0\nsamples = 2\nvalue = [0, 2]\nclass = 0", fillcolor="#399de5"] ;
377 -> 379 ;
380 [label="PRES <= 0.24\ngini = 0.346\nsamples = 9\nvalue = [2, 7]\nclass = 0", fillcolor="#72b9ec"] ;
362 -> 380 ;
381 [label="SO2 <= 0.983\ngini = 0.444\nsamples = 3\nvalue = [2, 1]\nclass = 1", fillcolor="#f2c09c"] ;
380 -> 381 ;
382 [label="gini = 0.0\nsamples = 2\nvalue = [2, 0]\nclass = 1", fillcolor="#e58139"] ;
381 -> 382 ;
383 [label="gini = 0.0\nsamples = 1\nvalue = [0, 1]\nclass = 0", fillcolor="#399de5"] ;
381 -> 383 ;
384 [label="gini = 0.0\nsamples = 6\nvalue = [0, 6]\nclass = 0", fillcolor="#399de5"] ;
380 -> 384 ;
385 [label="gini = 0.0\nsamples = 1\nvalue = [1, 0]\nclass = 1", fillcolor="#e58139"] ;
361 -> 385 ;
386 [label="location <= -0.386\ngini = 0.015\nsamples = 659\nvalue = [5, 654]\nclass = 0", fillcolor="#3b9ee5"] ;
360 -> 386 ;
387 [label="location <= -0.388\ngini = 0.092\nsamples = 62\nvalue = [3, 59]\nclass = 0", fillcolor="#43a2e6"] ;
386 -> 387 ;
388 [label="PRES <= -1.167\ngini = 0.063\nsamples = 61\nvalue = [2, 59]\nclass = 0", fillcolor="#40a0e6"] ;
387 -> 388 ;
389 [label="C2H3NO5 <= 0.771\ngini = 0.298\nsamples = 11\nvalue = [2, 9]\nclass = 0", fillcolor="#65b3eb"] ;
388 -> 389 ;
390 [label="gini = 0.0\nsamples = 8\nvalue = [0, 8]\nclass = 0", fillcolor="#399de5"] ;
389 -> 390 ;
391 [label="CFCs <= -0.652\ngini = 0.444\nsamples = 3\nvalue = [2, 1]\nclass = 1", fillcolor="#f2c09c"] ;
389 -> 391 ;
392 [label="gini = 0.0\nsamples = 2\nvalue = [2, 0]\nclass = 1", fillcolor="#e58139"] ;
391 -> 392 ;
393 [label="gini = 0.0\nsamples = 1\nvalue = [0, 1]\nclass = 0", fillcolor="#399de5"] ;
391 -> 393 ;
394 [label="gini = 0.0\nsamples = 50\nvalue = [0, 50]\nclass = 0", fillcolor="#399de5"] ;
388 -> 394 ;
395 [label="gini = 0.0\nsamples = 1\nvalue = [1, 0]\nclass = 1", fillcolor="#e58139"] ;
387 -> 395 ;
396 [label="TEMP <= -0.019\ngini = 0.007\nsamples = 597\nvalue = [2, 595]\nclass = 0", fillcolor="#3a9de5"] ;
386 -> 396 ;
397 [label="NOx <= -1.843\ngini = 0.003\nsamples = 571\nvalue = [1, 570]\nclass = 0", fillcolor="#399de5"] ;
396 -> 397 ;
398 [label="CFCs <= -1.728\ngini = 0.067\nsamples = 29\nvalue = [1, 28]\nclass = 0", fillcolor="#40a0e6"] ;
397 -> 398 ;
399 [label="TEMP <= -1.379\ngini = 0.5\nsamples = 2\nvalue = [1, 1]\nclass = 1", fillcolor="#ffffff"] ;
398 -> 399 ;
400 [label="gini = 0.0\nsamples = 1\nvalue = [1, 0]\nclass = 1", fillcolor="#e58139"] ;
399 -> 400 ;
401 [label="gini = 0.0\nsamples = 1\nvalue = [0, 1]\nclass = 0", fillcolor="#399de5"] ;
399 -> 401 ;
402 [label="gini = 0.0\nsamples = 27\nvalue = [0, 27]\nclass = 0", fillcolor="#399de5"] ;
398 -> 402 ;
403 [label="gini = 0.0\nsamples = 542\nvalue = [0, 542]\nclass = 0", fillcolor="#399de5"] ;
397 -> 403 ;
404 [label="TEMP <= -0.017\ngini = 0.074\nsamples = 26\nvalue = [1, 25]\nclass = 0", fillcolor="#41a1e6"] ;
396 -> 404 ;
405 [label="gini = 0.0\nsamples = 1\nvalue = [1, 0]\nclass = 1", fillcolor="#e58139"] ;
404 -> 405 ;
406 [label="gini = 0.0\nsamples = 25\nvalue = [0, 25]\nclass = 0", fillcolor="#399de5"] ;
404 -> 406 ;
407 [label="NOx <= 1.394\ngini = 0.138\nsamples = 134\nvalue = [10, 124]\nclass = 0", fillcolor="#49a5e7"] ;
315 -> 407 ;
408 [label="gini = 0.0\nsamples = 1\nvalue = [1, 0]\nclass = 1", fillcolor="#e58139"] ;
407 -> 408 ;
409 [label="Pb <= 0.271\ngini = 0.126\nsamples = 133\nvalue = [9, 124]\nclass = 0", fillcolor="#47a4e7"] ;
407 -> 409 ;
410 [label="NH3 <= 1.594\ngini = 0.114\nsamples = 132\nvalue = [8, 124]\nclass = 0", fillcolor="#46a3e7"] ;
409 -> 410 ;
411 [label="C2H3NO5 <= -0.336\ngini = 0.077\nsamples = 124\nvalue = [5, 119]\nclass = 0", fillcolor="#41a1e6"] ;
410 -> 411 ;
412 [label="NOx <= 1.615\ngini = 0.224\nsamples = 39\nvalue = [5, 34]\nclass = 0", fillcolor="#56abe9"] ;
411 -> 412 ;
413 [label="O3 <= -0.191\ngini = 0.463\nsamples = 11\nvalue = [4, 7]\nclass = 0", fillcolor="#aad5f4"] ;
412 -> 413 ;
414 [label="gini = 0.0\nsamples = 3\nvalue = [3, 0]\nclass = 1", fillcolor="#e58139"] ;
413 -> 414 ;
415 [label="PM10 <= 2.0\ngini = 0.219\nsamples = 8\nvalue = [1, 7]\nclass = 0", fillcolor="#55abe9"] ;
413 -> 415 ;
416 [label="gini = 0.0\nsamples = 1\nvalue = [1, 0]\nclass = 1", fillcolor="#e58139"] ;
415 -> 416 ;
417 [label="gini = 0.0\nsamples = 7\nvalue = [0, 7]\nclass = 0", fillcolor="#399de5"] ;
415 -> 417 ;
418 [label="Pb <= -0.011\ngini = 0.069\nsamples = 28\nvalue = [1, 27]\nclass = 0", fillcolor="#40a1e6"] ;
412 -> 418 ;
419 [label="gini = 0.0\nsamples = 27\nvalue = [0, 27]\nclass = 0", fillcolor="#399de5"] ;
418 -> 419 ;
420 [label="gini = 0.0\nsamples = 1\nvalue = [1, 0]\nclass = 1", fillcolor="#e58139"] ;
418 -> 420 ;
421 [label="gini = 0.0\nsamples = 85\nvalue = [0, 85]\nclass = 0", fillcolor="#399de5"] ;
411 -> 421 ;
422 [label="Pb <= -0.831\ngini = 0.469\nsamples = 8\nvalue = [3, 5]\nclass = 0", fillcolor="#b0d8f5"] ;
410 -> 422 ;
423 [label="gini = 0.0\nsamples = 4\nvalue = [0, 4]\nclass = 0", fillcolor="#399de5"] ;
422 -> 423 ;
424 [label="PM10 <= 37.0\ngini = 0.375\nsamples = 4\nvalue = [3, 1]\nclass = 1", fillcolor="#eeab7b"] ;
422 -> 424 ;
425 [label="gini = 0.0\nsamples = 3\nvalue = [3, 0]\nclass = 1", fillcolor="#e58139"] ;
424 -> 425 ;
426 [label="gini = 0.0\nsamples = 1\nvalue = [0, 1]\nclass = 0", fillcolor="#399de5"] ;
424 -> 426 ;
427 [label="gini = 0.0\nsamples = 1\nvalue = [1, 0]\nclass = 1", fillcolor="#e58139"] ;
409 -> 427 ;
428 [label="location <= 0.686\ngini = 0.225\nsamples = 93\nvalue = [12, 81]\nclass = 0", fillcolor="#56ace9"] ;
314 -> 428 ;
429 [label="TEMP <= 0.017\ngini = 0.028\nsamples = 70\nvalue = [1, 69]\nclass = 0", fillcolor="#3c9ee5"] ;
428 -> 429 ;
430 [label="gini = 0.0\nsamples = 67\nvalue = [0, 67]\nclass = 0", fillcolor="#399de5"] ;
429 -> 430 ;
431 [label="PM10 <= 13.5\ngini = 0.444\nsamples = 3\nvalue = [1, 2]\nclass = 0", fillcolor="#9ccef2"] ;
429 -> 431 ;
432 [label="gini = 0.0\nsamples = 1\nvalue = [1, 0]\nclass = 1", fillcolor="#e58139"] ;
431 -> 432 ;
433 [label="gini = 0.0\nsamples = 2\nvalue = [0, 2]\nclass = 0", fillcolor="#399de5"] ;
431 -> 433 ;
434 [label="TEMP <= -0.4\ngini = 0.499\nsamples = 23\nvalue = [11, 12]\nclass = 0", fillcolor="#eff7fd"] ;
428 -> 434 ;
435 [label="O3 <= -1.049\ngini = 0.153\nsamples = 12\nvalue = [1, 11]\nclass = 0", fillcolor="#4ba6e7"] ;
434 -> 435 ;
436 [label="gini = 0.0\nsamples = 1\nvalue = [1, 0]\nclass = 1", fillcolor="#e58139"] ;
435 -> 436 ;
437 [label="gini = 0.0\nsamples = 11\nvalue = [0, 11]\nclass = 0", fillcolor="#399de5"] ;
435 -> 437 ;
438 [label="C2H3NO5 <= -1.612\ngini = 0.165\nsamples = 11\nvalue = [10, 1]\nclass = 1", fillcolor="#e88e4d"] ;
434 -> 438 ;
439 [label="gini = 0.0\nsamples = 1\nvalue = [0, 1]\nclass = 0", fillcolor="#399de5"] ;
438 -> 439 ;
440 [label="gini = 0.0\nsamples = 10\nvalue = [10, 0]\nclass = 1", fillcolor="#e58139"] ;
438 -> 440 ;
441 [label="TEMP <= -0.595\ngini = 0.471\nsamples = 174\nvalue = [108, 66]\nclass = 1", fillcolor="#f5ceb2"] ;
309 -> 441 ;
442 [label="location <= 1.608\ngini = 0.103\nsamples = 55\nvalue = [3, 52]\nclass = 0", fillcolor="#44a3e6"] ;
441 -> 442 ;
443 [label="CO <= 1.523\ngini = 0.071\nsamples = 54\nvalue = [2, 52]\nclass = 0", fillcolor="#41a1e6"] ;
442 -> 443 ;
444 [label="NOx <= 1.461\ngini = 0.038\nsamples = 52\nvalue = [1, 51]\nclass = 0", fillcolor="#3d9fe6"] ;
443 -> 444 ;
445 [label="gini = 0.0\nsamples = 47\nvalue = [0, 47]\nclass = 0", fillcolor="#399de5"] ;
444 -> 445 ;
446 [label="index <= -0.11\ngini = 0.32\nsamples = 5\nvalue = [1, 4]\nclass = 0", fillcolor="#6ab6ec"] ;
444 -> 446 ;
447 [label="gini = 0.0\nsamples = 4\nvalue = [0, 4]\nclass = 0", fillcolor="#399de5"] ;
446 -> 447 ;
448 [label="gini = 0.0\nsamples = 1\nvalue = [1, 0]\nclass = 1", fillcolor="#e58139"] ;
446 -> 448 ;
449 [label="NOx <= -0.545\ngini = 0.5\nsamples = 2\nvalue = [1, 1]\nclass = 1", fillcolor="#ffffff"] ;
443 -> 449 ;
450 [label="gini = 0.0\nsamples = 1\nvalue = [0, 1]\nclass = 0", fillcolor="#399de5"] ;
449 -> 450 ;
451 [label="gini = 0.0\nsamples = 1\nvalue = [1, 0]\nclass = 1", fillcolor="#e58139"] ;
449 -> 451 ;
452 [label="gini = 0.0\nsamples = 1\nvalue = [1, 0]\nclass = 1", fillcolor="#e58139"] ;
442 -> 452 ;
453 [label="location <= 0.002\ngini = 0.208\nsamples = 119\nvalue = [105, 14]\nclass = 1", fillcolor="#e89253"] ;
441 -> 453 ;
454 [label="TEMP <= -0.29\ngini = 0.496\nsamples = 22\nvalue = [12, 10]\nclass = 1", fillcolor="#fbeade"] ;
453 -> 454 ;
455 [label="gini = 0.0\nsamples = 8\nvalue = [0, 8]\nclass = 0", fillcolor="#399de5"] ;
454 -> 455 ;
456 [label="CFCs <= 0.931\ngini = 0.245\nsamples = 14\nvalue = [12, 2]\nclass = 1", fillcolor="#e9965a"] ;
454 -> 456 ;
457 [label="gini = 0.0\nsamples = 2\nvalue = [0, 2]\nclass = 0", fillcolor="#399de5"] ;
456 -> 457 ;
458 [label="gini = 0.0\nsamples = 12\nvalue = [12, 0]\nclass = 1", fillcolor="#e58139"] ;
456 -> 458 ;
459 [label="location <= 1.489\ngini = 0.079\nsamples = 97\nvalue = [93, 4]\nclass = 1", fillcolor="#e68642"] ;
453 -> 459 ;
460 [label="CFCs <= 0.529\ngini = 0.042\nsamples = 94\nvalue = [92, 2]\nclass = 1", fillcolor="#e6843d"] ;
459 -> 460 ;
461 [label="PAHs <= -0.99\ngini = 0.5\nsamples = 2\nvalue = [1, 1]\nclass = 1", fillcolor="#ffffff"] ;
460 -> 461 ;
462 [label="gini = 0.0\nsamples = 1\nvalue = [0, 1]\nclass = 0", fillcolor="#399de5"] ;
461 -> 462 ;
463 [label="gini = 0.0\nsamples = 1\nvalue = [1, 0]\nclass = 1", fillcolor="#e58139"] ;
461 -> 463 ;
464 [label="index <= 0.275\ngini = 0.022\nsamples = 92\nvalue = [91, 1]\nclass = 1", fillcolor="#e5823b"] ;
460 -> 464 ;
465 [label="gini = 0.0\nsamples = 89\nvalue = [89, 0]\nclass = 1", fillcolor="#e58139"] ;
464 -> 465 ;
466 [label="NOx <= 0.044\ngini = 0.444\nsamples = 3\nvalue = [2, 1]\nclass = 1", fillcolor="#f2c09c"] ;
464 -> 466 ;
467 [label="gini = 0.0\nsamples = 2\nvalue = [2, 0]\nclass = 1", fillcolor="#e58139"] ;
466 -> 467 ;
468 [label="gini = 0.0\nsamples = 1\nvalue = [0, 1]\nclass = 0", fillcolor="#399de5"] ;
466 -> 468 ;
469 [label="PM2.5 <= 0.137\ngini = 0.444\nsamples = 3\nvalue = [1, 2]\nclass = 0", fillcolor="#9ccef2"] ;
459 -> 469 ;
470 [label="gini = 0.0\nsamples = 1\nvalue = [1, 0]\nclass = 1", fillcolor="#e58139"] ;
469 -> 470 ;
471 [label="gini = 0.0\nsamples = 2\nvalue = [0, 2]\nclass = 0", fillcolor="#399de5"] ;
469 -> 471 ;
472 [label="CFCs <= 0.134\ngini = 0.497\nsamples = 431\nvalue = [198, 233]\nclass = 0", fillcolor="#e1f0fb"] ;
308 -> 472 ;
473 [label="PM2.5 <= 0.534\ngini = 0.306\nsamples = 154\nvalue = [125, 29]\nclass = 1", fillcolor="#eb9e67"] ;
472 -> 473 ;
474 [label="TEMP <= -0.026\ngini = 0.102\nsamples = 130\nvalue = [123, 7]\nclass = 1", fillcolor="#e68844"] ;
473 -> 474 ;
475 [label="location <= 1.264\ngini = 0.089\nsamples = 129\nvalue = [123, 6]\nclass = 1", fillcolor="#e68743"] ;
474 -> 475 ;
476 [label="NOx <= -1.188\ngini = 0.075\nsamples = 128\nvalue = [123, 5]\nclass = 1", fillcolor="#e68641"] ;
475 -> 476 ;
477 [label="CFCs <= -0.313\ngini = 0.252\nsamples = 27\nvalue = [23, 4]\nclass = 1", fillcolor="#ea975b"] ;
476 -> 477 ;
478 [label="gini = 0.0\nsamples = 17\nvalue = [17, 0]\nclass = 1", fillcolor="#e58139"] ;
477 -> 478 ;
479 [label="CFCs <= -0.111\ngini = 0.48\nsamples = 10\nvalue = [6, 4]\nclass = 1", fillcolor="#f6d5bd"] ;
477 -> 479 ;
480 [label="gini = 0.0\nsamples = 4\nvalue = [0, 4]\nclass = 0", fillcolor="#399de5"] ;
479 -> 480 ;
481 [label="gini = 0.0\nsamples = 6\nvalue = [6, 0]\nclass = 1", fillcolor="#e58139"] ;
479 -> 481 ;
482 [label="NH3 <= 1.784\ngini = 0.02\nsamples = 101\nvalue = [100, 1]\nclass = 1", fillcolor="#e5823b"] ;
476 -> 482 ;
483 [label="gini = 0.0\nsamples = 98\nvalue = [98, 0]\nclass = 1", fillcolor="#e58139"] ;
482 -> 483 ;
484 [label="location <= -0.139\ngini = 0.444\nsamples = 3\nvalue = [2, 1]\nclass = 1", fillcolor="#f2c09c"] ;
482 -> 484 ;
485 [label="gini = 0.0\nsamples = 2\nvalue = [2, 0]\nclass = 1", fillcolor="#e58139"] ;
484 -> 485 ;
486 [label="gini = 0.0\nsamples = 1\nvalue = [0, 1]\nclass = 0", fillcolor="#399de5"] ;
484 -> 486 ;
487 [label="gini = 0.0\nsamples = 1\nvalue = [0, 1]\nclass = 0", fillcolor="#399de5"] ;
475 -> 487 ;
488 [label="gini = 0.0\nsamples = 1\nvalue = [0, 1]\nclass = 0", fillcolor="#399de5"] ;
474 -> 488 ;
489 [label="TEMP <= -1.381\ngini = 0.153\nsamples = 24\nvalue = [2, 22]\nclass = 0", fillcolor="#4ba6e7"] ;
473 -> 489 ;
490 [label="gini = 0.0\nsamples = 2\nvalue = [2, 0]\nclass = 1", fillcolor="#e58139"] ;
489 -> 490 ;
491 [label="gini = 0.0\nsamples = 22\nvalue = [0, 22]\nclass = 0", fillcolor="#399de5"] ;
489 -> 491 ;
492 [label="CFCs <= 1.648\ngini = 0.388\nsamples = 277\nvalue = [73, 204]\nclass = 0", fillcolor="#80c0ee"] ;
472 -> 492 ;
493 [label="CFCs <= 0.425\ngini = 0.31\nsamples = 235\nvalue = [45, 190]\nclass = 0", fillcolor="#68b4eb"] ;
492 -> 493 ;
494 [label="PM2.5 <= 0.173\ngini = 0.482\nsamples = 47\nvalue = [19, 28]\nclass = 0", fillcolor="#bfe0f7"] ;
493 -> 494 ;
495 [label="H2CO <= 1.083\ngini = 0.308\nsamples = 21\nvalue = [17, 4]\nclass = 1", fillcolor="#eb9f68"] ;
494 -> 495 ;
496 [label="PRES <= 1.379\ngini = 0.188\nsamples = 19\nvalue = [17, 2]\nclass = 1", fillcolor="#e89050"] ;
495 -> 496 ;
497 [label="NOx <= 1.099\ngini = 0.105\nsamples = 18\nvalue = [17, 1]\nclass = 1", fillcolor="#e78845"] ;
496 -> 497 ;
498 [label="gini = 0.0\nsamples = 15\nvalue = [15, 0]\nclass = 1", fillcolor="#e58139"] ;
497 -> 498 ;
499 [label="NOx <= 1.194\ngini = 0.444\nsamples = 3\nvalue = [2, 1]\nclass = 1", fillcolor="#f2c09c"] ;
497 -> 499 ;
500 [label="gini = 0.0\nsamples = 1\nvalue = [0, 1]\nclass = 0", fillcolor="#399de5"] ;
499 -> 500 ;
501 [label="gini = 0.0\nsamples = 2\nvalue = [2, 0]\nclass = 1", fillcolor="#e58139"] ;
499 -> 501 ;
502 [label="gini = 0.0\nsamples = 1\nvalue = [0, 1]\nclass = 0", fillcolor="#399de5"] ;
496 -> 502 ;
503 [label="gini = 0.0\nsamples = 2\nvalue = [0, 2]\nclass = 0", fillcolor="#399de5"] ;
495 -> 503 ;
504 [label="PAHs <= 0.301\ngini = 0.142\nsamples = 26\nvalue = [2, 24]\nclass = 0", fillcolor="#49a5e7"] ;
494 -> 504 ;
505 [label="NH3 <= -1.685\ngini = 0.077\nsamples = 25\nvalue = [1, 24]\nclass = 0", fillcolor="#41a1e6"] ;
504 -> 505 ;
506 [label="PRES <= 0.281\ngini = 0.375\nsamples = 4\nvalue = [1, 3]\nclass = 0", fillcolor="#7bbeee"] ;
505 -> 506 ;
507 [label="gini = 0.0\nsamples = 1\nvalue = [1, 0]\nclass = 1", fillcolor="#e58139"] ;
506 -> 507 ;
508 [label="gini = 0.0\nsamples = 3\nvalue = [0, 3]\nclass = 0", fillcolor="#399de5"] ;
506 -> 508 ;
509 [label="gini = 0.0\nsamples = 21\nvalue = [0, 21]\nclass = 0", fillcolor="#399de5"] ;
505 -> 509 ;
510 [label="gini = 0.0\nsamples = 1\nvalue = [1, 0]\nclass = 1", fillcolor="#e58139"] ;
504 -> 510 ;
511 [label="PAHs <= -1.13\ngini = 0.238\nsamples = 188\nvalue = [26, 162]\nclass = 0", fillcolor="#59ade9"] ;
493 -> 511 ;
512 [label="NH3 <= -1.009\ngini = 0.32\nsamples = 5\nvalue = [4, 1]\nclass = 1", fillcolor="#eca06a"] ;
511 -> 512 ;
513 [label="gini = 0.0\nsamples = 1\nvalue = [0, 1]\nclass = 0", fillcolor="#399de5"] ;
512 -> 513 ;
514 [label="gini = 0.0\nsamples = 4\nvalue = [4, 0]\nclass = 1", fillcolor="#e58139"] ;
512 -> 514 ;
515 [label="TEMP <= 0.051\ngini = 0.212\nsamples = 183\nvalue = [22, 161]\nclass = 0", fillcolor="#54aae9"] ;
511 -> 515 ;
516 [label="SO2 <= -1.022\ngini = 0.192\nsamples = 177\nvalue = [19, 158]\nclass = 0", fillcolor="#51a9e8"] ;
515 -> 516 ;
517 [label="CH4 <= -0.861\ngini = 0.375\nsamples = 32\nvalue = [8, 24]\nclass = 0", fillcolor="#7bbeee"] ;
516 -> 517 ;
518 [label="location <= 0.7\ngini = 0.444\nsamples = 9\nvalue = [6, 3]\nclass = 1", fillcolor="#f2c09c"] ;
517 -> 518 ;
519 [label="gini = 0.0\nsamples = 6\nvalue = [6, 0]\nclass = 1", fillcolor="#e58139"] ;
518 -> 519 ;
520 [label="gini = 0.0\nsamples = 3\nvalue = [0, 3]\nclass = 0", fillcolor="#399de5"] ;
518 -> 520 ;
521 [label="PM2.5 <= 0.271\ngini = 0.159\nsamples = 23\nvalue = [2, 21]\nclass = 0", fillcolor="#4ca6e7"] ;
517 -> 521 ;
522 [label="gini = 0.0\nsamples = 15\nvalue = [0, 15]\nclass = 0", fillcolor="#399de5"] ;
521 -> 522 ;
523 [label="CFCs <= 1.019\ngini = 0.375\nsamples = 8\nvalue = [2, 6]\nclass = 0", fillcolor="#7bbeee"] ;
521 -> 523 ;
524 [label="gini = 0.0\nsamples = 6\nvalue = [0, 6]\nclass = 0", fillcolor="#399de5"] ;
523 -> 524 ;
525 [label="gini = 0.0\nsamples = 2\nvalue = [2, 0]\nclass = 1", fillcolor="#e58139"] ;
523 -> 525 ;
526 [label="location <= -0.45\ngini = 0.14\nsamples = 145\nvalue = [11, 134]\nclass = 0", fillcolor="#49a5e7"] ;
516 -> 526 ;
527 [label="CH4 <= 0.673\ngini = 0.415\nsamples = 17\nvalue = [5, 12]\nclass = 0", fillcolor="#8bc6f0"] ;
526 -> 527 ;
528 [label="SO2 <= 1.145\ngini = 0.245\nsamples = 14\nvalue = [2, 12]\nclass = 0", fillcolor="#5aade9"] ;
527 -> 528 ;
529 [label="gini = 0.0\nsamples = 11\nvalue = [0, 11]\nclass = 0", fillcolor="#399de5"] ;
528 -> 529 ;
530 [label="CH4 <= -1.323\ngini = 0.444\nsamples = 3\nvalue = [2, 1]\nclass = 1", fillcolor="#f2c09c"] ;
528 -> 530 ;
531 [label="gini = 0.0\nsamples = 1\nvalue = [0, 1]\nclass = 0", fillcolor="#399de5"] ;
530 -> 531 ;
532 [label="gini = 0.0\nsamples = 2\nvalue = [2, 0]\nclass = 1", fillcolor="#e58139"] ;
530 -> 532 ;
533 [label="gini = 0.0\nsamples = 3\nvalue = [3, 0]\nclass = 1", fillcolor="#e58139"] ;
527 -> 533 ;
534 [label="PM2.5 <= 1.66\ngini = 0.089\nsamples = 128\nvalue = [6, 122]\nclass = 0", fillcolor="#43a2e6"] ;
526 -> 534 ;
535 [label="PM2.5 <= 0.421\ngini = 0.076\nsamples = 127\nvalue = [5, 122]\nclass = 0", fillcolor="#41a1e6"] ;
534 -> 535 ;
536 [label="PAHs <= 0.275\ngini = 0.02\nsamples = 101\nvalue = [1, 100]\nclass = 0", fillcolor="#3b9ee5"] ;
535 -> 536 ;
537 [label="gini = 0.0\nsamples = 88\nvalue = [0, 88]\nclass = 0", fillcolor="#399de5"] ;
536 -> 537 ;
538 [label="PAHs <= 0.281\ngini = 0.142\nsamples = 13\nvalue = [1, 12]\nclass = 0", fillcolor="#49a5e7"] ;
536 -> 538 ;
539 [label="gini = 0.0\nsamples = 1\nvalue = [1, 0]\nclass = 1", fillcolor="#e58139"] ;
538 -> 539 ;
540 [label="gini = 0.0\nsamples = 12\nvalue = [0, 12]\nclass = 0", fillcolor="#399de5"] ;
538 -> 540 ;
541 [label="PM2.5 <= 0.479\ngini = 0.26\nsamples = 26\nvalue = [4, 22]\nclass = 0", fillcolor="#5dafea"] ;
535 -> 541 ;
542 [label="gini = 0.0\nsamples = 2\nvalue = [2, 0]\nclass = 1", fillcolor="#e58139"] ;
541 -> 542 ;
543 [label="NH3 <= -1.506\ngini = 0.153\nsamples = 24\nvalue = [2, 22]\nclass = 0", fillcolor="#4ba6e7"] ;
541 -> 543 ;
544 [label="gini = 0.0\nsamples = 1\nvalue = [1, 0]\nclass = 1", fillcolor="#e58139"] ;
543 -> 544 ;
545 [label="CFCs <= 1.417\ngini = 0.083\nsamples = 23\nvalue = [1, 22]\nclass = 0", fillcolor="#42a1e6"] ;
543 -> 545 ;
546 [label="gini = 0.0\nsamples = 21\nvalue = [0, 21]\nclass = 0", fillcolor="#399de5"] ;
545 -> 546 ;
547 [label="NOx <= 0.623\ngini = 0.5\nsamples = 2\nvalue = [1, 1]\nclass = 1", fillcolor="#ffffff"] ;
545 -> 547 ;
548 [label="gini = 0.0\nsamples = 1\nvalue = [1, 0]\nclass = 1", fillcolor="#e58139"] ;
547 -> 548 ;
549 [label="gini = 0.0\nsamples = 1\nvalue = [0, 1]\nclass = 0", fillcolor="#399de5"] ;
547 -> 549 ;
550 [label="gini = 0.0\nsamples = 1\nvalue = [1, 0]\nclass = 1", fillcolor="#e58139"] ;
534 -> 550 ;
551 [label="CO <= -0.226\ngini = 0.5\nsamples = 6\nvalue = [3, 3]\nclass = 1", fillcolor="#ffffff"] ;
515 -> 551 ;
552 [label="gini = 0.0\nsamples = 3\nvalue = [3, 0]\nclass = 1", fillcolor="#e58139"] ;
551 -> 552 ;
553 [label="gini = 0.0\nsamples = 3\nvalue = [0, 3]\nclass = 0", fillcolor="#399de5"] ;
551 -> 553 ;
554 [label="PM2.5 <= -0.262\ngini = 0.444\nsamples = 42\nvalue = [28, 14]\nclass = 1", fillcolor="#f2c09c"] ;
492 -> 554 ;
555 [label="gini = 0.0\nsamples = 11\nvalue = [0, 11]\nclass = 0", fillcolor="#399de5"] ;
554 -> 555 ;
556 [label="C2H3NO5 <= 1.557\ngini = 0.175\nsamples = 31\nvalue = [28, 3]\nclass = 1", fillcolor="#e88e4e"] ;
554 -> 556 ;
557 [label="location <= -0.48\ngini = 0.069\nsamples = 28\nvalue = [27, 1]\nclass = 1", fillcolor="#e68640"] ;
556 -> 557 ;
558 [label="Pb <= -0.686\ngini = 0.5\nsamples = 2\nvalue = [1, 1]\nclass = 1", fillcolor="#ffffff"] ;
557 -> 558 ;
559 [label="gini = 0.0\nsamples = 1\nvalue = [0, 1]\nclass = 0", fillcolor="#399de5"] ;
558 -> 559 ;
560 [label="gini = 0.0\nsamples = 1\nvalue = [1, 0]\nclass = 1", fillcolor="#e58139"] ;
558 -> 560 ;
561 [label="gini = 0.0\nsamples = 26\nvalue = [26, 0]\nclass = 1", fillcolor="#e58139"] ;
557 -> 561 ;
562 [label="C2H3NO5 <= 1.637\ngini = 0.444\nsamples = 3\nvalue = [1, 2]\nclass = 0", fillcolor="#9ccef2"] ;
556 -> 562 ;
563 [label="gini = 0.0\nsamples = 2\nvalue = [0, 2]\nclass = 0", fillcolor="#399de5"] ;
562 -> 563 ;
564 [label="gini = 0.0\nsamples = 1\nvalue = [1, 0]\nclass = 1", fillcolor="#e58139"] ;
562 -> 564 ;
565 [label="index <= 0.005\ngini = 0.334\nsamples = 1199\nvalue = [945, 254]\nclass = 1", fillcolor="#eca36e"] ;
307 -> 565 ;
566 [label="CFCs <= -1.039\ngini = 0.185\nsamples = 943\nvalue = [846, 97]\nclass = 1", fillcolor="#e88f50"] ;
565 -> 566 ;
567 [label="TEMP <= 1.102\ngini = 0.382\nsamples = 70\nvalue = [18, 52]\nclass = 0", fillcolor="#7ebfee"] ;
566 -> 567 ;
568 [label="C2H3NO5 <= 1.239\ngini = 0.185\nsamples = 58\nvalue = [6, 52]\nclass = 0", fillcolor="#50a8e8"] ;
567 -> 568 ;
569 [label="PM2.5 <= -1.314\ngini = 0.075\nsamples = 51\nvalue = [2, 49]\nclass = 0", fillcolor="#41a1e6"] ;
568 -> 569 ;
570 [label="gini = 0.0\nsamples = 1\nvalue = [1, 0]\nclass = 1", fillcolor="#e58139"] ;
569 -> 570 ;
571 [label="CO <= 1.483\ngini = 0.039\nsamples = 50\nvalue = [1, 49]\nclass = 0", fillcolor="#3d9fe6"] ;
569 -> 571 ;
572 [label="gini = 0.0\nsamples = 45\nvalue = [0, 45]\nclass = 0", fillcolor="#399de5"] ;
571 -> 572 ;
573 [label="CFCs <= -1.55\ngini = 0.32\nsamples = 5\nvalue = [1, 4]\nclass = 0", fillcolor="#6ab6ec"] ;
571 -> 573 ;
574 [label="gini = 0.0\nsamples = 1\nvalue = [1, 0]\nclass = 1", fillcolor="#e58139"] ;
573 -> 574 ;
575 [label="gini = 0.0\nsamples = 4\nvalue = [0, 4]\nclass = 0", fillcolor="#399de5"] ;
573 -> 575 ;
576 [label="CO <= -0.341\ngini = 0.49\nsamples = 7\nvalue = [4, 3]\nclass = 1", fillcolor="#f8e0ce"] ;
568 -> 576 ;
577 [label="gini = 0.0\nsamples = 3\nvalue = [0, 3]\nclass = 0", fillcolor="#399de5"] ;
576 -> 577 ;
578 [label="gini = 0.0\nsamples = 4\nvalue = [4, 0]\nclass = 1", fillcolor="#e58139"] ;
576 -> 578 ;
579 [label="gini = 0.0\nsamples = 12\nvalue = [12, 0]\nclass = 1", fillcolor="#e58139"] ;
567 -> 579 ;
580 [label="TEMP <= 0.41\ngini = 0.098\nsamples = 873\nvalue = [828, 45]\nclass = 1", fillcolor="#e68844"] ;
566 -> 580 ;
581 [label="CFCs <= -0.043\ngini = 0.292\nsamples = 141\nvalue = [116, 25]\nclass = 1", fillcolor="#eb9c64"] ;
580 -> 581 ;
582 [label="location <= 0.842\ngini = 0.391\nsamples = 30\nvalue = [8, 22]\nclass = 0", fillcolor="#81c1ee"] ;
581 -> 582 ;
583 [label="PM2.5 <= 0.408\ngini = 0.172\nsamples = 21\nvalue = [2, 19]\nclass = 0", fillcolor="#4ea7e8"] ;
582 -> 583 ;
584 [label="gini = 0.0\nsamples = 17\nvalue = [0, 17]\nclass = 0", fillcolor="#399de5"] ;
583 -> 584 ;
585 [label="SO2 <= 0.569\ngini = 0.5\nsamples = 4\nvalue = [2, 2]\nclass = 1", fillcolor="#ffffff"] ;
583 -> 585 ;
586 [label="gini = 0.0\nsamples = 2\nvalue = [2, 0]\nclass = 1", fillcolor="#e58139"] ;
585 -> 586 ;
587 [label="gini = 0.0\nsamples = 2\nvalue = [0, 2]\nclass = 0", fillcolor="#399de5"] ;
585 -> 587 ;
588 [label="H2CO <= 0.374\ngini = 0.444\nsamples = 9\nvalue = [6, 3]\nclass = 1", fillcolor="#f2c09c"] ;
582 -> 588 ;
589 [label="gini = 0.0\nsamples = 6\nvalue = [6, 0]\nclass = 1", fillcolor="#e58139"] ;
588 -> 589 ;
590 [label="gini = 0.0\nsamples = 3\nvalue = [0, 3]\nclass = 0", fillcolor="#399de5"] ;
588 -> 590 ;
591 [label="TEMP <= 0.141\ngini = 0.053\nsamples = 111\nvalue = [108, 3]\nclass = 1", fillcolor="#e6843e"] ;
581 -> 591 ;
592 [label="index <= -0.2\ngini = 0.444\nsamples = 3\nvalue = [2, 1]\nclass = 1", fillcolor="#f2c09c"] ;
591 -> 592 ;
593 [label="gini = 0.0\nsamples = 2\nvalue = [2, 0]\nclass = 1", fillcolor="#e58139"] ;
592 -> 593 ;
594 [label="gini = 0.0\nsamples = 1\nvalue = [0, 1]\nclass = 0", fillcolor="#399de5"] ;
592 -> 594 ;
595 [label="location <= 1.717\ngini = 0.036\nsamples = 108\nvalue = [106, 2]\nclass = 1", fillcolor="#e5833d"] ;
591 -> 595 ;
596 [label="PRES <= -1.59\ngini = 0.019\nsamples = 105\nvalue = [104, 1]\nclass = 1", fillcolor="#e5823b"] ;
595 -> 596 ;
597 [label="PRES <= -1.641\ngini = 0.18\nsamples = 10\nvalue = [9, 1]\nclass = 1", fillcolor="#e88f4f"] ;
596 -> 597 ;
598 [label="gini = 0.0\nsamples = 9\nvalue = [9, 0]\nclass = 1", fillcolor="#e58139"] ;
597 -> 598 ;
599 [label="gini = 0.0\nsamples = 1\nvalue = [0, 1]\nclass = 0", fillcolor="#399de5"] ;
597 -> 599 ;
600 [label="gini = 0.0\nsamples = 95\nvalue = [95, 0]\nclass = 1", fillcolor="#e58139"] ;
596 -> 600 ;
601 [label="SO2 <= 0.398\ngini = 0.444\nsamples = 3\nvalue = [2, 1]\nclass = 1", fillcolor="#f2c09c"] ;
595 -> 601 ;
602 [label="gini = 0.0\nsamples = 1\nvalue = [0, 1]\nclass = 0", fillcolor="#399de5"] ;
601 -> 602 ;
603 [label="gini = 0.0\nsamples = 2\nvalue = [2, 0]\nclass = 1", fillcolor="#e58139"] ;
601 -> 603 ;
604 [label="location <= -0.669\ngini = 0.053\nsamples = 732\nvalue = [712, 20]\nclass = 1", fillcolor="#e6853f"] ;
580 -> 604 ;
605 [label="gini = 0.0\nsamples = 1\nvalue = [0, 1]\nclass = 0", fillcolor="#399de5"] ;
604 -> 605 ;
606 [label="index <= -0.237\ngini = 0.051\nsamples = 731\nvalue = [712, 19]\nclass = 1", fillcolor="#e6843e"] ;
604 -> 606 ;
607 [label="Pb <= -1.048\ngini = 0.038\nsamples = 676\nvalue = [663, 13]\nclass = 1", fillcolor="#e6833d"] ;
606 -> 607 ;
608 [label="Pb <= -1.051\ngini = 0.076\nsamples = 202\nvalue = [194, 8]\nclass = 1", fillcolor="#e68641"] ;
607 -> 608 ;
609 [label="Pb <= -1.08\ngini = 0.067\nsamples = 201\nvalue = [194, 7]\nclass = 1", fillcolor="#e68640"] ;
608 -> 609 ;
610 [label="SO2 <= -1.458\ngini = 0.043\nsamples = 183\nvalue = [179, 4]\nclass = 1", fillcolor="#e6843d"] ;
609 -> 610 ;
611 [label="SO2 <= -1.48\ngini = 0.188\nsamples = 19\nvalue = [17, 2]\nclass = 1", fillcolor="#e89050"] ;
610 -> 611 ;
612 [label="gini = 0.0\nsamples = 17\nvalue = [17, 0]\nclass = 1", fillcolor="#e58139"] ;
611 -> 612 ;
613 [label="gini = 0.0\nsamples = 2\nvalue = [0, 2]\nclass = 0", fillcolor="#399de5"] ;
611 -> 613 ;
614 [label="PRES <= 1.229\ngini = 0.024\nsamples = 164\nvalue = [162, 2]\nclass = 1", fillcolor="#e5833b"] ;
610 -> 614 ;
615 [label="gini = 0.0\nsamples = 144\nvalue = [144, 0]\nclass = 1", fillcolor="#e58139"] ;
614 -> 615 ;
616 [label="PRES <= 1.343\ngini = 0.18\nsamples = 20\nvalue = [18, 2]\nclass = 1", fillcolor="#e88f4f"] ;
614 -> 616 ;
617 [label="location <= 1.27\ngini = 0.444\nsamples = 3\nvalue = [1, 2]\nclass = 0", fillcolor="#9ccef2"] ;
616 -> 617 ;
618 [label="gini = 0.0\nsamples = 2\nvalue = [0, 2]\nclass = 0", fillcolor="#399de5"] ;
617 -> 618 ;
619 [label="gini = 0.0\nsamples = 1\nvalue = [1, 0]\nclass = 1", fillcolor="#e58139"] ;
617 -> 619 ;
620 [label="gini = 0.0\nsamples = 17\nvalue = [17, 0]\nclass = 1", fillcolor="#e58139"] ;
616 -> 620 ;
621 [label="Pb <= -1.072\ngini = 0.278\nsamples = 18\nvalue = [15, 3]\nclass = 1", fillcolor="#ea9a61"] ;
609 -> 621 ;
622 [label="gini = 0.0\nsamples = 2\nvalue = [0, 2]\nclass = 0", fillcolor="#399de5"] ;
621 -> 622 ;
623 [label="PRES <= -1.592\ngini = 0.117\nsamples = 16\nvalue = [15, 1]\nclass = 1", fillcolor="#e78946"] ;
621 -> 623 ;
624 [label="PM10 <= 41.5\ngini = 0.5\nsamples = 2\nvalue = [1, 1]\nclass = 1", fillcolor="#ffffff"] ;
623 -> 624 ;
625 [label="gini = 0.0\nsamples = 1\nvalue = [1, 0]\nclass = 1", fillcolor="#e58139"] ;
624 -> 625 ;
626 [label="gini = 0.0\nsamples = 1\nvalue = [0, 1]\nclass = 0", fillcolor="#399de5"] ;
624 -> 626 ;
627 [label="gini = 0.0\nsamples = 14\nvalue = [14, 0]\nclass = 1", fillcolor="#e58139"] ;
623 -> 627 ;
628 [label="gini = 0.0\nsamples = 1\nvalue = [0, 1]\nclass = 0", fillcolor="#399de5"] ;
608 -> 628 ;
629 [label="H2CO <= 1.457\ngini = 0.021\nsamples = 474\nvalue = [469, 5]\nclass = 1", fillcolor="#e5823b"] ;
607 -> 629 ;
630 [label="TEMP <= 0.427\ngini = 0.009\nsamples = 427\nvalue = [425, 2]\nclass = 1", fillcolor="#e5823a"] ;
629 -> 630 ;
631 [label="C2H3NO5 <= 1.159\ngini = 0.198\nsamples = 9\nvalue = [8, 1]\nclass = 1", fillcolor="#e89152"] ;
630 -> 631 ;
632 [label="gini = 0.0\nsamples = 8\nvalue = [8, 0]\nclass = 1", fillcolor="#e58139"] ;
631 -> 632 ;
633 [label="gini = 0.0\nsamples = 1\nvalue = [0, 1]\nclass = 0", fillcolor="#399de5"] ;
631 -> 633 ;
634 [label="index <= -0.347\ngini = 0.005\nsamples = 418\nvalue = [417, 1]\nclass = 1", fillcolor="#e58139"] ;
630 -> 634 ;
635 [label="gini = 0.0\nsamples = 403\nvalue = [403, 0]\nclass = 1", fillcolor="#e58139"] ;
634 -> 635 ;
636 [label="O3 <= -0.939\ngini = 0.124\nsamples = 15\nvalue = [14, 1]\nclass = 1", fillcolor="#e78a47"] ;
634 -> 636 ;
637 [label="gini = 0.0\nsamples = 1\nvalue = [0, 1]\nclass = 0", fillcolor="#399de5"] ;
636 -> 637 ;
638 [label="gini = 0.0\nsamples = 14\nvalue = [14, 0]\nclass = 1", fillcolor="#e58139"] ;
636 -> 638 ;
639 [label="H2CO <= 1.475\ngini = 0.12\nsamples = 47\nvalue = [44, 3]\nclass = 1", fillcolor="#e78a46"] ;
629 -> 639 ;
640 [label="gini = 0.0\nsamples = 2\nvalue = [0, 2]\nclass = 0", fillcolor="#399de5"] ;
639 -> 640 ;
641 [label="NOx <= -1.681\ngini = 0.043\nsamples = 45\nvalue = [44, 1]\nclass = 1", fillcolor="#e6843d"] ;
639 -> 641 ;
642 [label="gini = 0.0\nsamples = 1\nvalue = [0, 1]\nclass = 0", fillcolor="#399de5"] ;
641 -> 642 ;
643 [label="gini = 0.0\nsamples = 44\nvalue = [44, 0]\nclass = 1", fillcolor="#e58139"] ;
641 -> 643 ;
644 [label="PM2.5 <= -0.185\ngini = 0.194\nsamples = 55\nvalue = [49, 6]\nclass = 1", fillcolor="#e89051"] ;
606 -> 644 ;
645 [label="NOx <= -1.142\ngini = 0.375\nsamples = 4\nvalue = [1, 3]\nclass = 0", fillcolor="#7bbeee"] ;
644 -> 645 ;
646 [label="gini = 0.0\nsamples = 1\nvalue = [1, 0]\nclass = 1", fillcolor="#e58139"] ;
645 -> 646 ;
647 [label="gini = 0.0\nsamples = 3\nvalue = [0, 3]\nclass = 0", fillcolor="#399de5"] ;
645 -> 647 ;
648 [label="index <= -0.234\ngini = 0.111\nsamples = 51\nvalue = [48, 3]\nclass = 1", fillcolor="#e78945"] ;
644 -> 648 ;
649 [label="gini = 0.0\nsamples = 1\nvalue = [0, 1]\nclass = 0", fillcolor="#399de5"] ;
648 -> 649 ;
650 [label="CFCs <= -0.383\ngini = 0.077\nsamples = 50\nvalue = [48, 2]\nclass = 1", fillcolor="#e68641"] ;
648 -> 650 ;
651 [label="CFCs <= -0.43\ngini = 0.5\nsamples = 2\nvalue = [1, 1]\nclass = 1", fillcolor="#ffffff"] ;
650 -> 651 ;
652 [label="gini = 0.0\nsamples = 1\nvalue = [1, 0]\nclass = 1", fillcolor="#e58139"] ;
651 -> 652 ;
653 [label="gini = 0.0\nsamples = 1\nvalue = [0, 1]\nclass = 0", fillcolor="#399de5"] ;
651 -> 653 ;
654 [label="PM2.5 <= 0.005\ngini = 0.041\nsamples = 48\nvalue = [47, 1]\nclass = 1", fillcolor="#e6843d"] ;
650 -> 654 ;
655 [label="TEMP <= 0.778\ngini = 0.444\nsamples = 3\nvalue = [2, 1]\nclass = 1", fillcolor="#f2c09c"] ;
654 -> 655 ;
656 [label="gini = 0.0\nsamples = 1\nvalue = [0, 1]\nclass = 0", fillcolor="#399de5"] ;
655 -> 656 ;
657 [label="gini = 0.0\nsamples = 2\nvalue = [2, 0]\nclass = 1", fillcolor="#e58139"] ;
655 -> 657 ;
658 [label="gini = 0.0\nsamples = 45\nvalue = [45, 0]\nclass = 1", fillcolor="#e58139"] ;
654 -> 658 ;
659 [label="CFCs <= 0.623\ngini = 0.474\nsamples = 256\nvalue = [99, 157]\nclass = 0", fillcolor="#b6dbf5"] ;
565 -> 659 ;
660 [label="PM2.5 <= -0.771\ngini = 0.228\nsamples = 137\nvalue = [18, 119]\nclass = 0", fillcolor="#57ace9"] ;
659 -> 660 ;
661 [label="CFCs <= 0.371\ngini = 0.355\nsamples = 13\nvalue = [10, 3]\nclass = 1", fillcolor="#eda774"] ;
660 -> 661 ;
662 [label="PM10 <= 39.0\ngini = 0.165\nsamples = 11\nvalue = [10, 1]\nclass = 1", fillcolor="#e88e4d"] ;
661 -> 662 ;
663 [label="gini = 0.0\nsamples = 10\nvalue = [10, 0]\nclass = 1", fillcolor="#e58139"] ;
662 -> 663 ;
664 [label="gini = 0.0\nsamples = 1\nvalue = [0, 1]\nclass = 0", fillcolor="#399de5"] ;
662 -> 664 ;
665 [label="gini = 0.0\nsamples = 2\nvalue = [0, 2]\nclass = 0", fillcolor="#399de5"] ;
661 -> 665 ;
666 [label="CFCs <= 0.324\ngini = 0.121\nsamples = 124\nvalue = [8, 116]\nclass = 0", fillcolor="#47a4e7"] ;
660 -> 666 ;
667 [label="PAHs <= -1.227\ngini = 0.038\nsamples = 102\nvalue = [2, 100]\nclass = 0", fillcolor="#3d9fe6"] ;
666 -> 667 ;
668 [label="gini = 0.0\nsamples = 1\nvalue = [1, 0]\nclass = 1", fillcolor="#e58139"] ;
667 -> 668 ;
669 [label="PM2.5 <= -0.66\ngini = 0.02\nsamples = 101\nvalue = [1, 100]\nclass = 0", fillcolor="#3b9ee5"] ;
667 -> 669 ;
670 [label="H2CO <= -0.736\ngini = 0.444\nsamples = 3\nvalue = [1, 2]\nclass = 0", fillcolor="#9ccef2"] ;
669 -> 670 ;
671 [label="gini = 0.0\nsamples = 2\nvalue = [0, 2]\nclass = 0", fillcolor="#399de5"] ;
670 -> 671 ;
672 [label="gini = 0.0\nsamples = 1\nvalue = [1, 0]\nclass = 1", fillcolor="#e58139"] ;
670 -> 672 ;
673 [label="gini = 0.0\nsamples = 98\nvalue = [0, 98]\nclass = 0", fillcolor="#399de5"] ;
669 -> 673 ;
674 [label="index <= 0.483\ngini = 0.397\nsamples = 22\nvalue = [6, 16]\nclass = 0", fillcolor="#83c2ef"] ;
666 -> 674 ;
675 [label="H2CO <= 0.264\ngini = 0.48\nsamples = 10\nvalue = [6, 4]\nclass = 1", fillcolor="#f6d5bd"] ;
674 -> 675 ;
676 [label="NH3 <= 0.159\ngini = 0.32\nsamples = 5\nvalue = [1, 4]\nclass = 0", fillcolor="#6ab6ec"] ;
675 -> 676 ;
677 [label="gini = 0.0\nsamples = 1\nvalue = [1, 0]\nclass = 1", fillcolor="#e58139"] ;
676 -> 677 ;
678 [label="gini = 0.0\nsamples = 4\nvalue = [0, 4]\nclass = 0", fillcolor="#399de5"] ;
676 -> 678 ;
679 [label="gini = 0.0\nsamples = 5\nvalue = [5, 0]\nclass = 1", fillcolor="#e58139"] ;
675 -> 679 ;
680 [label="gini = 0.0\nsamples = 12\nvalue = [0, 12]\nclass = 0", fillcolor="#399de5"] ;
674 -> 680 ;
681 [label="index <= 1.372\ngini = 0.435\nsamples = 119\nvalue = [81, 38]\nclass = 1", fillcolor="#f1bc96"] ;
659 -> 681 ;
682 [label="PM2.5 <= 0.019\ngini = 0.238\nsamples = 94\nvalue = [81, 13]\nclass = 1", fillcolor="#e99559"] ;
681 -> 682 ;
683 [label="location <= 0.013\ngini = 0.497\nsamples = 13\nvalue = [6, 7]\nclass = 0", fillcolor="#e3f1fb"] ;
682 -> 683 ;
684 [label="gini = 0.0\nsamples = 6\nvalue = [0, 6]\nclass = 0", fillcolor="#399de5"] ;
683 -> 684 ;
685 [label="SO2 <= 0.819\ngini = 0.245\nsamples = 7\nvalue = [6, 1]\nclass = 1", fillcolor="#e9965a"] ;
683 -> 685 ;
686 [label="gini = 0.0\nsamples = 6\nvalue = [6, 0]\nclass = 1", fillcolor="#e58139"] ;
685 -> 686 ;
687 [label="gini = 0.0\nsamples = 1\nvalue = [0, 1]\nclass = 0", fillcolor="#399de5"] ;
685 -> 687 ;
688 [label="CO <= 1.516\ngini = 0.137\nsamples = 81\nvalue = [75, 6]\nclass = 1", fillcolor="#e78b49"] ;
682 -> 688 ;
689 [label="H2CO <= -1.643\ngini = 0.101\nsamples = 75\nvalue = [71, 4]\nclass = 1", fillcolor="#e68844"] ;
688 -> 689 ;
690 [label="H2CO <= -1.772\ngini = 0.5\nsamples = 2\nvalue = [1, 1]\nclass = 1", fillcolor="#ffffff"] ;
689 -> 690 ;
691 [label="gini = 0.0\nsamples = 1\nvalue = [1, 0]\nclass = 1", fillcolor="#e58139"] ;
690 -> 691 ;
692 [label="gini = 0.0\nsamples = 1\nvalue = [0, 1]\nclass = 0", fillcolor="#399de5"] ;
690 -> 692 ;
693 [label="CFCs <= 1.017\ngini = 0.079\nsamples = 73\nvalue = [70, 3]\nclass = 1", fillcolor="#e68641"] ;
689 -> 693 ;
694 [label="index <= 0.741\ngini = 0.278\nsamples = 18\nvalue = [15, 3]\nclass = 1", fillcolor="#ea9a61"] ;
693 -> 694 ;
695 [label="NOx <= 1.503\ngini = 0.117\nsamples = 16\nvalue = [15, 1]\nclass = 1", fillcolor="#e78946"] ;
694 -> 695 ;
696 [label="gini = 0.0\nsamples = 15\nvalue = [15, 0]\nclass = 1", fillcolor="#e58139"] ;
695 -> 696 ;
697 [label="gini = 0.0\nsamples = 1\nvalue = [0, 1]\nclass = 0", fillcolor="#399de5"] ;
695 -> 697 ;
698 [label="gini = 0.0\nsamples = 2\nvalue = [0, 2]\nclass = 0", fillcolor="#399de5"] ;
694 -> 698 ;
699 [label="gini = 0.0\nsamples = 55\nvalue = [55, 0]\nclass = 1", fillcolor="#e58139"] ;
693 -> 699 ;
700 [label="PRES <= 0.032\ngini = 0.444\nsamples = 6\nvalue = [4, 2]\nclass = 1", fillcolor="#f2c09c"] ;
688 -> 700 ;
701 [label="gini = 0.0\nsamples = 4\nvalue = [4, 0]\nclass = 1", fillcolor="#e58139"] ;
700 -> 701 ;
702 [label="gini = 0.0\nsamples = 2\nvalue = [0, 2]\nclass = 0", fillcolor="#399de5"] ;
700 -> 702 ;
703 [label="gini = 0.0\nsamples = 25\nvalue = [0, 25]\nclass = 0", fillcolor="#399de5"] ;
681 -> 703 ;
704 [label="TEMP <= -1.422\ngini = 0.26\nsamples = 2332\nvalue = [358, 1974]\nclass = 0", fillcolor="#5dafea"] ;
306 -> 704 ;
705 [label="index <= 0.5\ngini = 0.372\nsamples = 97\nvalue = [73, 24]\nclass = 1", fillcolor="#eeaa7a"] ;
704 -> 705 ;
706 [label="SO2 <= 1.241\ngini = 0.219\nsamples = 24\nvalue = [3, 21]\nclass = 0", fillcolor="#55abe9"] ;
705 -> 706 ;
707 [label="PAHs <= 1.153\ngini = 0.087\nsamples = 22\nvalue = [1, 21]\nclass = 0", fillcolor="#42a2e6"] ;
706 -> 707 ;
708 [label="gini = 0.0\nsamples = 21\nvalue = [0, 21]\nclass = 0", fillcolor="#399de5"] ;
707 -> 708 ;
709 [label="gini = 0.0\nsamples = 1\nvalue = [1, 0]\nclass = 1", fillcolor="#e58139"] ;
707 -> 709 ;
710 [label="gini = 0.0\nsamples = 2\nvalue = [2, 0]\nclass = 1", fillcolor="#e58139"] ;
706 -> 710 ;
711 [label="location <= 1.213\ngini = 0.079\nsamples = 73\nvalue = [70, 3]\nclass = 1", fillcolor="#e68641"] ;
705 -> 711 ;
712 [label="SO2 <= -1.814\ngini = 0.054\nsamples = 72\nvalue = [70, 2]\nclass = 1", fillcolor="#e6853f"] ;
711 -> 712 ;
713 [label="CFCs <= 0.291\ngini = 0.5\nsamples = 2\nvalue = [1, 1]\nclass = 1", fillcolor="#ffffff"] ;
712 -> 713 ;
714 [label="gini = 0.0\nsamples = 1\nvalue = [0, 1]\nclass = 0", fillcolor="#399de5"] ;
713 -> 714 ;
715 [label="gini = 0.0\nsamples = 1\nvalue = [1, 0]\nclass = 1", fillcolor="#e58139"] ;
713 -> 715 ;
716 [label="CO <= -1.58\ngini = 0.028\nsamples = 70\nvalue = [69, 1]\nclass = 1", fillcolor="#e5833c"] ;
712 -> 716 ;
717 [label="SO2 <= -0.322\ngini = 0.5\nsamples = 2\nvalue = [1, 1]\nclass = 1", fillcolor="#ffffff"] ;
716 -> 717 ;
718 [label="gini = 0.0\nsamples = 1\nvalue = [0, 1]\nclass = 0", fillcolor="#399de5"] ;
717 -> 718 ;
719 [label="gini = 0.0\nsamples = 1\nvalue = [1, 0]\nclass = 1", fillcolor="#e58139"] ;
717 -> 719 ;
720 [label="gini = 0.0\nsamples = 68\nvalue = [68, 0]\nclass = 1", fillcolor="#e58139"] ;
716 -> 720 ;
721 [label="gini = 0.0\nsamples = 1\nvalue = [0, 1]\nclass = 0", fillcolor="#399de5"] ;
711 -> 721 ;
722 [label="location <= 0.376\ngini = 0.223\nsamples = 2235\nvalue = [285, 1950]\nclass = 0", fillcolor="#56abe9"] ;
704 -> 722 ;
723 [label="index <= -0.409\ngini = 0.368\nsamples = 934\nvalue = [227, 707]\nclass = 0", fillcolor="#79bced"] ;
722 -> 723 ;
724 [label="PM2.5 <= -0.848\ngini = 0.451\nsamples = 169\nvalue = [111, 58]\nclass = 1", fillcolor="#f3c3a0"] ;
723 -> 724 ;
725 [label="CFCs <= -0.06\ngini = 0.145\nsamples = 51\nvalue = [4, 47]\nclass = 0", fillcolor="#4aa5e7"] ;
724 -> 725 ;
726 [label="H2CO <= -0.251\ngini = 0.375\nsamples = 4\nvalue = [3, 1]\nclass = 1", fillcolor="#eeab7b"] ;
725 -> 726 ;
727 [label="gini = 0.0\nsamples = 1\nvalue = [0, 1]\nclass = 0", fillcolor="#399de5"] ;
726 -> 727 ;
728 [label="gini = 0.0\nsamples = 3\nvalue = [3, 0]\nclass = 1", fillcolor="#e58139"] ;
726 -> 728 ;
729 [label="PRES <= -1.814\ngini = 0.042\nsamples = 47\nvalue = [1, 46]\nclass = 0", fillcolor="#3d9fe6"] ;
725 -> 729 ;
730 [label="NOx <= -0.66\ngini = 0.444\nsamples = 3\nvalue = [1, 2]\nclass = 0", fillcolor="#9ccef2"] ;
729 -> 730 ;
731 [label="gini = 0.0\nsamples = 1\nvalue = [1, 0]\nclass = 1", fillcolor="#e58139"] ;
730 -> 731 ;
732 [label="gini = 0.0\nsamples = 2\nvalue = [0, 2]\nclass = 0", fillcolor="#399de5"] ;
730 -> 732 ;
733 [label="gini = 0.0\nsamples = 44\nvalue = [0, 44]\nclass = 0", fillcolor="#399de5"] ;
729 -> 733 ;
734 [label="Pb <= 1.66\ngini = 0.169\nsamples = 118\nvalue = [107, 11]\nclass = 1", fillcolor="#e88e4d"] ;
724 -> 734 ;
735 [label="TEMP <= -0.238\ngini = 0.088\nsamples = 109\nvalue = [104, 5]\nclass = 1", fillcolor="#e68743"] ;
734 -> 735 ;
736 [label="gini = 0.0\nsamples = 3\nvalue = [0, 3]\nclass = 0", fillcolor="#399de5"] ;
735 -> 736 ;
737 [label="CFCs <= -1.414\ngini = 0.037\nsamples = 106\nvalue = [104, 2]\nclass = 1", fillcolor="#e6833d"] ;
735 -> 737 ;
738 [label="gini = 0.0\nsamples = 1\nvalue = [0, 1]\nclass = 0", fillcolor="#399de5"] ;
737 -> 738 ;
739 [label="index <= -1.529\ngini = 0.019\nsamples = 105\nvalue = [104, 1]\nclass = 1", fillcolor="#e5823b"] ;
737 -> 739 ;
740 [label="CO <= 0.777\ngini = 0.142\nsamples = 13\nvalue = [12, 1]\nclass = 1", fillcolor="#e78c49"] ;
739 -> 740 ;
741 [label="gini = 0.0\nsamples = 12\nvalue = [12, 0]\nclass = 1", fillcolor="#e58139"] ;
740 -> 741 ;
742 [label="gini = 0.0\nsamples = 1\nvalue = [0, 1]\nclass = 0", fillcolor="#399de5"] ;
740 -> 742 ;
743 [label="gini = 0.0\nsamples = 92\nvalue = [92, 0]\nclass = 1", fillcolor="#e58139"] ;
739 -> 743 ;
744 [label="C2H3NO5 <= 1.225\ngini = 0.444\nsamples = 9\nvalue = [3, 6]\nclass = 0", fillcolor="#9ccef2"] ;
734 -> 744 ;
745 [label="NH3 <= 1.259\ngini = 0.245\nsamples = 7\nvalue = [1, 6]\nclass = 0", fillcolor="#5aade9"] ;
744 -> 745 ;
746 [label="gini = 0.0\nsamples = 6\nvalue = [0, 6]\nclass = 0", fillcolor="#399de5"] ;
745 -> 746 ;
747 [label="gini = 0.0\nsamples = 1\nvalue = [1, 0]\nclass = 1", fillcolor="#e58139"] ;
745 -> 747 ;
748 [label="gini = 0.0\nsamples = 2\nvalue = [2, 0]\nclass = 1", fillcolor="#e58139"] ;
744 -> 748 ;
749 [label="TEMP <= 0.597\ngini = 0.257\nsamples = 765\nvalue = [116, 649]\nclass = 0", fillcolor="#5cafea"] ;
723 -> 749 ;
750 [label="location <= -0.398\ngini = 0.389\nsamples = 336\nvalue = [89, 247]\nclass = 0", fillcolor="#80c0ee"] ;
749 -> 750 ;
751 [label="PM2.5 <= 0.246\ngini = 0.5\nsamples = 80\nvalue = [41, 39]\nclass = 1", fillcolor="#fef9f5"] ;
750 -> 751 ;
752 [label="index <= 1.165\ngini = 0.465\nsamples = 57\nvalue = [21, 36]\nclass = 0", fillcolor="#acd6f4"] ;
751 -> 752 ;
753 [label="Pb <= 1.579\ngini = 0.325\nsamples = 44\nvalue = [9, 35]\nclass = 0", fillcolor="#6cb6ec"] ;
752 -> 753 ;
754 [label="CH4 <= 1.636\ngini = 0.184\nsamples = 39\nvalue = [4, 35]\nclass = 0", fillcolor="#50a8e8"] ;
753 -> 754 ;
755 [label="PM2.5 <= 0.156\ngini = 0.105\nsamples = 36\nvalue = [2, 34]\nclass = 0", fillcolor="#45a3e7"] ;
754 -> 755 ;
756 [label="gini = 0.0\nsamples = 32\nvalue = [0, 32]\nclass = 0", fillcolor="#399de5"] ;
755 -> 756 ;
757 [label="CFCs <= 0.864\ngini = 0.5\nsamples = 4\nvalue = [2, 2]\nclass = 1", fillcolor="#ffffff"] ;
755 -> 757 ;
758 [label="gini = 0.0\nsamples = 2\nvalue = [0, 2]\nclass = 0", fillcolor="#399de5"] ;
757 -> 758 ;
759 [label="gini = 0.0\nsamples = 2\nvalue = [2, 0]\nclass = 1", fillcolor="#e58139"] ;
757 -> 759 ;
760 [label="PRES <= -1.292\ngini = 0.444\nsamples = 3\nvalue = [2, 1]\nclass = 1", fillcolor="#f2c09c"] ;
754 -> 760 ;
761 [label="gini = 0.0\nsamples = 1\nvalue = [0, 1]\nclass = 0", fillcolor="#399de5"] ;
760 -> 761 ;
762 [label="gini = 0.0\nsamples = 2\nvalue = [2, 0]\nclass = 1", fillcolor="#e58139"] ;
760 -> 762 ;
763 [label="gini = 0.0\nsamples = 5\nvalue = [5, 0]\nclass = 1", fillcolor="#e58139"] ;
753 -> 763 ;
764 [label="TEMP <= -1.171\ngini = 0.142\nsamples = 13\nvalue = [12, 1]\nclass = 1", fillcolor="#e78c49"] ;
752 -> 764 ;
765 [label="gini = 0.0\nsamples = 1\nvalue = [0, 1]\nclass = 0", fillcolor="#399de5"] ;
764 -> 765 ;
766 [label="gini = 0.0\nsamples = 12\nvalue = [12, 0]\nclass = 1", fillcolor="#e58139"] ;
764 -> 766 ;
767 [label="CFCs <= 0.433\ngini = 0.227\nsamples = 23\nvalue = [20, 3]\nclass = 1", fillcolor="#e99457"] ;
751 -> 767 ;
768 [label="gini = 0.0\nsamples = 3\nvalue = [0, 3]\nclass = 0", fillcolor="#399de5"] ;
767 -> 768 ;
769 [label="gini = 0.0\nsamples = 20\nvalue = [20, 0]\nclass = 1", fillcolor="#e58139"] ;
767 -> 769 ;
770 [label="PAHs <= 1.457\ngini = 0.305\nsamples = 256\nvalue = [48, 208]\nclass = 0", fillcolor="#67b4eb"] ;
750 -> 770 ;
771 [label="CFCs <= -0.124\ngini = 0.286\nsamples = 249\nvalue = [43, 206]\nclass = 0", fillcolor="#62b1ea"] ;
770 -> 771 ;
772 [label="gini = 0.0\nsamples = 39\nvalue = [0, 39]\nclass = 0", fillcolor="#399de5"] ;
771 -> 772 ;
773 [label="index <= 1.65\ngini = 0.326\nsamples = 210\nvalue = [43, 167]\nclass = 0", fillcolor="#6cb6ec"] ;
771 -> 773 ;
774 [label="index <= 0.279\ngini = 0.303\nsamples = 204\nvalue = [38, 166]\nclass = 0", fillcolor="#66b3eb"] ;
773 -> 774 ;
775 [label="TEMP <= -0.497\ngini = 0.425\nsamples = 75\nvalue = [23, 52]\nclass = 0", fillcolor="#91c8f0"] ;
774 -> 775 ;
776 [label="gini = 0.0\nsamples = 20\nvalue = [0, 20]\nclass = 0", fillcolor="#399de5"] ;
775 -> 776 ;
777 [label="CO <= -0.188\ngini = 0.487\nsamples = 55\nvalue = [23, 32]\nclass = 0", fillcolor="#c7e3f8"] ;
775 -> 777 ;
778 [label="C2H3NO5 <= -0.659\ngini = 0.435\nsamples = 25\nvalue = [17, 8]\nclass = 1", fillcolor="#f1bc96"] ;
777 -> 778 ;
779 [label="Pb <= 0.544\ngini = 0.42\nsamples = 10\nvalue = [3, 7]\nclass = 0", fillcolor="#8ec7f0"] ;
778 -> 779 ;
780 [label="gini = 0.0\nsamples = 3\nvalue = [3, 0]\nclass = 1", fillcolor="#e58139"] ;
779 -> 780 ;
781 [label="gini = 0.0\nsamples = 7\nvalue = [0, 7]\nclass = 0", fillcolor="#399de5"] ;
779 -> 781 ;
782 [label="CO <= -1.521\ngini = 0.124\nsamples = 15\nvalue = [14, 1]\nclass = 1", fillcolor="#e78a47"] ;
778 -> 782 ;
783 [label="NOx <= -0.145\ngini = 0.5\nsamples = 2\nvalue = [1, 1]\nclass = 1", fillcolor="#ffffff"] ;
782 -> 783 ;
784 [label="gini = 0.0\nsamples = 1\nvalue = [1, 0]\nclass = 1", fillcolor="#e58139"] ;
783 -> 784 ;
785 [label="gini = 0.0\nsamples = 1\nvalue = [0, 1]\nclass = 0", fillcolor="#399de5"] ;
783 -> 785 ;
786 [label="gini = 0.0\nsamples = 13\nvalue = [13, 0]\nclass = 1", fillcolor="#e58139"] ;
782 -> 786 ;
787 [label="Pb <= 0.954\ngini = 0.32\nsamples = 30\nvalue = [6, 24]\nclass = 0", fillcolor="#6ab6ec"] ;
777 -> 787 ;
788 [label="CO <= 0.244\ngini = 0.5\nsamples = 12\nvalue = [6, 6]\nclass = 1", fillcolor="#ffffff"] ;
787 -> 788 ;
789 [label="gini = 0.0\nsamples = 4\nvalue = [0, 4]\nclass = 0", fillcolor="#399de5"] ;
788 -> 789 ;
790 [label="TEMP <= -0.045\ngini = 0.375\nsamples = 8\nvalue = [6, 2]\nclass = 1", fillcolor="#eeab7b"] ;
788 -> 790 ;
791 [label="location <= -0.196\ngini = 0.444\nsamples = 3\nvalue = [1, 2]\nclass = 0", fillcolor="#9ccef2"] ;
790 -> 791 ;
792 [label="gini = 0.0\nsamples = 1\nvalue = [1, 0]\nclass = 1", fillcolor="#e58139"] ;
791 -> 792 ;
793 [label="gini = 0.0\nsamples = 2\nvalue = [0, 2]\nclass = 0", fillcolor="#399de5"] ;
791 -> 793 ;
794 [label="gini = 0.0\nsamples = 5\nvalue = [5, 0]\nclass = 1", fillcolor="#e58139"] ;
790 -> 794 ;
795 [label="gini = 0.0\nsamples = 18\nvalue = [0, 18]\nclass = 0", fillcolor="#399de5"] ;
787 -> 795 ;
796 [label="CFCs <= -0.023\ngini = 0.206\nsamples = 129\nvalue = [15, 114]\nclass = 0", fillcolor="#53aae8"] ;
774 -> 796 ;
797 [label="TEMP <= -0.059\ngini = 0.375\nsamples = 4\nvalue = [3, 1]\nclass = 1", fillcolor="#eeab7b"] ;
796 -> 797 ;
798 [label="gini = 0.0\nsamples = 1\nvalue = [0, 1]\nclass = 0", fillcolor="#399de5"] ;
797 -> 798 ;
799 [label="gini = 0.0\nsamples = 3\nvalue = [3, 0]\nclass = 1", fillcolor="#e58139"] ;
797 -> 799 ;
800 [label="PM2.5 <= -1.697\ngini = 0.174\nsamples = 125\nvalue = [12, 113]\nclass = 0", fillcolor="#4ea7e8"] ;
796 -> 800 ;
801 [label="gini = 0.0\nsamples = 2\nvalue = [2, 0]\nclass = 1", fillcolor="#e58139"] ;
800 -> 801 ;
802 [label="Pb <= 1.266\ngini = 0.149\nsamples = 123\nvalue = [10, 113]\nclass = 0", fillcolor="#4ba6e7"] ;
800 -> 802 ;
803 [label="SO2 <= 1.678\ngini = 0.085\nsamples = 112\nvalue = [5, 107]\nclass = 0", fillcolor="#42a2e6"] ;
802 -> 803 ;
804 [label="CO <= -1.484\ngini = 0.055\nsamples = 106\nvalue = [3, 103]\nclass = 0", fillcolor="#3fa0e6"] ;
803 -> 804 ;
805 [label="Pb <= 0.558\ngini = 0.355\nsamples = 13\nvalue = [3, 10]\nclass = 0", fillcolor="#74baed"] ;
804 -> 805 ;
806 [label="PM10 <= 21.0\ngini = 0.5\nsamples = 6\nvalue = [3, 3]\nclass = 1", fillcolor="#ffffff"] ;
805 -> 806 ;
807 [label="gini = 0.0\nsamples = 2\nvalue = [0, 2]\nclass = 0", fillcolor="#399de5"] ;
806 -> 807 ;
808 [label="NOx <= 0.451\ngini = 0.375\nsamples = 4\nvalue = [3, 1]\nclass = 1", fillcolor="#eeab7b"] ;
806 -> 808 ;
809 [label="gini = 0.0\nsamples = 3\nvalue = [3, 0]\nclass = 1", fillcolor="#e58139"] ;
808 -> 809 ;
810 [label="gini = 0.0\nsamples = 1\nvalue = [0, 1]\nclass = 0", fillcolor="#399de5"] ;
808 -> 810 ;
811 [label="gini = 0.0\nsamples = 7\nvalue = [0, 7]\nclass = 0", fillcolor="#399de5"] ;
805 -> 811 ;
812 [label="gini = 0.0\nsamples = 93\nvalue = [0, 93]\nclass = 0", fillcolor="#399de5"] ;
804 -> 812 ;
813 [label="C2H3NO5 <= 0.259\ngini = 0.444\nsamples = 6\nvalue = [2, 4]\nclass = 0", fillcolor="#9ccef2"] ;
803 -> 813 ;
814 [label="gini = 0.0\nsamples = 4\nvalue = [0, 4]\nclass = 0", fillcolor="#399de5"] ;
813 -> 814 ;
815 [label="gini = 0.0\nsamples = 2\nvalue = [2, 0]\nclass = 1", fillcolor="#e58139"] ;
813 -> 815 ;
816 [label="PAHs <= 1.159\ngini = 0.496\nsamples = 11\nvalue = [5, 6]\nclass = 0", fillcolor="#deeffb"] ;
802 -> 816 ;
817 [label="PRES <= -0.32\ngini = 0.408\nsamples = 7\nvalue = [5, 2]\nclass = 1", fillcolor="#efb388"] ;
816 -> 817 ;
818 [label="CO <= -0.642\ngini = 0.444\nsamples = 3\nvalue = [1, 2]\nclass = 0", fillcolor="#9ccef2"] ;
817 -> 818 ;
819 [label="gini = 0.0\nsamples = 1\nvalue = [1, 0]\nclass = 1", fillcolor="#e58139"] ;
818 -> 819 ;
820 [label="gini = 0.0\nsamples = 2\nvalue = [0, 2]\nclass = 0", fillcolor="#399de5"] ;
818 -> 820 ;
821 [label="gini = 0.0\nsamples = 4\nvalue = [4, 0]\nclass = 1", fillcolor="#e58139"] ;
817 -> 821 ;
822 [label="gini = 0.0\nsamples = 4\nvalue = [0, 4]\nclass = 0", fillcolor="#399de5"] ;
816 -> 822 ;
823 [label="PAHs <= 0.371\ngini = 0.278\nsamples = 6\nvalue = [5, 1]\nclass = 1", fillcolor="#ea9a61"] ;
773 -> 823 ;
824 [label="gini = 0.0\nsamples = 1\nvalue = [0, 1]\nclass = 0", fillcolor="#399de5"] ;
823 -> 824 ;
825 [label="gini = 0.0\nsamples = 5\nvalue = [5, 0]\nclass = 1", fillcolor="#e58139"] ;
823 -> 825 ;
826 [label="PM2.5 <= -0.052\ngini = 0.408\nsamples = 7\nvalue = [5, 2]\nclass = 1", fillcolor="#efb388"] ;
770 -> 826 ;
827 [label="gini = 0.0\nsamples = 5\nvalue = [5, 0]\nclass = 1", fillcolor="#e58139"] ;
826 -> 827 ;
828 [label="gini = 0.0\nsamples = 2\nvalue = [0, 2]\nclass = 0", fillcolor="#399de5"] ;
826 -> 828 ;
829 [label="index <= -0.013\ngini = 0.118\nsamples = 429\nvalue = [27, 402]\nclass = 0", fillcolor="#46a4e7"] ;
749 -> 829 ;
830 [label="Pb <= 1.442\ngini = 0.411\nsamples = 45\nvalue = [13, 32]\nclass = 0", fillcolor="#89c5f0"] ;
829 -> 830 ;
831 [label="PM2.5 <= -1.416\ngini = 0.391\nsamples = 15\nvalue = [11, 4]\nclass = 1", fillcolor="#eeaf81"] ;
830 -> 831 ;
832 [label="gini = 0.0\nsamples = 3\nvalue = [0, 3]\nclass = 0", fillcolor="#399de5"] ;
831 -> 832 ;
833 [label="location <= 0.216\ngini = 0.153\nsamples = 12\nvalue = [11, 1]\nclass = 1", fillcolor="#e78c4b"] ;
831 -> 833 ;
834 [label="gini = 0.0\nsamples = 10\nvalue = [10, 0]\nclass = 1", fillcolor="#e58139"] ;
833 -> 834 ;
835 [label="location <= 0.337\ngini = 0.5\nsamples = 2\nvalue = [1, 1]\nclass = 1", fillcolor="#ffffff"] ;
833 -> 835 ;
836 [label="gini = 0.0\nsamples = 1\nvalue = [0, 1]\nclass = 0", fillcolor="#399de5"] ;
835 -> 836 ;
837 [label="gini = 0.0\nsamples = 1\nvalue = [1, 0]\nclass = 1", fillcolor="#e58139"] ;
835 -> 837 ;
838 [label="C2H3NO5 <= 0.654\ngini = 0.124\nsamples = 30\nvalue = [2, 28]\nclass = 0", fillcolor="#47a4e7"] ;
830 -> 838 ;
839 [label="gini = 0.0\nsamples = 24\nvalue = [0, 24]\nclass = 0", fillcolor="#399de5"] ;
838 -> 839 ;
840 [label="PM2.5 <= -1.029\ngini = 0.444\nsamples = 6\nvalue = [2, 4]\nclass = 0", fillcolor="#9ccef2"] ;
838 -> 840 ;
841 [label="gini = 0.0\nsamples = 3\nvalue = [0, 3]\nclass = 0", fillcolor="#399de5"] ;
840 -> 841 ;
842 [label="NH3 <= -1.174\ngini = 0.444\nsamples = 3\nvalue = [2, 1]\nclass = 1", fillcolor="#f2c09c"] ;
840 -> 842 ;
843 [label="gini = 0.0\nsamples = 1\nvalue = [0, 1]\nclass = 0", fillcolor="#399de5"] ;
842 -> 843 ;
844 [label="gini = 0.0\nsamples = 2\nvalue = [2, 0]\nclass = 1", fillcolor="#e58139"] ;
842 -> 844 ;
845 [label="PM10 <= 151.0\ngini = 0.07\nsamples = 384\nvalue = [14, 370]\nclass = 0", fillcolor="#40a1e6"] ;
829 -> 845 ;
846 [label="NH3 <= 1.471\ngini = 0.066\nsamples = 383\nvalue = [13, 370]\nclass = 0", fillcolor="#40a0e6"] ;
845 -> 846 ;
847 [label="Pb <= 0.058\ngini = 0.039\nsamples = 348\nvalue = [7, 341]\nclass = 0", fillcolor="#3d9fe6"] ;
846 -> 847 ;
848 [label="PM10 <= 25.0\ngini = 0.5\nsamples = 2\nvalue = [1, 1]\nclass = 1", fillcolor="#ffffff"] ;
847 -> 848 ;
849 [label="gini = 0.0\nsamples = 1\nvalue = [1, 0]\nclass = 1", fillcolor="#e58139"] ;
848 -> 849 ;
850 [label="gini = 0.0\nsamples = 1\nvalue = [0, 1]\nclass = 0", fillcolor="#399de5"] ;
848 -> 850 ;
851 [label="PM2.5 <= 0.85\ngini = 0.034\nsamples = 346\nvalue = [6, 340]\nclass = 0", fillcolor="#3c9fe5"] ;
847 -> 851 ;
852 [label="NH3 <= -1.569\ngini = 0.024\nsamples = 336\nvalue = [4, 332]\nclass = 0", fillcolor="#3b9ee5"] ;
851 -> 852 ;
853 [label="NH3 <= -1.6\ngini = 0.153\nsamples = 24\nvalue = [2, 22]\nclass = 0", fillcolor="#4ba6e7"] ;
852 -> 853 ;
854 [label="gini = 0.0\nsamples = 22\nvalue = [0, 22]\nclass = 0", fillcolor="#399de5"] ;
853 -> 854 ;
855 [label="gini = 0.0\nsamples = 2\nvalue = [2, 0]\nclass = 1", fillcolor="#e58139"] ;
853 -> 855 ;
856 [label="O3 <= 0.996\ngini = 0.013\nsamples = 312\nvalue = [2, 310]\nclass = 0", fillcolor="#3a9ee5"] ;
852 -> 856 ;
857 [label="gini = 0.0\nsamples = 256\nvalue = [0, 256]\nclass = 0", fillcolor="#399de5"] ;
856 -> 857 ;
858 [label="O3 <= 1.008\ngini = 0.069\nsamples = 56\nvalue = [2, 54]\nclass = 0", fillcolor="#40a1e6"] ;
856 -> 858 ;
859 [label="gini = 0.0\nsamples = 1\nvalue = [1, 0]\nclass = 1", fillcolor="#e58139"] ;
858 -> 859 ;
860 [label="SO2 <= -1.797\ngini = 0.036\nsamples = 55\nvalue = [1, 54]\nclass = 0", fillcolor="#3d9fe5"] ;
858 -> 860 ;
861 [label="CH4 <= 0.196\ngini = 0.5\nsamples = 2\nvalue = [1, 1]\nclass = 1", fillcolor="#ffffff"] ;
860 -> 861 ;
862 [label="gini = 0.0\nsamples = 1\nvalue = [0, 1]\nclass = 0", fillcolor="#399de5"] ;
861 -> 862 ;
863 [label="gini = 0.0\nsamples = 1\nvalue = [1, 0]\nclass = 1", fillcolor="#e58139"] ;
861 -> 863 ;
864 [label="gini = 0.0\nsamples = 53\nvalue = [0, 53]\nclass = 0", fillcolor="#399de5"] ;
860 -> 864 ;
865 [label="PM2.5 <= 0.962\ngini = 0.32\nsamples = 10\nvalue = [2, 8]\nclass = 0", fillcolor="#6ab6ec"] ;
851 -> 865 ;
866 [label="gini = 0.0\nsamples = 2\nvalue = [2, 0]\nclass = 1", fillcolor="#e58139"] ;
865 -> 866 ;
867 [label="gini = 0.0\nsamples = 8\nvalue = [0, 8]\nclass = 0", fillcolor="#399de5"] ;
865 -> 867 ;
868 [label="SO2 <= -1.138\ngini = 0.284\nsamples = 35\nvalue = [6, 29]\nclass = 0", fillcolor="#62b1ea"] ;
846 -> 868 ;
869 [label="NOx <= -0.632\ngini = 0.32\nsamples = 5\nvalue = [4, 1]\nclass = 1", fillcolor="#eca06a"] ;
868 -> 869 ;
870 [label="gini = 0.0\nsamples = 1\nvalue = [0, 1]\nclass = 0", fillcolor="#399de5"] ;
869 -> 870 ;
871 [label="gini = 0.0\nsamples = 4\nvalue = [4, 0]\nclass = 1", fillcolor="#e58139"] ;
869 -> 871 ;
872 [label="CH4 <= 1.481\ngini = 0.124\nsamples = 30\nvalue = [2, 28]\nclass = 0", fillcolor="#47a4e7"] ;
868 -> 872 ;
873 [label="gini = 0.0\nsamples = 24\nvalue = [0, 24]\nclass = 0", fillcolor="#399de5"] ;
872 -> 873 ;
874 [label="SO2 <= 0.212\ngini = 0.444\nsamples = 6\nvalue = [2, 4]\nclass = 0", fillcolor="#9ccef2"] ;
872 -> 874 ;
875 [label="gini = 0.0\nsamples = 4\nvalue = [0, 4]\nclass = 0", fillcolor="#399de5"] ;
874 -> 875 ;
876 [label="gini = 0.0\nsamples = 2\nvalue = [2, 0]\nclass = 1", fillcolor="#e58139"] ;
874 -> 876 ;
877 [label="gini = 0.0\nsamples = 1\nvalue = [1, 0]\nclass = 1", fillcolor="#e58139"] ;
845 -> 877 ;
878 [label="index <= -1.456\ngini = 0.085\nsamples = 1301\nvalue = [58, 1243]\nclass = 0", fillcolor="#42a2e6"] ;
722 -> 878 ;
879 [label="CFCs <= -1.676\ngini = 0.48\nsamples = 25\nvalue = [10, 15]\nclass = 0", fillcolor="#bddef6"] ;
878 -> 879 ;
880 [label="gini = 0.0\nsamples = 12\nvalue = [0, 12]\nclass = 0", fillcolor="#399de5"] ;
879 -> 880 ;
881 [label="PRES <= -0.563\ngini = 0.355\nsamples = 13\nvalue = [10, 3]\nclass = 1", fillcolor="#eda774"] ;
879 -> 881 ;
882 [label="gini = 0.0\nsamples = 3\nvalue = [0, 3]\nclass = 0", fillcolor="#399de5"] ;
881 -> 882 ;
883 [label="gini = 0.0\nsamples = 10\nvalue = [10, 0]\nclass = 1", fillcolor="#e58139"] ;
881 -> 883 ;
884 [label="index <= -0.759\ngini = 0.072\nsamples = 1276\nvalue = [48, 1228]\nclass = 0", fillcolor="#41a1e6"] ;
878 -> 884 ;
885 [label="location <= 1.126\ngini = 0.184\nsamples = 117\nvalue = [12, 105]\nclass = 0", fillcolor="#50a8e8"] ;
884 -> 885 ;
886 [label="CFCs <= 0.652\ngini = 0.381\nsamples = 43\nvalue = [11, 32]\nclass = 0", fillcolor="#7dbfee"] ;
885 -> 886 ;
887 [label="CH4 <= -0.296\ngini = 0.495\nsamples = 20\nvalue = [9, 11]\nclass = 0", fillcolor="#dbedfa"] ;
886 -> 887 ;
888 [label="CO <= -0.049\ngini = 0.32\nsamples = 10\nvalue = [8, 2]\nclass = 1", fillcolor="#eca06a"] ;
887 -> 888 ;
889 [label="SO2 <= 0.068\ngini = 0.444\nsamples = 3\nvalue = [1, 2]\nclass = 0", fillcolor="#9ccef2"] ;
888 -> 889 ;
890 [label="gini = 0.0\nsamples = 1\nvalue = [1, 0]\nclass = 1", fillcolor="#e58139"] ;
889 -> 890 ;
891 [label="gini = 0.0\nsamples = 2\nvalue = [0, 2]\nclass = 0", fillcolor="#399de5"] ;
889 -> 891 ;
892 [label="gini = 0.0\nsamples = 7\nvalue = [7, 0]\nclass = 1", fillcolor="#e58139"] ;
888 -> 892 ;
893 [label="H2CO <= 1.403\ngini = 0.18\nsamples = 10\nvalue = [1, 9]\nclass = 0", fillcolor="#4fa8e8"] ;
887 -> 893 ;
894 [label="gini = 0.0\nsamples = 9\nvalue = [0, 9]\nclass = 0", fillcolor="#399de5"] ;
893 -> 894 ;
895 [label="gini = 0.0\nsamples = 1\nvalue = [1, 0]\nclass = 1", fillcolor="#e58139"] ;
893 -> 895 ;
896 [label="CH4 <= 1.568\ngini = 0.159\nsamples = 23\nvalue = [2, 21]\nclass = 0", fillcolor="#4ca6e7"] ;
886 -> 896 ;
897 [label="gini = 0.0\nsamples = 21\nvalue = [0, 21]\nclass = 0", fillcolor="#399de5"] ;
896 -> 897 ;
898 [label="gini = 0.0\nsamples = 2\nvalue = [2, 0]\nclass = 1", fillcolor="#e58139"] ;
896 -> 898 ;
899 [label="O3 <= 1.445\ngini = 0.027\nsamples = 74\nvalue = [1, 73]\nclass = 0", fillcolor="#3c9ee5"] ;
885 -> 899 ;
900 [label="gini = 0.0\nsamples = 73\nvalue = [0, 73]\nclass = 0", fillcolor="#399de5"] ;
899 -> 900 ;
