digraph Tree {
node [shape=box, style="filled, rounded", color="black", fontname="helvetica"] ;
edge [fontname="helvetica"] ;
0 [label="SO2 <= -0.652\ngini = 0.482\nsamples = 7529\nvalue = [3046, 4483]\nclass = 0", fillcolor="#c0e0f7"] ;
1 [label="H2CO <= -0.038\ngini = 0.438\nsamples = 2094\nvalue = [1417, 677]\nclass = 1", fillcolor="#f1bd98"] ;
0 -> 1 [labeldistance=2.5, labelangle=45, headlabel="True"] ;
2 [label="CH4 <= -0.511\ngini = 0.264\nsamples = 1268\nvalue = [1070, 198]\nclass = 1", fillcolor="#ea985e"] ;
1 -> 2 ;
3 [label="SO2 <= -1.622\ngini = 0.457\nsamples = 147\nvalue = [52, 95]\nclass = 0", fillcolor="#a5d3f3"] ;
2 -> 3 ;
4 [label="CH4 <= -1.048\ngini = 0.237\nsamples = 51\nvalue = [44, 7]\nclass = 1", fillcolor="#e99558"] ;
3 -> 4 ;
5 [label="H2CO <= -1.563\ngini = 0.5\nsamples = 12\nvalue = [6, 6]\nclass = 1", fillcolor="#ffffff"] ;
4 -> 5 ;
6 [label="gini = 0.0\nsamples = 5\nvalue = [5, 0]\nclass = 1", fillcolor="#e58139"] ;
5 -> 6 ;
7 [label="O3 <= 0.747\ngini = 0.245\nsamples = 7\nvalue = [1, 6]\nclass = 0", fillcolor="#5aade9"] ;
5 -> 7 ;
8 [label="gini = 0.0\nsamples = 6\nvalue = [0, 6]\nclass = 0", fillcolor="#399de5"] ;
7 -> 8 ;
9 [label="gini = 0.0\nsamples = 1\nvalue = [1, 0]\nclass = 1", fillcolor="#e58139"] ;
7 -> 9 ;
10 [label="NH3 <= -1.789\ngini = 0.05\nsamples = 39\nvalue = [38, 1]\nclass = 1", fillcolor="#e6843e"] ;
4 -> 10 ;
11 [label="location <= -0.794\ngini = 0.444\nsamples = 3\nvalue = [2, 1]\nclass = 1", fillcolor="#f2c09c"] ;
10 -> 11 ;
12 [label="gini = 0.0\nsamples = 2\nvalue = [2, 0]\nclass = 1", fillcolor="#e58139"] ;
11 -> 12 ;
13 [label="gini = 0.0\nsamples = 1\nvalue = [0, 1]\nclass = 0", fillcolor="#399de5"] ;
11 -> 13 ;
14 [label="gini = 0.0\nsamples = 36\nvalue = [36, 0]\nclass = 1", fillcolor="#e58139"] ;
10 -> 14 ;
15 [label="PM2.5 <= -0.379\ngini = 0.153\nsamples = 96\nvalue = [8, 88]\nclass = 0", fillcolor="#4ba6e7"] ;
3 -> 15 ;
16 [label="CO <= -1.514\ngini = 0.083\nsamples = 92\nvalue = [4, 88]\nclass = 0", fillcolor="#42a1e6"] ;
15 -> 16 ;
17 [label="location <= -0.608\ngini = 0.48\nsamples = 5\nvalue = [2, 3]\nclass = 0", fillcolor="#bddef6"] ;
16 -> 17 ;
18 [label="gini = 0.0\nsamples = 3\nvalue = [0, 3]\nclass = 0", fillcolor="#399de5"] ;
17 -> 18 ;
19 [label="gini = 0.0\nsamples = 2\nvalue = [2, 0]\nclass = 1", fillcolor="#e58139"] ;
17 -> 19 ;
20 [label="H2CO <= -1.743\ngini = 0.045\nsamples = 87\nvalue = [2, 85]\nclass = 0", fillcolor="#3e9fe6"] ;
16 -> 20 ;
21 [label="PRES <= 0.195\ngini = 0.444\nsamples = 3\nvalue = [1, 2]\nclass = 0", fillcolor="#9ccef2"] ;
20 -> 21 ;
22 [label="gini = 0.0\nsamples = 1\nvalue = [1, 0]\nclass = 1", fillcolor="#e58139"] ;
21 -> 22 ;
23 [label="gini = 0.0\nsamples = 2\nvalue = [0, 2]\nclass = 0", fillcolor="#399de5"] ;
21 -> 23 ;
24 [label="Pb <= -0.593\ngini = 0.024\nsamples = 84\nvalue = [1, 83]\nclass = 0", fillcolor="#3b9ee5"] ;
20 -> 24 ;
25 [label="gini = 0.0\nsamples = 80\nvalue = [0, 80]\nclass = 0", fillcolor="#399de5"] ;
24 -> 25 ;
26 [label="O3 <= -0.932\ngini = 0.375\nsamples = 4\nvalue = [1, 3]\nclass = 0", fillcolor="#7bbeee"] ;
24 -> 26 ;
27 [label="gini = 0.0\nsamples = 1\nvalue = [1, 0]\nclass = 1", fillcolor="#e58139"] ;
26 -> 27 ;
28 [label="gini = 0.0\nsamples = 3\nvalue = [0, 3]\nclass = 0", fillcolor="#399de5"] ;
26 -> 28 ;
29 [label="gini = 0.0\nsamples = 4\nvalue = [4, 0]\nclass = 1", fillcolor="#e58139"] ;
15 -> 29 ;
30 [label="CFCs <= 0.813\ngini = 0.167\nsamples = 1121\nvalue = [1018, 103]\nclass = 1", fillcolor="#e88e4d"] ;
2 -> 30 ;
31 [label="CFCs <= -0.067\ngini = 0.134\nsamples = 1079\nvalue = [1001, 78]\nclass = 1", fillcolor="#e78b48"] ;
30 -> 31 ;
32 [label="index <= 0.407\ngini = 0.086\nsamples = 884\nvalue = [844, 40]\nclass = 1", fillcolor="#e68742"] ;
31 -> 32 ;
33 [label="C2H3NO5 <= 151.0\ngini = 0.062\nsamples = 745\nvalue = [721, 24]\nclass = 1", fillcolor="#e68540"] ;
32 -> 33 ;
34 [label="O3 <= 1.264\ngini = 0.06\nsamples = 743\nvalue = [720, 23]\nclass = 1", fillcolor="#e6853f"] ;
33 -> 34 ;
35 [label="NOx <= -0.495\ngini = 0.048\nsamples = 655\nvalue = [639, 16]\nclass = 1", fillcolor="#e6843e"] ;
34 -> 35 ;
36 [label="NOx <= -0.52\ngini = 0.095\nsamples = 219\nvalue = [208, 11]\nclass = 1", fillcolor="#e68843"] ;
35 -> 36 ;
37 [label="location <= 1.755\ngini = 0.08\nsamples = 216\nvalue = [207, 9]\nclass = 1", fillcolor="#e68642"] ;
36 -> 37 ;
38 [label="PRES <= -1.804\ngini = 0.059\nsamples = 198\nvalue = [192, 6]\nclass = 1", fillcolor="#e6853f"] ;
37 -> 38 ;
39 [label="index <= -0.201\ngini = 0.26\nsamples = 13\nvalue = [11, 2]\nclass = 1", fillcolor="#ea985d"] ;
38 -> 39 ;
40 [label="gini = 0.0\nsamples = 11\nvalue = [11, 0]\nclass = 1", fillcolor="#e58139"] ;
39 -> 40 ;
41 [label="gini = 0.0\nsamples = 2\nvalue = [0, 2]\nclass = 0", fillcolor="#399de5"] ;
39 -> 41 ;
42 [label="CH4 <= 0.526\ngini = 0.042\nsamples = 185\nvalue = [181, 4]\nclass = 1", fillcolor="#e6843d"] ;
38 -> 42 ;
43 [label="CH4 <= 0.509\ngini = 0.104\nsamples = 73\nvalue = [69, 4]\nclass = 1", fillcolor="#e78844"] ;
42 -> 43 ;
44 [label="SO2 <= -0.722\ngini = 0.055\nsamples = 71\nvalue = [69, 2]\nclass = 1", fillcolor="#e6853f"] ;
43 -> 44 ;
45 [label="location <= -1.092\ngini = 0.028\nsamples = 70\nvalue = [69, 1]\nclass = 1", fillcolor="#e5833c"] ;
44 -> 45 ;
46 [label="PM2.5 <= -0.918\ngini = 0.278\nsamples = 6\nvalue = [5, 1]\nclass = 1", fillcolor="#ea9a61"] ;
45 -> 46 ;
47 [label="gini = 0.0\nsamples = 1\nvalue = [0, 1]\nclass = 0", fillcolor="#399de5"] ;
46 -> 47 ;
48 [label="gini = 0.0\nsamples = 5\nvalue = [5, 0]\nclass = 1", fillcolor="#e58139"] ;
46 -> 48 ;
49 [label="gini = 0.0\nsamples = 64\nvalue = [64, 0]\nclass = 1", fillcolor="#e58139"] ;
45 -> 49 ;
50 [label="gini = 0.0\nsamples = 1\nvalue = [0, 1]\nclass = 0", fillcolor="#399de5"] ;
44 -> 50 ;
51 [label="gini = 0.0\nsamples = 2\nvalue = [0, 2]\nclass = 0", fillcolor="#399de5"] ;
43 -> 51 ;
52 [label="gini = 0.0\nsamples = 112\nvalue = [112, 0]\nclass = 1", fillcolor="#e58139"] ;
42 -> 52 ;
53 [label="PAHs <= 0.03\ngini = 0.278\nsamples = 18\nvalue = [15, 3]\nclass = 1", fillcolor="#ea9a61"] ;
37 -> 53 ;
54 [label="TEMP <= 0.44\ngini = 0.49\nsamples = 7\nvalue = [4, 3]\nclass = 1", fillcolor="#f8e0ce"] ;
53 -> 54 ;
55 [label="gini = 0.0\nsamples = 4\nvalue = [4, 0]\nclass = 1", fillcolor="#e58139"] ;
54 -> 55 ;
56 [label="gini = 0.0\nsamples = 3\nvalue = [0, 3]\nclass = 0", fillcolor="#399de5"] ;
54 -> 56 ;
57 [label="gini = 0.0\nsamples = 11\nvalue = [11, 0]\nclass = 1", fillcolor="#e58139"] ;
53 -> 57 ;
58 [label="CO <= 0.011\ngini = 0.444\nsamples = 3\nvalue = [1, 2]\nclass = 0", fillcolor="#9ccef2"] ;
36 -> 58 ;
59 [label="gini = 0.0\nsamples = 2\nvalue = [0, 2]\nclass = 0", fillcolor="#399de5"] ;
58 -> 59 ;
60 [label="gini = 0.0\nsamples = 1\nvalue = [1, 0]\nclass = 1", fillcolor="#e58139"] ;
58 -> 60 ;
61 [label="CFCs <= -0.133\ngini = 0.023\nsamples = 436\nvalue = [431, 5]\nclass = 1", fillcolor="#e5823b"] ;
35 -> 61 ;
62 [label="NH3 <= -0.24\ngini = 0.014\nsamples = 421\nvalue = [418, 3]\nclass = 1", fillcolor="#e5823a"] ;
61 -> 62 ;
63 [label="NH3 <= -0.241\ngini = 0.035\nsamples = 168\nvalue = [165, 3]\nclass = 1", fillcolor="#e5833d"] ;
62 -> 63 ;
64 [label="H2CO <= -0.573\ngini = 0.024\nsamples = 167\nvalue = [165, 2]\nclass = 1", fillcolor="#e5833b"] ;
63 -> 64 ;
65 [label="gini = 0.0\nsamples = 125\nvalue = [125, 0]\nclass = 1", fillcolor="#e58139"] ;
64 -> 65 ;
66 [label="H2CO <= -0.563\ngini = 0.091\nsamples = 42\nvalue = [40, 2]\nclass = 1", fillcolor="#e68743"] ;
64 -> 66 ;
67 [label="gini = 0.0\nsamples = 1\nvalue = [0, 1]\nclass = 0", fillcolor="#399de5"] ;
66 -> 67 ;
68 [label="NOx <= -0.24\ngini = 0.048\nsamples = 41\nvalue = [40, 1]\nclass = 1", fillcolor="#e6843e"] ;
66 -> 68 ;
69 [label="CH4 <= 0.359\ngini = 0.375\nsamples = 4\nvalue = [3, 1]\nclass = 1", fillcolor="#eeab7b"] ;
68 -> 69 ;
70 [label="gini = 0.0\nsamples = 1\nvalue = [0, 1]\nclass = 0", fillcolor="#399de5"] ;
69 -> 70 ;
71 [label="gini = 0.0\nsamples = 3\nvalue = [3, 0]\nclass = 1", fillcolor="#e58139"] ;
69 -> 71 ;
72 [label="gini = 0.0\nsamples = 37\nvalue = [37, 0]\nclass = 1", fillcolor="#e58139"] ;
68 -> 72 ;
73 [label="gini = 0.0\nsamples = 1\nvalue = [0, 1]\nclass = 0", fillcolor="#399de5"] ;
63 -> 73 ;
74 [label="gini = 0.0\nsamples = 253\nvalue = [253, 0]\nclass = 1", fillcolor="#e58139"] ;
62 -> 74 ;
75 [label="index <= -0.163\ngini = 0.231\nsamples = 15\nvalue = [13, 2]\nclass = 1", fillcolor="#e99457"] ;
61 -> 75 ;
76 [label="gini = 0.0\nsamples = 12\nvalue = [12, 0]\nclass = 1", fillcolor="#e58139"] ;
75 -> 76 ;
77 [label="PAHs <= -1.04\ngini = 0.444\nsamples = 3\nvalue = [1, 2]\nclass = 0", fillcolor="#9ccef2"] ;
75 -> 77 ;
78 [label="gini = 0.0\nsamples = 1\nvalue = [1, 0]\nclass = 1", fillcolor="#e58139"] ;
77 -> 78 ;
79 [label="gini = 0.0\nsamples = 2\nvalue = [0, 2]\nclass = 0", fillcolor="#399de5"] ;
77 -> 79 ;
80 [label="index <= 0.187\ngini = 0.146\nsamples = 88\nvalue = [81, 7]\nclass = 1", fillcolor="#e78c4a"] ;
34 -> 80 ;
81 [label="PRES <= -0.792\ngini = 0.094\nsamples = 81\nvalue = [77, 4]\nclass = 1", fillcolor="#e68843"] ;
80 -> 81 ;
82 [label="PRES <= -1.093\ngini = 0.355\nsamples = 13\nvalue = [10, 3]\nclass = 1", fillcolor="#eda774"] ;
81 -> 82 ;
83 [label="gini = 0.0\nsamples = 9\nvalue = [9, 0]\nclass = 1", fillcolor="#e58139"] ;
82 -> 83 ;
84 [label="PM10 <= -0.455\ngini = 0.375\nsamples = 4\nvalue = [1, 3]\nclass = 0", fillcolor="#7bbeee"] ;
82 -> 84 ;
85 [label="gini = 0.0\nsamples = 1\nvalue = [1, 0]\nclass = 1", fillcolor="#e58139"] ;
84 -> 85 ;
86 [label="gini = 0.0\nsamples = 3\nvalue = [0, 3]\nclass = 0", fillcolor="#399de5"] ;
84 -> 86 ;
87 [label="PM2.5 <= 0.603\ngini = 0.029\nsamples = 68\nvalue = [67, 1]\nclass = 1", fillcolor="#e5833c"] ;
81 -> 87 ;
88 [label="gini = 0.0\nsamples = 64\nvalue = [64, 0]\nclass = 1", fillcolor="#e58139"] ;
87 -> 88 ;
89 [label="PM2.5 <= 0.706\ngini = 0.375\nsamples = 4\nvalue = [3, 1]\nclass = 1", fillcolor="#eeab7b"] ;
87 -> 89 ;
90 [label="gini = 0.0\nsamples = 1\nvalue = [0, 1]\nclass = 0", fillcolor="#399de5"] ;
89 -> 90 ;
91 [label="gini = 0.0\nsamples = 3\nvalue = [3, 0]\nclass = 1", fillcolor="#e58139"] ;
89 -> 91 ;
92 [label="SO2 <= -1.25\ngini = 0.49\nsamples = 7\nvalue = [4, 3]\nclass = 1", fillcolor="#f8e0ce"] ;
80 -> 92 ;
93 [label="gini = 0.0\nsamples = 3\nvalue = [3, 0]\nclass = 1", fillcolor="#e58139"] ;
92 -> 93 ;
94 [label="H2CO <= -1.257\ngini = 0.375\nsamples = 4\nvalue = [1, 3]\nclass = 0", fillcolor="#7bbeee"] ;
92 -> 94 ;
95 [label="gini = 0.0\nsamples = 1\nvalue = [1, 0]\nclass = 1", fillcolor="#e58139"] ;
94 -> 95 ;
96 [label="gini = 0.0\nsamples = 3\nvalue = [0, 3]\nclass = 0", fillcolor="#399de5"] ;
94 -> 96 ;
97 [label="SO2 <= -1.538\ngini = 0.5\nsamples = 2\nvalue = [1, 1]\nclass = 1", fillcolor="#ffffff"] ;
33 -> 97 ;
98 [label="gini = 0.0\nsamples = 1\nvalue = [0, 1]\nclass = 0", fillcolor="#399de5"] ;
97 -> 98 ;
99 [label="gini = 0.0\nsamples = 1\nvalue = [1, 0]\nclass = 1", fillcolor="#e58139"] ;
97 -> 99 ;
100 [label="SO2 <= -1.159\ngini = 0.204\nsamples = 139\nvalue = [123, 16]\nclass = 1", fillcolor="#e89153"] ;
32 -> 100 ;
101 [label="PM2.5 <= 1.114\ngini = 0.09\nsamples = 127\nvalue = [121, 6]\nclass = 1", fillcolor="#e68743"] ;
100 -> 101 ;
102 [label="index <= 0.416\ngini = 0.076\nsamples = 126\nvalue = [121, 5]\nclass = 1", fillcolor="#e68641"] ;
101 -> 102 ;
103 [label="gini = 0.0\nsamples = 1\nvalue = [0, 1]\nclass = 0", fillcolor="#399de5"] ;
102 -> 103 ;
104 [label="SO2 <= -1.545\ngini = 0.062\nsamples = 125\nvalue = [121, 4]\nclass = 1", fillcolor="#e68540"] ;
102 -> 104 ;
105 [label="NH3 <= 1.339\ngini = 0.019\nsamples = 104\nvalue = [103, 1]\nclass = 1", fillcolor="#e5823b"] ;
104 -> 105 ;
106 [label="gini = 0.0\nsamples = 93\nvalue = [93, 0]\nclass = 1", fillcolor="#e58139"] ;
105 -> 106 ;
107 [label="CFCs <= -1.561\ngini = 0.165\nsamples = 11\nvalue = [10, 1]\nclass = 1", fillcolor="#e88e4d"] ;
105 -> 107 ;
108 [label="gini = 0.0\nsamples = 1\nvalue = [0, 1]\nclass = 0", fillcolor="#399de5"] ;
107 -> 108 ;
109 [label="gini = 0.0\nsamples = 10\nvalue = [10, 0]\nclass = 1", fillcolor="#e58139"] ;
107 -> 109 ;
110 [label="CH4 <= 0.9\ngini = 0.245\nsamples = 21\nvalue = [18, 3]\nclass = 1", fillcolor="#e9965a"] ;
104 -> 110 ;
111 [label="NOx <= 0.178\ngini = 0.5\nsamples = 6\nvalue = [3, 3]\nclass = 1", fillcolor="#ffffff"] ;
110 -> 111 ;
112 [label="gini = 0.0\nsamples = 3\nvalue = [0, 3]\nclass = 0", fillcolor="#399de5"] ;
111 -> 112 ;
113 [label="gini = 0.0\nsamples = 3\nvalue = [3, 0]\nclass = 1", fillcolor="#e58139"] ;
111 -> 113 ;
114 [label="gini = 0.0\nsamples = 15\nvalue = [15, 0]\nclass = 1", fillcolor="#e58139"] ;
110 -> 114 ;
115 [label="gini = 0.0\nsamples = 1\nvalue = [0, 1]\nclass = 0", fillcolor="#399de5"] ;
101 -> 115 ;
116 [label="PM2.5 <= -1.23\ngini = 0.278\nsamples = 12\nvalue = [2, 10]\nclass = 0", fillcolor="#61b1ea"] ;
100 -> 116 ;
117 [label="gini = 0.0\nsamples = 2\nvalue = [2, 0]\nclass = 1", fillcolor="#e58139"] ;
116 -> 117 ;
118 [label="gini = 0.0\nsamples = 10\nvalue = [0, 10]\nclass = 0", fillcolor="#399de5"] ;
116 -> 118 ;
119 [label="Pb <= -0.138\ngini = 0.314\nsamples = 195\nvalue = [157, 38]\nclass = 1", fillcolor="#eb9f69"] ;
31 -> 119 ;
120 [label="SO2 <= -1.198\ngini = 0.228\nsamples = 175\nvalue = [152, 23]\nclass = 1", fillcolor="#e99457"] ;
119 -> 120 ;
121 [label="C2H3NO5 <= 140.0\ngini = 0.069\nsamples = 111\nvalue = [107, 4]\nclass = 1", fillcolor="#e68640"] ;
120 -> 121 ;
122 [label="PRES <= 1.53\ngini = 0.053\nsamples = 110\nvalue = [107, 3]\nclass = 1", fillcolor="#e6853f"] ;
121 -> 122 ;
123 [label="index <= 0.735\ngini = 0.02\nsamples = 100\nvalue = [99, 1]\nclass = 1", fillcolor="#e5823b"] ;
122 -> 123 ;
124 [label="gini = 0.0\nsamples = 97\nvalue = [97, 0]\nclass = 1", fillcolor="#e58139"] ;
123 -> 124 ;
125 [label="PM2.5 <= -1.546\ngini = 0.444\nsamples = 3\nvalue = [2, 1]\nclass = 1", fillcolor="#f2c09c"] ;
123 -> 125 ;
126 [label="gini = 0.0\nsamples = 1\nvalue = [0, 1]\nclass = 0", fillcolor="#399de5"] ;
125 -> 126 ;
127 [label="gini = 0.0\nsamples = 2\nvalue = [2, 0]\nclass = 1", fillcolor="#e58139"] ;
125 -> 127 ;
128 [label="TEMP <= 0.512\ngini = 0.32\nsamples = 10\nvalue = [8, 2]\nclass = 1", fillcolor="#eca06a"] ;
122 -> 128 ;
129 [label="gini = 0.0\nsamples = 8\nvalue = [8, 0]\nclass = 1", fillcolor="#e58139"] ;
128 -> 129 ;
130 [label="gini = 0.0\nsamples = 2\nvalue = [0, 2]\nclass = 0", fillcolor="#399de5"] ;
128 -> 130 ;
131 [label="gini = 0.0\nsamples = 1\nvalue = [0, 1]\nclass = 0", fillcolor="#399de5"] ;
121 -> 131 ;
132 [label="index <= -0.359\ngini = 0.417\nsamples = 64\nvalue = [45, 19]\nclass = 1", fillcolor="#f0b68d"] ;
120 -> 132 ;
133 [label="CH4 <= -0.198\ngini = 0.241\nsamples = 50\nvalue = [43, 7]\nclass = 1", fillcolor="#e99659"] ;
132 -> 133 ;
134 [label="gini = 0.0\nsamples = 6\nvalue = [0, 6]\nclass = 0", fillcolor="#399de5"] ;
133 -> 134 ;
135 [label="PRES <= -1.847\ngini = 0.044\nsamples = 44\nvalue = [43, 1]\nclass = 1", fillcolor="#e6843e"] ;
133 -> 135 ;
136 [label="CFCs <= 0.234\ngini = 0.5\nsamples = 2\nvalue = [1, 1]\nclass = 1", fillcolor="#ffffff"] ;
135 -> 136 ;
137 [label="gini = 0.0\nsamples = 1\nvalue = [0, 1]\nclass = 0", fillcolor="#399de5"] ;
136 -> 137 ;
138 [label="gini = 0.0\nsamples = 1\nvalue = [1, 0]\nclass = 1", fillcolor="#e58139"] ;
136 -> 138 ;
139 [label="gini = 0.0\nsamples = 42\nvalue = [42, 0]\nclass = 1", fillcolor="#e58139"] ;
135 -> 139 ;
140 [label="CH4 <= -0.227\ngini = 0.245\nsamples = 14\nvalue = [2, 12]\nclass = 0", fillcolor="#5aade9"] ;
132 -> 140 ;
141 [label="NH3 <= -0.569\ngini = 0.444\nsamples = 3\nvalue = [2, 1]\nclass = 1", fillcolor="#f2c09c"] ;
140 -> 141 ;
142 [label="gini = 0.0\nsamples = 1\nvalue = [0, 1]\nclass = 0", fillcolor="#399de5"] ;
141 -> 142 ;
143 [label="gini = 0.0\nsamples = 2\nvalue = [2, 0]\nclass = 1", fillcolor="#e58139"] ;
141 -> 143 ;
144 [label="gini = 0.0\nsamples = 11\nvalue = [0, 11]\nclass = 0", fillcolor="#399de5"] ;
140 -> 144 ;
145 [label="index <= -0.853\ngini = 0.375\nsamples = 20\nvalue = [5, 15]\nclass = 0", fillcolor="#7bbeee"] ;
119 -> 145 ;
146 [label="gini = 0.0\nsamples = 4\nvalue = [4, 0]\nclass = 1", fillcolor="#e58139"] ;
145 -> 146 ;
147 [label="PAHs <= -1.576\ngini = 0.117\nsamples = 16\nvalue = [1, 15]\nclass = 0", fillcolor="#46a4e7"] ;
145 -> 147 ;
148 [label="gini = 0.0\nsamples = 1\nvalue = [1, 0]\nclass = 1", fillcolor="#e58139"] ;
147 -> 148 ;
149 [label="gini = 0.0\nsamples = 15\nvalue = [0, 15]\nclass = 0", fillcolor="#399de5"] ;
147 -> 149 ;
150 [label="H2CO <= -0.912\ngini = 0.482\nsamples = 42\nvalue = [17, 25]\nclass = 0", fillcolor="#c0e0f7"] ;
30 -> 150 ;
151 [label="C2H3NO5 <= 60.0\ngini = 0.18\nsamples = 10\nvalue = [9, 1]\nclass = 1", fillcolor="#e88f4f"] ;
150 -> 151 ;
152 [label="gini = 0.0\nsamples = 9\nvalue = [9, 0]\nclass = 1", fillcolor="#e58139"] ;
151 -> 152 ;
153 [label="gini = 0.0\nsamples = 1\nvalue = [0, 1]\nclass = 0", fillcolor="#399de5"] ;
151 -> 153 ;
154 [label="Pb <= -0.255\ngini = 0.375\nsamples = 32\nvalue = [8, 24]\nclass = 0", fillcolor="#7bbeee"] ;
150 -> 154 ;
155 [label="SO2 <= -0.941\ngini = 0.488\nsamples = 19\nvalue = [8, 11]\nclass = 0", fillcolor="#c9e4f8"] ;
154 -> 155 ;
156 [label="C2H3NO5 <= 58.5\ngini = 0.42\nsamples = 10\nvalue = [7, 3]\nclass = 1", fillcolor="#f0b78e"] ;
155 -> 156 ;
157 [label="O3 <= 1.382\ngini = 0.219\nsamples = 8\nvalue = [7, 1]\nclass = 1", fillcolor="#e99355"] ;
156 -> 157 ;
158 [label="gini = 0.0\nsamples = 7\nvalue = [7, 0]\nclass = 1", fillcolor="#e58139"] ;
157 -> 158 ;
159 [label="gini = 0.0\nsamples = 1\nvalue = [0, 1]\nclass = 0", fillcolor="#399de5"] ;
157 -> 159 ;
160 [label="gini = 0.0\nsamples = 2\nvalue = [0, 2]\nclass = 0", fillcolor="#399de5"] ;
156 -> 160 ;
161 [label="H2CO <= -0.211\ngini = 0.198\nsamples = 9\nvalue = [1, 8]\nclass = 0", fillcolor="#52a9e8"] ;
155 -> 161 ;
162 [label="gini = 0.0\nsamples = 8\nvalue = [0, 8]\nclass = 0", fillcolor="#399de5"] ;
161 -> 162 ;
163 [label="gini = 0.0\nsamples = 1\nvalue = [1, 0]\nclass = 1", fillcolor="#e58139"] ;
161 -> 163 ;
164 [label="gini = 0.0\nsamples = 13\nvalue = [0, 13]\nclass = 0", fillcolor="#399de5"] ;
154 -> 164 ;
165 [label="PM2.5 <= -0.768\ngini = 0.487\nsamples = 826\nvalue = [347, 479]\nclass = 0", fillcolor="#c8e4f8"] ;
1 -> 165 ;
166 [label="Pb <= -0.504\ngini = 0.099\nsamples = 134\nvalue = [7, 127]\nclass = 0", fillcolor="#44a2e6"] ;
165 -> 166 ;
167 [label="index <= 0.345\ngini = 0.073\nsamples = 132\nvalue = [5, 127]\nclass = 0", fillcolor="#41a1e6"] ;
166 -> 167 ;
168 [label="PAHs <= 1.02\ngini = 0.032\nsamples = 123\nvalue = [2, 121]\nclass = 0", fillcolor="#3c9fe5"] ;
167 -> 168 ;
169 [label="gini = 0.0\nsamples = 107\nvalue = [0, 107]\nclass = 0", fillcolor="#399de5"] ;
168 -> 169 ;
170 [label="Pb <= -0.844\ngini = 0.219\nsamples = 16\nvalue = [2, 14]\nclass = 0", fillcolor="#55abe9"] ;
168 -> 170 ;
171 [label="PAHs <= 1.031\ngini = 0.124\nsamples = 15\nvalue = [1, 14]\nclass = 0", fillcolor="#47a4e7"] ;
170 -> 171 ;
172 [label="gini = 0.0\nsamples = 1\nvalue = [1, 0]\nclass = 1", fillcolor="#e58139"] ;
171 -> 172 ;
173 [label="gini = 0.0\nsamples = 14\nvalue = [0, 14]\nclass = 0", fillcolor="#399de5"] ;
171 -> 173 ;
174 [label="gini = 0.0\nsamples = 1\nvalue = [1, 0]\nclass = 1", fillcolor="#e58139"] ;
170 -> 174 ;
175 [label="PAHs <= -0.097\ngini = 0.444\nsamples = 9\nvalue = [3, 6]\nclass = 0", fillcolor="#9ccef2"] ;
167 -> 175 ;
176 [label="CO <= 1.425\ngini = 0.375\nsamples = 4\nvalue = [3, 1]\nclass = 1", fillcolor="#eeab7b"] ;
175 -> 176 ;
177 [label="gini = 0.0\nsamples = 3\nvalue = [3, 0]\nclass = 1", fillcolor="#e58139"] ;
176 -> 177 ;
178 [label="gini = 0.0\nsamples = 1\nvalue = [0, 1]\nclass = 0", fillcolor="#399de5"] ;
176 -> 178 ;
179 [label="gini = 0.0\nsamples = 5\nvalue = [0, 5]\nclass = 0", fillcolor="#399de5"] ;
175 -> 179 ;
180 [label="gini = 0.0\nsamples = 2\nvalue = [2, 0]\nclass = 1", fillcolor="#e58139"] ;
166 -> 180 ;
181 [label="index <= 0.067\ngini = 0.5\nsamples = 692\nvalue = [340, 352]\nclass = 0", fillcolor="#f8fcfe"] ;
165 -> 181 ;
182 [label="PM2.5 <= -0.038\ngini = 0.446\nsamples = 310\nvalue = [206, 104]\nclass = 1", fillcolor="#f2c19d"] ;
181 -> 182 ;
183 [label="H2CO <= 0.627\ngini = 0.484\nsamples = 90\nvalue = [37, 53]\nclass = 0", fillcolor="#c3e1f7"] ;
182 -> 183 ;
184 [label="CFCs <= -0.101\ngini = 0.488\nsamples = 57\nvalue = [33, 24]\nclass = 1", fillcolor="#f8ddc9"] ;
183 -> 184 ;
185 [label="gini = 0.0\nsamples = 13\nvalue = [13, 0]\nclass = 1", fillcolor="#e58139"] ;
184 -> 185 ;
186 [label="TEMP <= -0.257\ngini = 0.496\nsamples = 44\nvalue = [20, 24]\nclass = 0", fillcolor="#deeffb"] ;
184 -> 186 ;
187 [label="location <= -1.363\ngini = 0.291\nsamples = 17\nvalue = [3, 14]\nclass = 0", fillcolor="#63b2eb"] ;
186 -> 187 ;
188 [label="gini = 0.0\nsamples = 1\nvalue = [1, 0]\nclass = 1", fillcolor="#e58139"] ;
187 -> 188 ;
189 [label="NOx <= 0.99\ngini = 0.219\nsamples = 16\nvalue = [2, 14]\nclass = 0", fillcolor="#55abe9"] ;
187 -> 189 ;
190 [label="TEMP <= -1.552\ngini = 0.124\nsamples = 15\nvalue = [1, 14]\nclass = 0", fillcolor="#47a4e7"] ;
189 -> 190 ;
191 [label="index <= -0.795\ngini = 0.5\nsamples = 2\nvalue = [1, 1]\nclass = 1", fillcolor="#ffffff"] ;
190 -> 191 ;
192 [label="gini = 0.0\nsamples = 1\nvalue = [0, 1]\nclass = 0", fillcolor="#399de5"] ;
191 -> 192 ;
193 [label="gini = 0.0\nsamples = 1\nvalue = [1, 0]\nclass = 1", fillcolor="#e58139"] ;
191 -> 193 ;
194 [label="gini = 0.0\nsamples = 13\nvalue = [0, 13]\nclass = 0", fillcolor="#399de5"] ;
190 -> 194 ;
195 [label="gini = 0.0\nsamples = 1\nvalue = [1, 0]\nclass = 1", fillcolor="#e58139"] ;
189 -> 195 ;
196 [label="C2H3NO5 <= 49.5\ngini = 0.466\nsamples = 27\nvalue = [17, 10]\nclass = 1", fillcolor="#f4cbad"] ;
186 -> 196 ;
197 [label="PM10 <= -1.849\ngini = 0.266\nsamples = 19\nvalue = [16, 3]\nclass = 1", fillcolor="#ea995e"] ;
196 -> 197 ;
198 [label="gini = 0.0\nsamples = 2\nvalue = [0, 2]\nclass = 0", fillcolor="#399de5"] ;
197 -> 198 ;
199 [label="CFCs <= 0.984\ngini = 0.111\nsamples = 17\nvalue = [16, 1]\nclass = 1", fillcolor="#e78945"] ;
197 -> 199 ;
200 [label="gini = 0.0\nsamples = 16\nvalue = [16, 0]\nclass = 1", fillcolor="#e58139"] ;
199 -> 200 ;
201 [label="gini = 0.0\nsamples = 1\nvalue = [0, 1]\nclass = 0", fillcolor="#399de5"] ;
199 -> 201 ;
202 [label="PRES <= -0.796\ngini = 0.219\nsamples = 8\nvalue = [1, 7]\nclass = 0", fillcolor="#55abe9"] ;
196 -> 202 ;
203 [label="gini = 0.0\nsamples = 1\nvalue = [1, 0]\nclass = 1", fillcolor="#e58139"] ;
202 -> 203 ;
204 [label="gini = 0.0\nsamples = 7\nvalue = [0, 7]\nclass = 0", fillcolor="#399de5"] ;
202 -> 204 ;
205 [label="CFCs <= 1.437\ngini = 0.213\nsamples = 33\nvalue = [4, 29]\nclass = 0", fillcolor="#54abe9"] ;
183 -> 205 ;
206 [label="SO2 <= -0.739\ngini = 0.121\nsamples = 31\nvalue = [2, 29]\nclass = 0", fillcolor="#47a4e7"] ;
205 -> 206 ;
207 [label="gini = 0.0\nsamples = 27\nvalue = [0, 27]\nclass = 0", fillcolor="#399de5"] ;
206 -> 207 ;
208 [label="C2H3NO5 <= 32.5\ngini = 0.5\nsamples = 4\nvalue = [2, 2]\nclass = 1", fillcolor="#ffffff"] ;
206 -> 208 ;
209 [label="gini = 0.0\nsamples = 2\nvalue = [0, 2]\nclass = 0", fillcolor="#399de5"] ;
208 -> 209 ;
210 [label="gini = 0.0\nsamples = 2\nvalue = [2, 0]\nclass = 1", fillcolor="#e58139"] ;
208 -> 210 ;
211 [label="gini = 0.0\nsamples = 2\nvalue = [2, 0]\nclass = 1", fillcolor="#e58139"] ;
205 -> 211 ;
212 [label="CH4 <= 0.537\ngini = 0.356\nsamples = 220\nvalue = [169, 51]\nclass = 1", fillcolor="#eda775"] ;
182 -> 212 ;
213 [label="H2CO <= 0.607\ngini = 0.499\nsamples = 84\nvalue = [44, 40]\nclass = 1", fillcolor="#fdf4ed"] ;
212 -> 213 ;
214 [label="SO2 <= -1.093\ngini = 0.219\nsamples = 32\nvalue = [28, 4]\nclass = 1", fillcolor="#e99355"] ;
213 -> 214 ;
215 [label="gini = 0.0\nsamples = 25\nvalue = [25, 0]\nclass = 1", fillcolor="#e58139"] ;
214 -> 215 ;
216 [label="index <= -1.062\ngini = 0.49\nsamples = 7\nvalue = [3, 4]\nclass = 0", fillcolor="#cee6f8"] ;
214 -> 216 ;
217 [label="gini = 0.0\nsamples = 3\nvalue = [3, 0]\nclass = 1", fillcolor="#e58139"] ;
216 -> 217 ;
218 [label="gini = 0.0\nsamples = 4\nvalue = [0, 4]\nclass = 0", fillcolor="#399de5"] ;
216 -> 218 ;
219 [label="Pb <= 1.416\ngini = 0.426\nsamples = 52\nvalue = [16, 36]\nclass = 0", fillcolor="#91c9f1"] ;
213 -> 219 ;
220 [label="Pb <= -0.484\ngini = 0.325\nsamples = 44\nvalue = [9, 35]\nclass = 0", fillcolor="#6cb6ec"] ;
219 -> 220 ;
221 [label="gini = 0.0\nsamples = 2\nvalue = [2, 0]\nclass = 1", fillcolor="#e58139"] ;
220 -> 221 ;
222 [label="PRES <= 1.371\ngini = 0.278\nsamples = 42\nvalue = [7, 35]\nclass = 0", fillcolor="#61b1ea"] ;
220 -> 222 ;
223 [label="SO2 <= -1.286\ngini = 0.219\nsamples = 40\nvalue = [5, 35]\nclass = 0", fillcolor="#55abe9"] ;
222 -> 223 ;
224 [label="location <= 0.659\ngini = 0.459\nsamples = 14\nvalue = [5, 9]\nclass = 0", fillcolor="#a7d3f3"] ;
223 -> 224 ;
225 [label="location <= 0.097\ngini = 0.494\nsamples = 9\nvalue = [5, 4]\nclass = 1", fillcolor="#fae6d7"] ;
224 -> 225 ;
226 [label="C2H3NO5 <= 44.0\ngini = 0.32\nsamples = 5\nvalue = [1, 4]\nclass = 0", fillcolor="#6ab6ec"] ;
225 -> 226 ;
227 [label="gini = 0.0\nsamples = 4\nvalue = [0, 4]\nclass = 0", fillcolor="#399de5"] ;
226 -> 227 ;
228 [label="gini = 0.0\nsamples = 1\nvalue = [1, 0]\nclass = 1", fillcolor="#e58139"] ;
226 -> 228 ;
229 [label="gini = 0.0\nsamples = 4\nvalue = [4, 0]\nclass = 1", fillcolor="#e58139"] ;
225 -> 229 ;
230 [label="gini = 0.0\nsamples = 5\nvalue = [0, 5]\nclass = 0", fillcolor="#399de5"] ;
224 -> 230 ;
231 [label="gini = 0.0\nsamples = 26\nvalue = [0, 26]\nclass = 0", fillcolor="#399de5"] ;
223 -> 231 ;
232 [label="gini = 0.0\nsamples = 2\nvalue = [2, 0]\nclass = 1", fillcolor="#e58139"] ;
222 -> 232 ;
233 [label="location <= 1.731\ngini = 0.219\nsamples = 8\nvalue = [7, 1]\nclass = 1", fillcolor="#e99355"] ;
219 -> 233 ;
234 [label="gini = 0.0\nsamples = 7\nvalue = [7, 0]\nclass = 1", fillcolor="#e58139"] ;
233 -> 234 ;
235 [label="gini = 0.0\nsamples = 1\nvalue = [0, 1]\nclass = 0", fillcolor="#399de5"] ;
233 -> 235 ;
236 [label="PM2.5 <= 0.237\ngini = 0.149\nsamples = 136\nvalue = [125, 11]\nclass = 1", fillcolor="#e78c4a"] ;
212 -> 236 ;
237 [label="CFCs <= 0.016\ngini = 0.408\nsamples = 35\nvalue = [25, 10]\nclass = 1", fillcolor="#efb388"] ;
236 -> 237 ;
238 [label="NOx <= -1.797\ngini = 0.1\nsamples = 19\nvalue = [18, 1]\nclass = 1", fillcolor="#e68844"] ;
237 -> 238 ;
239 [label="gini = 0.0\nsamples = 1\nvalue = [0, 1]\nclass = 0", fillcolor="#399de5"] ;
238 -> 239 ;
240 [label="gini = 0.0\nsamples = 18\nvalue = [18, 0]\nclass = 1", fillcolor="#e58139"] ;
238 -> 240 ;
241 [label="CH4 <= 1.177\ngini = 0.492\nsamples = 16\nvalue = [7, 9]\nclass = 0", fillcolor="#d3e9f9"] ;
237 -> 241 ;
242 [label="CO <= 0.731\ngini = 0.375\nsamples = 12\nvalue = [3, 9]\nclass = 0", fillcolor="#7bbeee"] ;
241 -> 242 ;
243 [label="gini = 0.0\nsamples = 7\nvalue = [0, 7]\nclass = 0", fillcolor="#399de5"] ;
242 -> 243 ;
244 [label="NOx <= -0.082\ngini = 0.48\nsamples = 5\nvalue = [3, 2]\nclass = 1", fillcolor="#f6d5bd"] ;
242 -> 244 ;
245 [label="gini = 0.0\nsamples = 3\nvalue = [3, 0]\nclass = 1", fillcolor="#e58139"] ;
244 -> 245 ;
246 [label="gini = 0.0\nsamples = 2\nvalue = [0, 2]\nclass = 0", fillcolor="#399de5"] ;
244 -> 246 ;
247 [label="gini = 0.0\nsamples = 4\nvalue = [4, 0]\nclass = 1", fillcolor="#e58139"] ;
241 -> 247 ;
248 [label="SO2 <= -0.704\ngini = 0.02\nsamples = 101\nvalue = [100, 1]\nclass = 1", fillcolor="#e5823b"] ;
236 -> 248 ;
249 [label="gini = 0.0\nsamples = 96\nvalue = [96, 0]\nclass = 1", fillcolor="#e58139"] ;
248 -> 249 ;
250 [label="CO <= 0.284\ngini = 0.32\nsamples = 5\nvalue = [4, 1]\nclass = 1", fillcolor="#eca06a"] ;
248 -> 250 ;
251 [label="gini = 0.0\nsamples = 4\nvalue = [4, 0]\nclass = 1", fillcolor="#e58139"] ;
250 -> 251 ;
252 [label="gini = 0.0\nsamples = 1\nvalue = [0, 1]\nclass = 0", fillcolor="#399de5"] ;
250 -> 252 ;
253 [label="CFCs <= 0.393\ngini = 0.455\nsamples = 382\nvalue = [134, 248]\nclass = 0", fillcolor="#a4d2f3"] ;
181 -> 253 ;
254 [label="PM2.5 <= -0.237\ngini = 0.276\nsamples = 248\nvalue = [41, 207]\nclass = 0", fillcolor="#60b0ea"] ;
253 -> 254 ;
255 [label="SO2 <= -1.097\ngini = 0.415\nsamples = 17\nvalue = [12, 5]\nclass = 1", fillcolor="#f0b58b"] ;
254 -> 255 ;
256 [label="NH3 <= -0.545\ngini = 0.245\nsamples = 14\nvalue = [12, 2]\nclass = 1", fillcolor="#e9965a"] ;
255 -> 256 ;
257 [label="NOx <= -1.1\ngini = 0.444\nsamples = 3\nvalue = [1, 2]\nclass = 0", fillcolor="#9ccef2"] ;
256 -> 257 ;
258 [label="gini = 0.0\nsamples = 1\nvalue = [1, 0]\nclass = 1", fillcolor="#e58139"] ;
257 -> 258 ;
259 [label="gini = 0.0\nsamples = 2\nvalue = [0, 2]\nclass = 0", fillcolor="#399de5"] ;
257 -> 259 ;
260 [label="gini = 0.0\nsamples = 11\nvalue = [11, 0]\nclass = 1", fillcolor="#e58139"] ;
256 -> 260 ;
261 [label="gini = 0.0\nsamples = 3\nvalue = [0, 3]\nclass = 0", fillcolor="#399de5"] ;
255 -> 261 ;
262 [label="CH4 <= -1.177\ngini = 0.22\nsamples = 231\nvalue = [29, 202]\nclass = 0", fillcolor="#55abe9"] ;
254 -> 262 ;
263 [label="gini = 0.0\nsamples = 5\nvalue = [5, 0]\nclass = 1", fillcolor="#e58139"] ;
262 -> 263 ;
264 [label="Pb <= 1.743\ngini = 0.19\nsamples = 226\nvalue = [24, 202]\nclass = 0", fillcolor="#51a9e8"] ;
262 -> 264 ;
265 [label="SO2 <= -1.505\ngini = 0.143\nsamples = 206\nvalue = [16, 190]\nclass = 0", fillcolor="#4aa5e7"] ;
264 -> 265 ;
266 [label="CFCs <= -0.666\ngini = 0.375\nsamples = 28\nvalue = [7, 21]\nclass = 0", fillcolor="#7bbeee"] ;
265 -> 266 ;
267 [label="NH3 <= -0.042\ngini = 0.5\nsamples = 12\nvalue = [6, 6]\nclass = 1", fillcolor="#ffffff"] ;
266 -> 267 ;
268 [label="gini = 0.0\nsamples = 5\nvalue = [0, 5]\nclass = 0", fillcolor="#399de5"] ;
267 -> 268 ;
269 [label="index <= 1.736\ngini = 0.245\nsamples = 7\nvalue = [6, 1]\nclass = 1", fillcolor="#e9965a"] ;
267 -> 269 ;
270 [label="gini = 0.0\nsamples = 6\nvalue = [6, 0]\nclass = 1", fillcolor="#e58139"] ;
269 -> 270 ;
271 [label="gini = 0.0\nsamples = 1\nvalue = [0, 1]\nclass = 0", fillcolor="#399de5"] ;
269 -> 271 ;
272 [label="PM10 <= -1.605\ngini = 0.117\nsamples = 16\nvalue = [1, 15]\nclass = 0", fillcolor="#46a4e7"] ;
266 -> 272 ;
273 [label="gini = 0.0\nsamples = 1\nvalue = [1, 0]\nclass = 1", fillcolor="#e58139"] ;
272 -> 273 ;
274 [label="gini = 0.0\nsamples = 15\nvalue = [0, 15]\nclass = 0", fillcolor="#399de5"] ;
272 -> 274 ;
275 [label="SO2 <= -0.766\ngini = 0.096\nsamples = 178\nvalue = [9, 169]\nclass = 0", fillcolor="#44a2e6"] ;
265 -> 275 ;
276 [label="CFCs <= -1.431\ngini = 0.028\nsamples = 143\nvalue = [2, 141]\nclass = 0", fillcolor="#3c9ee5"] ;
275 -> 276 ;
277 [label="O3 <= -1.745\ngini = 0.278\nsamples = 6\nvalue = [1, 5]\nclass = 0", fillcolor="#61b1ea"] ;
276 -> 277 ;
278 [label="gini = 0.0\nsamples = 1\nvalue = [1, 0]\nclass = 1", fillcolor="#e58139"] ;
277 -> 278 ;
279 [label="gini = 0.0\nsamples = 5\nvalue = [0, 5]\nclass = 0", fillcolor="#399de5"] ;
277 -> 279 ;
280 [label="PRES <= 1.612\ngini = 0.014\nsamples = 137\nvalue = [1, 136]\nclass = 0", fillcolor="#3a9ee5"] ;
276 -> 280 ;
281 [label="gini = 0.0\nsamples = 130\nvalue = [0, 130]\nclass = 0", fillcolor="#399de5"] ;
280 -> 281 ;
282 [label="location <= 1.245\ngini = 0.245\nsamples = 7\nvalue = [1, 6]\nclass = 0", fillcolor="#5aade9"] ;
280 -> 282 ;
283 [label="gini = 0.0\nsamples = 6\nvalue = [0, 6]\nclass = 0", fillcolor="#399de5"] ;
282 -> 283 ;
284 [label="gini = 0.0\nsamples = 1\nvalue = [1, 0]\nclass = 1", fillcolor="#e58139"] ;
282 -> 284 ;
285 [label="CH4 <= 0.278\ngini = 0.32\nsamples = 35\nvalue = [7, 28]\nclass = 0", fillcolor="#6ab6ec"] ;
275 -> 285 ;
286 [label="CFCs <= -0.444\ngini = 0.497\nsamples = 13\nvalue = [7, 6]\nclass = 1", fillcolor="#fbede3"] ;
285 -> 286 ;
287 [label="gini = 0.0\nsamples = 6\nvalue = [0, 6]\nclass = 0", fillcolor="#399de5"] ;
286 -> 287 ;
288 [label="gini = 0.0\nsamples = 7\nvalue = [7, 0]\nclass = 1", fillcolor="#e58139"] ;
286 -> 288 ;
289 [label="gini = 0.0\nsamples = 22\nvalue = [0, 22]\nclass = 0", fillcolor="#399de5"] ;
285 -> 289 ;
290 [label="index <= 1.169\ngini = 0.48\nsamples = 20\nvalue = [8, 12]\nclass = 0", fillcolor="#bddef6"] ;
264 -> 290 ;
291 [label="gini = 0.0\nsamples = 8\nvalue = [8, 0]\nclass = 1", fillcolor="#e58139"] ;
290 -> 291 ;
292 [label="gini = 0.0\nsamples = 12\nvalue = [0, 12]\nclass = 0", fillcolor="#399de5"] ;
290 -> 292 ;
293 [label="H2CO <= 0.657\ngini = 0.425\nsamples = 134\nvalue = [93, 41]\nclass = 1", fillcolor="#f0b990"] ;
253 -> 293 ;
294 [label="CH4 <= -0.004\ngini = 0.229\nsamples = 38\nvalue = [5, 33]\nclass = 0", fillcolor="#57ace9"] ;
293 -> 294 ;
295 [label="PM10 <= 0.178\ngini = 0.278\nsamples = 6\nvalue = [5, 1]\nclass = 1", fillcolor="#ea9a61"] ;
294 -> 295 ;
296 [label="gini = 0.0\nsamples = 5\nvalue = [5, 0]\nclass = 1", fillcolor="#e58139"] ;
295 -> 296 ;
297 [label="gini = 0.0\nsamples = 1\nvalue = [0, 1]\nclass = 0", fillcolor="#399de5"] ;
295 -> 297 ;
298 [label="gini = 0.0\nsamples = 32\nvalue = [0, 32]\nclass = 0", fillcolor="#399de5"] ;
294 -> 298 ;
299 [label="CH4 <= 1.449\ngini = 0.153\nsamples = 96\nvalue = [88, 8]\nclass = 1", fillcolor="#e78c4b"] ;
293 -> 299 ;
300 [label="H2CO <= 1.234\ngini = 0.102\nsamples = 93\nvalue = [88, 5]\nclass = 1", fillcolor="#e68844"] ;
299 -> 300 ;
301 [label="Pb <= 0.429\ngini = 0.34\nsamples = 23\nvalue = [18, 5]\nclass = 1", fillcolor="#eca470"] ;
300 -> 301 ;
302 [label="gini = 0.0\nsamples = 3\nvalue = [0, 3]\nclass = 0", fillcolor="#399de5"] ;
301 -> 302 ;
303 [label="H2CO <= 1.2\ngini = 0.18\nsamples = 20\nvalue = [18, 2]\nclass = 1", fillcolor="#e88f4f"] ;
301 -> 303 ;
304 [label="O3 <= 1.369\ngini = 0.1\nsamples = 19\nvalue = [18, 1]\nclass = 1", fillcolor="#e68844"] ;
303 -> 304 ;
305 [label="gini = 0.0\nsamples = 18\nvalue = [18, 0]\nclass = 1", fillcolor="#e58139"] ;
304 -> 305 ;
306 [label="gini = 0.0\nsamples = 1\nvalue = [0, 1]\nclass = 0", fillcolor="#399de5"] ;
304 -> 306 ;
307 [label="gini = 0.0\nsamples = 1\nvalue = [0, 1]\nclass = 0", fillcolor="#399de5"] ;
303 -> 307 ;
308 [label="gini = 0.0\nsamples = 70\nvalue = [70, 0]\nclass = 1", fillcolor="#e58139"] ;
300 -> 308 ;
309 [label="gini = 0.0\nsamples = 3\nvalue = [0, 3]\nclass = 0", fillcolor="#399de5"] ;
299 -> 309 ;
310 [label="Pb <= 0.363\ngini = 0.42\nsamples = 5435\nvalue = [1629, 3806]\nclass = 0", fillcolor="#8ec7f0"] ;
0 -> 310 [labeldistance=2.5, labelangle=-45, headlabel="False"] ;
311 [label="index <= 0.088\ngini = 0.482\nsamples = 3353\nvalue = [1362, 1991]\nclass = 0", fillcolor="#c0e0f7"] ;
310 -> 311 ;
312 [label="CH4 <= 0.333\ngini = 0.286\nsamples = 2010\nvalue = [348, 1662]\nclass = 0", fillcolor="#62b2ea"] ;
311 -> 312 ;
313 [label="H2CO <= 0.514\ngini = 0.163\nsamples = 1558\nvalue = [139, 1419]\nclass = 0", fillcolor="#4ca7e8"] ;
312 -> 313 ;
314 [label="CFCs <= -0.662\ngini = 0.079\nsamples = 1405\nvalue = [58, 1347]\nclass = 0", fillcolor="#42a1e6"] ;
313 -> 314 ;
315 [label="gini = 0.0\nsamples = 5\nvalue = [5, 0]\nclass = 1", fillcolor="#e58139"] ;
314 -> 315 ;
316 [label="index <= -0.019\ngini = 0.073\nsamples = 1400\nvalue = [53, 1347]\nclass = 0", fillcolor="#41a1e6"] ;
314 -> 316 ;
317 [label="CFCs <= -0.138\ngini = 0.061\nsamples = 1339\nvalue = [42, 1297]\nclass = 0", fillcolor="#3fa0e6"] ;
316 -> 317 ;
318 [label="CH4 <= -0.202\ngini = 0.271\nsamples = 31\nvalue = [5, 26]\nclass = 0", fillcolor="#5fb0ea"] ;
317 -> 318 ;
319 [label="SO2 <= 1.58\ngini = 0.185\nsamples = 29\nvalue = [3, 26]\nclass = 0", fillcolor="#50a8e8"] ;
318 -> 319 ;
320 [label="CFCs <= -0.14\ngini = 0.133\nsamples = 28\nvalue = [2, 26]\nclass = 0", fillcolor="#48a5e7"] ;
319 -> 320 ;
321 [label="SO2 <= 1.214\ngini = 0.071\nsamples = 27\nvalue = [1, 26]\nclass = 0", fillcolor="#41a1e6"] ;
320 -> 321 ;
322 [label="gini = 0.0\nsamples = 24\nvalue = [0, 24]\nclass = 0", fillcolor="#399de5"] ;
321 -> 322 ;
323 [label="NH3 <= -0.419\ngini = 0.444\nsamples = 3\nvalue = [1, 2]\nclass = 0", fillcolor="#9ccef2"] ;
321 -> 323 ;
324 [label="gini = 0.0\nsamples = 2\nvalue = [0, 2]\nclass = 0", fillcolor="#399de5"] ;
323 -> 324 ;
325 [label="gini = 0.0\nsamples = 1\nvalue = [1, 0]\nclass = 1", fillcolor="#e58139"] ;
323 -> 325 ;
326 [label="gini = 0.0\nsamples = 1\nvalue = [1, 0]\nclass = 1", fillcolor="#e58139"] ;
320 -> 326 ;
327 [label="gini = 0.0\nsamples = 1\nvalue = [1, 0]\nclass = 1", fillcolor="#e58139"] ;
319 -> 327 ;
328 [label="gini = 0.0\nsamples = 2\nvalue = [2, 0]\nclass = 1", fillcolor="#e58139"] ;
318 -> 328 ;
329 [label="H2CO <= 0.327\ngini = 0.055\nsamples = 1308\nvalue = [37, 1271]\nclass = 0", fillcolor="#3fa0e6"] ;
317 -> 329 ;
330 [label="O3 <= 0.783\ngini = 0.05\nsamples = 1276\nvalue = [33, 1243]\nclass = 0", fillcolor="#3ea0e6"] ;
329 -> 330 ;
331 [label="O3 <= 0.782\ngini = 0.065\nsamples = 898\nvalue = [30, 868]\nclass = 0", fillcolor="#40a0e6"] ;
330 -> 331 ;
332 [label="SO2 <= -0.639\ngini = 0.063\nsamples = 897\nvalue = [29, 868]\nclass = 0", fillcolor="#40a0e6"] ;
331 -> 332 ;
333 [label="NH3 <= -1.71\ngini = 0.444\nsamples = 3\nvalue = [1, 2]\nclass = 0", fillcolor="#9ccef2"] ;
332 -> 333 ;
334 [label="gini = 0.0\nsamples = 1\nvalue = [1, 0]\nclass = 1", fillcolor="#e58139"] ;
333 -> 334 ;
335 [label="gini = 0.0\nsamples = 2\nvalue = [0, 2]\nclass = 0", fillcolor="#399de5"] ;
333 -> 335 ;
336 [label="PRES <= 1.393\ngini = 0.061\nsamples = 894\nvalue = [28, 866]\nclass = 0", fillcolor="#3fa0e6"] ;
332 -> 336 ;
337 [label="SO2 <= 0.902\ngini = 0.051\nsamples = 810\nvalue = [21, 789]\nclass = 0", fillcolor="#3ea0e6"] ;
336 -> 337 ;
338 [label="O3 <= -1.791\ngini = 0.031\nsamples = 568\nvalue = [9, 559]\nclass = 0", fillcolor="#3c9fe5"] ;
337 -> 338 ;
339 [label="PAHs <= 1.191\ngini = 0.161\nsamples = 34\nvalue = [3, 31]\nclass = 0", fillcolor="#4ca6e8"] ;
338 -> 339 ;
340 [label="CFCs <= 0.387\ngini = 0.062\nsamples = 31\nvalue = [1, 30]\nclass = 0", fillcolor="#40a0e6"] ;
339 -> 340 ;
341 [label="H2CO <= -0.618\ngini = 0.444\nsamples = 3\nvalue = [1, 2]\nclass = 0", fillcolor="#9ccef2"] ;
340 -> 341 ;
342 [label="gini = 0.0\nsamples = 2\nvalue = [0, 2]\nclass = 0", fillcolor="#399de5"] ;
341 -> 342 ;
343 [label="gini = 0.0\nsamples = 1\nvalue = [1, 0]\nclass = 1", fillcolor="#e58139"] ;
341 -> 343 ;
344 [label="gini = 0.0\nsamples = 28\nvalue = [0, 28]\nclass = 0", fillcolor="#399de5"] ;
340 -> 344 ;
345 [label="PRES <= -0.123\ngini = 0.444\nsamples = 3\nvalue = [2, 1]\nclass = 1", fillcolor="#f2c09c"] ;
339 -> 345 ;
346 [label="gini = 0.0\nsamples = 2\nvalue = [2, 0]\nclass = 1", fillcolor="#e58139"] ;
345 -> 346 ;
347 [label="gini = 0.0\nsamples = 1\nvalue = [0, 1]\nclass = 0", fillcolor="#399de5"] ;
345 -> 347 ;
348 [label="PAHs <= -1.685\ngini = 0.022\nsamples = 534\nvalue = [6, 528]\nclass = 0", fillcolor="#3b9ee5"] ;
338 -> 348 ;
349 [label="PAHs <= -1.711\ngini = 0.1\nsamples = 38\nvalue = [2, 36]\nclass = 0", fillcolor="#44a2e6"] ;
348 -> 349 ;
350 [label="PM10 <= 1.123\ngini = 0.053\nsamples = 37\nvalue = [1, 36]\nclass = 0", fillcolor="#3ea0e6"] ;
349 -> 350 ;
351 [label="gini = 0.0\nsamples = 33\nvalue = [0, 33]\nclass = 0", fillcolor="#399de5"] ;
350 -> 351 ;
352 [label="PM10 <= 1.202\ngini = 0.375\nsamples = 4\nvalue = [1, 3]\nclass = 0", fillcolor="#7bbeee"] ;
350 -> 352 ;
353 [label="gini = 0.0\nsamples = 1\nvalue = [1, 0]\nclass = 1", fillcolor="#e58139"] ;
352 -> 353 ;
354 [label="gini = 0.0\nsamples = 3\nvalue = [0, 3]\nclass = 0", fillcolor="#399de5"] ;
352 -> 354 ;
355 [label="gini = 0.0\nsamples = 1\nvalue = [1, 0]\nclass = 1", fillcolor="#e58139"] ;
349 -> 355 ;
356 [label="NOx <= 1.42\ngini = 0.016\nsamples = 496\nvalue = [4, 492]\nclass = 0", fillcolor="#3b9ee5"] ;
348 -> 356 ;
357 [label="PM10 <= -1.981\ngini = 0.009\nsamples = 461\nvalue = [2, 459]\nclass = 0", fillcolor="#3a9de5"] ;
356 -> 357 ;
358 [label="TEMP <= -1.453\ngini = 0.077\nsamples = 25\nvalue = [1, 24]\nclass = 0", fillcolor="#41a1e6"] ;
357 -> 358 ;
359 [label="PRES <= -0.183\ngini = 0.5\nsamples = 2\nvalue = [1, 1]\nclass = 1", fillcolor="#ffffff"] ;
358 -> 359 ;
360 [label="gini = 0.0\nsamples = 1\nvalue = [1, 0]\nclass = 1", fillcolor="#e58139"] ;
359 -> 360 ;
361 [label="gini = 0.0\nsamples = 1\nvalue = [0, 1]\nclass = 0", fillcolor="#399de5"] ;
359 -> 361 ;
362 [label="gini = 0.0\nsamples = 23\nvalue = [0, 23]\nclass = 0", fillcolor="#399de5"] ;
358 -> 362 ;
363 [label="NOx <= -1.551\ngini = 0.005\nsamples = 436\nvalue = [1, 435]\nclass = 0", fillcolor="#399de5"] ;
357 -> 363 ;
364 [label="NOx <= -1.579\ngini = 0.071\nsamples = 27\nvalue = [1, 26]\nclass = 0", fillcolor="#41a1e6"] ;
363 -> 364 ;
365 [label="gini = 0.0\nsamples = 26\nvalue = [0, 26]\nclass = 0", fillcolor="#399de5"] ;
364 -> 365 ;
366 [label="gini = 0.0\nsamples = 1\nvalue = [1, 0]\nclass = 1", fillcolor="#e58139"] ;
364 -> 366 ;
367 [label="gini = 0.0\nsamples = 409\nvalue = [0, 409]\nclass = 0", fillcolor="#399de5"] ;
363 -> 367 ;
368 [label="NOx <= 1.443\ngini = 0.108\nsamples = 35\nvalue = [2, 33]\nclass = 0", fillcolor="#45a3e7"] ;
356 -> 368 ;
369 [label="gini = 0.0\nsamples = 1\nvalue = [1, 0]\nclass = 1", fillcolor="#e58139"] ;
368 -> 369 ;
370 [label="O3 <= 0.658\ngini = 0.057\nsamples = 34\nvalue = [1, 33]\nclass = 0", fillcolor="#3fa0e6"] ;
368 -> 370 ;
371 [label="gini = 0.0\nsamples = 31\nvalue = [0, 31]\nclass = 0", fillcolor="#399de5"] ;
370 -> 371 ;
372 [label="NH3 <= -0.768\ngini = 0.444\nsamples = 3\nvalue = [1, 2]\nclass = 0", fillcolor="#9ccef2"] ;
370 -> 372 ;
373 [label="gini = 0.0\nsamples = 1\nvalue = [1, 0]\nclass = 1", fillcolor="#e58139"] ;
372 -> 373 ;
374 [label="gini = 0.0\nsamples = 2\nvalue = [0, 2]\nclass = 0", fillcolor="#399de5"] ;
372 -> 374 ;
375 [label="H2CO <= -0.261\ngini = 0.094\nsamples = 242\nvalue = [12, 230]\nclass = 0", fillcolor="#43a2e6"] ;
337 -> 375 ;
376 [label="PM2.5 <= -1.119\ngini = 0.054\nsamples = 216\nvalue = [6, 210]\nclass = 0", fillcolor="#3fa0e6"] ;
375 -> 376 ;
377 [label="PAHs <= 0.449\ngini = 0.375\nsamples = 8\nvalue = [2, 6]\nclass = 0", fillcolor="#7bbeee"] ;
376 -> 377 ;
378 [label="gini = 0.0\nsamples = 5\nvalue = [0, 5]\nclass = 0", fillcolor="#399de5"] ;
377 -> 378 ;
379 [label="index <= -1.55\ngini = 0.444\nsamples = 3\nvalue = [2, 1]\nclass = 1", fillcolor="#f2c09c"] ;
377 -> 379 ;
380 [label="gini = 0.0\nsamples = 2\nvalue = [2, 0]\nclass = 1", fillcolor="#e58139"] ;
379 -> 380 ;
381 [label="gini = 0.0\nsamples = 1\nvalue = [0, 1]\nclass = 0", fillcolor="#399de5"] ;
379 -> 381 ;
382 [label="NOx <= -1.811\ngini = 0.038\nsamples = 208\nvalue = [4, 204]\nclass = 0", fillcolor="#3d9fe6"] ;
376 -> 382 ;
383 [label="Pb <= -1.042\ngini = 0.219\nsamples = 16\nvalue = [2, 14]\nclass = 0", fillcolor="#55abe9"] ;
382 -> 383 ;
384 [label="gini = 0.0\nsamples = 1\nvalue = [1, 0]\nclass = 1", fillcolor="#e58139"] ;
383 -> 384 ;
385 [label="PAHs <= 0.726\ngini = 0.124\nsamples = 15\nvalue = [1, 14]\nclass = 0", fillcolor="#47a4e7"] ;
383 -> 385 ;
386 [label="gini = 0.0\nsamples = 14\nvalue = [0, 14]\nclass = 0", fillcolor="#399de5"] ;
385 -> 386 ;
387 [label="gini = 0.0\nsamples = 1\nvalue = [1, 0]\nclass = 1", fillcolor="#e58139"] ;
385 -> 387 ;
388 [label="C2H3NO5 <= 97.5\ngini = 0.021\nsamples = 192\nvalue = [2, 190]\nclass = 0", fillcolor="#3b9ee5"] ;
382 -> 388 ;
389 [label="PRES <= 1.1\ngini = 0.011\nsamples = 179\nvalue = [1, 178]\nclass = 0", fillcolor="#3a9ee5"] ;
388 -> 389 ;
390 [label="gini = 0.0\nsamples = 165\nvalue = [0, 165]\nclass = 0", fillcolor="#399de5"] ;
389 -> 390 ;
391 [label="PRES <= 1.106\ngini = 0.133\nsamples = 14\nvalue = [1, 13]\nclass = 0", fillcolor="#48a5e7"] ;
389 -> 391 ;
392 [label="gini = 0.0\nsamples = 1\nvalue = [1, 0]\nclass = 1", fillcolor="#e58139"] ;
391 -> 392 ;
393 [label="gini = 0.0\nsamples = 13\nvalue = [0, 13]\nclass = 0", fillcolor="#399de5"] ;
391 -> 393 ;
394 [label="CH4 <= -1.806\ngini = 0.142\nsamples = 13\nvalue = [1, 12]\nclass = 0", fillcolor="#49a5e7"] ;
388 -> 394 ;
395 [label="gini = 0.0\nsamples = 1\nvalue = [1, 0]\nclass = 1", fillcolor="#e58139"] ;
394 -> 395 ;
396 [label="gini = 0.0\nsamples = 12\nvalue = [0, 12]\nclass = 0", fillcolor="#399de5"] ;
394 -> 396 ;
397 [label="index <= -0.401\ngini = 0.355\nsamples = 26\nvalue = [6, 20]\nclass = 0", fillcolor="#74baed"] ;
375 -> 397 ;
398 [label="NH3 <= 1.457\ngini = 0.1\nsamples = 19\nvalue = [1, 18]\nclass = 0", fillcolor="#44a2e6"] ;
397 -> 398 ;
399 [label="gini = 0.0\nsamples = 18\nvalue = [0, 18]\nclass = 0", fillcolor="#399de5"] ;
398 -> 399 ;
400 [label="gini = 0.0\nsamples = 1\nvalue = [1, 0]\nclass = 1", fillcolor="#e58139"] ;
398 -> 400 ;
401 [label="CFCs <= 0.928\ngini = 0.408\nsamples = 7\nvalue = [5, 2]\nclass = 1", fillcolor="#efb388"] ;
397 -> 401 ;
402 [label="gini = 0.0\nsamples = 5\nvalue = [5, 0]\nclass = 1", fillcolor="#e58139"] ;
401 -> 402 ;
403 [label="gini = 0.0\nsamples = 2\nvalue = [0, 2]\nclass = 0", fillcolor="#399de5"] ;
401 -> 403 ;
404 [label="TEMP <= 1.518\ngini = 0.153\nsamples = 84\nvalue = [7, 77]\nclass = 0", fillcolor="#4ba6e7"] ;
336 -> 404 ;
405 [label="PM10 <= -0.143\ngini = 0.078\nsamples = 74\nvalue = [3, 71]\nclass = 0", fillcolor="#41a1e6"] ;
404 -> 405 ;
406 [label="PM10 <= -0.213\ngini = 0.227\nsamples = 23\nvalue = [3, 20]\nclass = 0", fillcolor="#57ace9"] ;
405 -> 406 ;
407 [label="C2H3NO5 <= 3.5\ngini = 0.165\nsamples = 22\nvalue = [2, 20]\nclass = 0", fillcolor="#4da7e8"] ;
406 -> 407 ;
408 [label="gini = 0.0\nsamples = 1\nvalue = [1, 0]\nclass = 1", fillcolor="#e58139"] ;
407 -> 408 ;
409 [label="location <= 1.104\ngini = 0.091\nsamples = 21\nvalue = [1, 20]\nclass = 0", fillcolor="#43a2e6"] ;
407 -> 409 ;
410 [label="gini = 0.0\nsamples = 19\nvalue = [0, 19]\nclass = 0", fillcolor="#399de5"] ;
409 -> 410 ;
411 [label="TEMP <= 0.352\ngini = 0.5\nsamples = 2\nvalue = [1, 1]\nclass = 1", fillcolor="#ffffff"] ;
409 -> 411 ;
412 [label="gini = 0.0\nsamples = 1\nvalue = [1, 0]\nclass = 1", fillcolor="#e58139"] ;
411 -> 412 ;
413 [label="gini = 0.0\nsamples = 1\nvalue = [0, 1]\nclass = 0", fillcolor="#399de5"] ;
411 -> 413 ;
414 [label="gini = 0.0\nsamples = 1\nvalue = [1, 0]\nclass = 1", fillcolor="#e58139"] ;
406 -> 414 ;
415 [label="gini = 0.0\nsamples = 51\nvalue = [0, 51]\nclass = 0", fillcolor="#399de5"] ;
405 -> 415 ;
416 [label="index <= -1.245\ngini = 0.48\nsamples = 10\nvalue = [4, 6]\nclass = 0", fillcolor="#bddef6"] ;
404 -> 416 ;
417 [label="gini = 0.0\nsamples = 5\nvalue = [0, 5]\nclass = 0", fillcolor="#399de5"] ;
416 -> 417 ;
418 [label="CFCs <= 1.263\ngini = 0.32\nsamples = 5\nvalue = [4, 1]\nclass = 1", fillcolor="#eca06a"] ;
416 -> 418 ;
419 [label="gini = 0.0\nsamples = 4\nvalue = [4, 0]\nclass = 1", fillcolor="#e58139"] ;
418 -> 419 ;
420 [label="gini = 0.0\nsamples = 1\nvalue = [0, 1]\nclass = 0", fillcolor="#399de5"] ;
418 -> 420 ;
421 [label="gini = 0.0\nsamples = 1\nvalue = [1, 0]\nclass = 1", fillcolor="#e58139"] ;
331 -> 421 ;
422 [label="PRES <= -1.088\ngini = 0.016\nsamples = 378\nvalue = [3, 375]\nclass = 0", fillcolor="#3b9ee5"] ;
330 -> 422 ;
423 [label="PRES <= -1.094\ngini = 0.107\nsamples = 53\nvalue = [3, 50]\nclass = 0", fillcolor="#45a3e7"] ;
422 -> 423 ;
424 [label="Pb <= -1.27\ngini = 0.074\nsamples = 52\nvalue = [2, 50]\nclass = 0", fillcolor="#41a1e6"] ;
423 -> 424 ;
425 [label="O3 <= 1.234\ngini = 0.5\nsamples = 2\nvalue = [1, 1]\nclass = 1", fillcolor="#ffffff"] ;
424 -> 425 ;
426 [label="gini = 0.0\nsamples = 1\nvalue = [1, 0]\nclass = 1", fillcolor="#e58139"] ;
425 -> 426 ;
427 [label="gini = 0.0\nsamples = 1\nvalue = [0, 1]\nclass = 0", fillcolor="#399de5"] ;
425 -> 427 ;
428 [label="CO <= -1.317\ngini = 0.039\nsamples = 50\nvalue = [1, 49]\nclass = 0", fillcolor="#3d9fe6"] ;
424 -> 428 ;
429 [label="CH4 <= -0.595\ngini = 0.278\nsamples = 6\nvalue = [1, 5]\nclass = 0", fillcolor="#61b1ea"] ;
428 -> 429 ;
430 [label="gini = 0.0\nsamples = 5\nvalue = [0, 5]\nclass = 0", fillcolor="#399de5"] ;
429 -> 430 ;
431 [label="gini = 0.0\nsamples = 1\nvalue = [1, 0]\nclass = 1", fillcolor="#e58139"] ;
429 -> 431 ;
432 [label="gini = 0.0\nsamples = 44\nvalue = [0, 44]\nclass = 0", fillcolor="#399de5"] ;
428 -> 432 ;
433 [label="gini = 0.0\nsamples = 1\nvalue = [1, 0]\nclass = 1", fillcolor="#e58139"] ;
423 -> 433 ;
434 [label="gini = 0.0\nsamples = 325\nvalue = [0, 325]\nclass = 0", fillcolor="#399de5"] ;
422 -> 434 ;
435 [label="SO2 <= 0.667\ngini = 0.219\nsamples = 32\nvalue = [4, 28]\nclass = 0", fillcolor="#55abe9"] ;
329 -> 435 ;
436 [label="gini = 0.0\nsamples = 24\nvalue = [0, 24]\nclass = 0", fillcolor="#399de5"] ;
435 -> 436 ;
437 [label="CO <= -1.071\ngini = 0.5\nsamples = 8\nvalue = [4, 4]\nclass = 1", fillcolor="#ffffff"] ;
435 -> 437 ;
438 [label="gini = 0.0\nsamples = 3\nvalue = [0, 3]\nclass = 0", fillcolor="#399de5"] ;
437 -> 438 ;
439 [label="H2CO <= 0.446\ngini = 0.32\nsamples = 5\nvalue = [4, 1]\nclass = 1", fillcolor="#eca06a"] ;
437 -> 439 ;
440 [label="gini = 0.0\nsamples = 4\nvalue = [4, 0]\nclass = 1", fillcolor="#e58139"] ;
439 -> 440 ;
441 [label="gini = 0.0\nsamples = 1\nvalue = [0, 1]\nclass = 0", fillcolor="#399de5"] ;
439 -> 441 ;
442 [label="H2CO <= -0.019\ngini = 0.296\nsamples = 61\nvalue = [11, 50]\nclass = 0", fillcolor="#65b3eb"] ;
316 -> 442 ;
443 [label="Pb <= -1.142\ngini = 0.147\nsamples = 50\nvalue = [4, 46]\nclass = 0", fillcolor="#4aa6e7"] ;
442 -> 443 ;
444 [label="NH3 <= -0.547\ngini = 0.444\nsamples = 3\nvalue = [2, 1]\nclass = 1", fillcolor="#f2c09c"] ;
443 -> 444 ;
445 [label="gini = 0.0\nsamples = 1\nvalue = [0, 1]\nclass = 0", fillcolor="#399de5"] ;
444 -> 445 ;
446 [label="gini = 0.0\nsamples = 2\nvalue = [2, 0]\nclass = 1", fillcolor="#e58139"] ;
444 -> 446 ;
447 [label="C2H3NO5 <= 111.0\ngini = 0.081\nsamples = 47\nvalue = [2, 45]\nclass = 0", fillcolor="#42a1e6"] ;
443 -> 447 ;
448 [label="PRES <= 1.675\ngini = 0.043\nsamples = 45\nvalue = [1, 44]\nclass = 0", fillcolor="#3d9fe6"] ;
447 -> 448 ;
449 [label="gini = 0.0\nsamples = 42\nvalue = [0, 42]\nclass = 0", fillcolor="#399de5"] ;
448 -> 449 ;
450 [label="location <= -0.978\ngini = 0.444\nsamples = 3\nvalue = [1, 2]\nclass = 0", fillcolor="#9ccef2"] ;
448 -> 450 ;
451 [label="gini = 0.0\nsamples = 1\nvalue = [1, 0]\nclass = 1", fillcolor="#e58139"] ;
450 -> 451 ;
452 [label="gini = 0.0\nsamples = 2\nvalue = [0, 2]\nclass = 0", fillcolor="#399de5"] ;
450 -> 452 ;
453 [label="CO <= 0.488\ngini = 0.5\nsamples = 2\nvalue = [1, 1]\nclass = 1", fillcolor="#ffffff"] ;
447 -> 453 ;
454 [label="gini = 0.0\nsamples = 1\nvalue = [0, 1]\nclass = 0", fillcolor="#399de5"] ;
453 -> 454 ;
455 [label="gini = 0.0\nsamples = 1\nvalue = [1, 0]\nclass = 1", fillcolor="#e58139"] ;
453 -> 455 ;
456 [label="CO <= 0.306\ngini = 0.463\nsamples = 11\nvalue = [7, 4]\nclass = 1", fillcolor="#f4c9aa"] ;
442 -> 456 ;
457 [label="PAHs <= 1.343\ngini = 0.32\nsamples = 5\nvalue = [1, 4]\nclass = 0", fillcolor="#6ab6ec"] ;
456 -> 457 ;
458 [label="gini = 0.0\nsamples = 4\nvalue = [0, 4]\nclass = 0", fillcolor="#399de5"] ;
457 -> 458 ;
459 [label="gini = 0.0\nsamples = 1\nvalue = [1, 0]\nclass = 1", fillcolor="#e58139"] ;
457 -> 459 ;
460 [label="gini = 0.0\nsamples = 6\nvalue = [6, 0]\nclass = 1", fillcolor="#e58139"] ;
456 -> 460 ;
461 [label="index <= -0.635\ngini = 0.498\nsamples = 153\nvalue = [81, 72]\nclass = 1", fillcolor="#fcf1e9"] ;
313 -> 461 ;
462 [label="SO2 <= 1.402\ngini = 0.068\nsamples = 57\nvalue = [2, 55]\nclass = 0", fillcolor="#40a1e6"] ;
461 -> 462 ;
463 [label="TEMP <= 1.523\ngini = 0.035\nsamples = 56\nvalue = [1, 55]\nclass = 0", fillcolor="#3d9fe5"] ;
462 -> 463 ;
464 [label="gini = 0.0\nsamples = 52\nvalue = [0, 52]\nclass = 0", fillcolor="#399de5"] ;
463 -> 464 ;
465 [label="TEMP <= 1.561\ngini = 0.375\nsamples = 4\nvalue = [1, 3]\nclass = 0", fillcolor="#7bbeee"] ;
463 -> 465 ;
466 [label="gini = 0.0\nsamples = 1\nvalue = [1, 0]\nclass = 1", fillcolor="#e58139"] ;
465 -> 466 ;
467 [label="gini = 0.0\nsamples = 3\nvalue = [0, 3]\nclass = 0", fillcolor="#399de5"] ;
465 -> 467 ;
468 [label="gini = 0.0\nsamples = 1\nvalue = [1, 0]\nclass = 1", fillcolor="#e58139"] ;
462 -> 468 ;
469 [label="CFCs <= -1.613\ngini = 0.291\nsamples = 96\nvalue = [79, 17]\nclass = 1", fillcolor="#eb9c64"] ;
461 -> 469 ;
470 [label="gini = 0.0\nsamples = 4\nvalue = [0, 4]\nclass = 0", fillcolor="#399de5"] ;
469 -> 470 ;
471 [label="H2CO <= 0.862\ngini = 0.243\nsamples = 92\nvalue = [79, 13]\nclass = 1", fillcolor="#e9965a"] ;
469 -> 471 ;
472 [label="SO2 <= 0.184\ngini = 0.483\nsamples = 22\nvalue = [13, 9]\nclass = 1", fillcolor="#f7d8c2"] ;
471 -> 472 ;
473 [label="gini = 0.0\nsamples = 7\nvalue = [0, 7]\nclass = 0", fillcolor="#399de5"] ;
472 -> 473 ;
474 [label="NH3 <= 0.896\ngini = 0.231\nsamples = 15\nvalue = [13, 2]\nclass = 1", fillcolor="#e99457"] ;
472 -> 474 ;
475 [label="gini = 0.0\nsamples = 12\nvalue = [12, 0]\nclass = 1", fillcolor="#e58139"] ;
474 -> 475 ;
476 [label="NOx <= -0.258\ngini = 0.444\nsamples = 3\nvalue = [1, 2]\nclass = 0", fillcolor="#9ccef2"] ;
474 -> 476 ;
477 [label="gini = 0.0\nsamples = 1\nvalue = [1, 0]\nclass = 1", fillcolor="#e58139"] ;
476 -> 477 ;
478 [label="gini = 0.0\nsamples = 2\nvalue = [0, 2]\nclass = 0", fillcolor="#399de5"] ;
476 -> 478 ;
479 [label="CH4 <= 0.276\ngini = 0.108\nsamples = 70\nvalue = [66, 4]\nclass = 1", fillcolor="#e78945"] ;
471 -> 479 ;
480 [label="H2CO <= 1.135\ngini = 0.058\nsamples = 67\nvalue = [65, 2]\nclass = 1", fillcolor="#e6853f"] ;
479 -> 480 ;
481 [label="SO2 <= 0.03\ngini = 0.278\nsamples = 12\nvalue = [10, 2]\nclass = 1", fillcolor="#ea9a61"] ;
480 -> 481 ;
482 [label="gini = 0.0\nsamples = 1\nvalue = [0, 1]\nclass = 0", fillcolor="#399de5"] ;
481 -> 482 ;
483 [label="SO2 <= 1.34\ngini = 0.165\nsamples = 11\nvalue = [10, 1]\nclass = 1", fillcolor="#e88e4d"] ;
481 -> 483 ;
484 [label="gini = 0.0\nsamples = 10\nvalue = [10, 0]\nclass = 1", fillcolor="#e58139"] ;
483 -> 484 ;
485 [label="gini = 0.0\nsamples = 1\nvalue = [0, 1]\nclass = 0", fillcolor="#399de5"] ;
483 -> 485 ;
486 [label="gini = 0.0\nsamples = 55\nvalue = [55, 0]\nclass = 1", fillcolor="#e58139"] ;
480 -> 486 ;
487 [label="NH3 <= 0.169\ngini = 0.444\nsamples = 3\nvalue = [1, 2]\nclass = 0", fillcolor="#9ccef2"] ;
479 -> 487 ;
488 [label="gini = 0.0\nsamples = 1\nvalue = [1, 0]\nclass = 1", fillcolor="#e58139"] ;
487 -> 488 ;
489 [label="gini = 0.0\nsamples = 2\nvalue = [0, 2]\nclass = 0", fillcolor="#399de5"] ;
487 -> 489 ;
490 [label="H2CO <= -0.097\ngini = 0.497\nsamples = 452\nvalue = [209, 243]\nclass = 0", fillcolor="#e3f1fb"] ;
312 -> 490 ;
491 [label="CFCs <= 0.701\ngini = 0.183\nsamples = 118\nvalue = [106, 12]\nclass = 1", fillcolor="#e88f4f"] ;
490 -> 491 ;
492 [label="CFCs <= -0.125\ngini = 0.086\nsamples = 111\nvalue = [106, 5]\nclass = 1", fillcolor="#e68742"] ;
491 -> 492 ;
493 [label="SO2 <= 0.612\ngini = 0.041\nsamples = 96\nvalue = [94, 2]\nclass = 1", fillcolor="#e6843d"] ;
492 -> 493 ;
494 [label="H2CO <= -0.17\ngini = 0.021\nsamples = 93\nvalue = [92, 1]\nclass = 1", fillcolor="#e5823b"] ;
493 -> 494 ;
495 [label="gini = 0.0\nsamples = 85\nvalue = [85, 0]\nclass = 1", fillcolor="#e58139"] ;
494 -> 495 ;
496 [label="H2CO <= -0.169\ngini = 0.219\nsamples = 8\nvalue = [7, 1]\nclass = 1", fillcolor="#e99355"] ;
494 -> 496 ;
497 [label="gini = 0.0\nsamples = 1\nvalue = [0, 1]\nclass = 0", fillcolor="#399de5"] ;
496 -> 497 ;
498 [label="gini = 0.0\nsamples = 7\nvalue = [7, 0]\nclass = 1", fillcolor="#e58139"] ;
496 -> 498 ;
499 [label="CO <= -0.59\ngini = 0.444\nsamples = 3\nvalue = [2, 1]\nclass = 1", fillcolor="#f2c09c"] ;
493 -> 499 ;
500 [label="gini = 0.0\nsamples = 1\nvalue = [0, 1]\nclass = 0", fillcolor="#399de5"] ;
499 -> 500 ;
501 [label="gini = 0.0\nsamples = 2\nvalue = [2, 0]\nclass = 1", fillcolor="#e58139"] ;
499 -> 501 ;
502 [label="CO <= 0.94\ngini = 0.32\nsamples = 15\nvalue = [12, 3]\nclass = 1", fillcolor="#eca06a"] ;
492 -> 502 ;
503 [label="H2CO <= -0.194\ngini = 0.142\nsamples = 13\nvalue = [12, 1]\nclass = 1", fillcolor="#e78c49"] ;
502 -> 503 ;
504 [label="gini = 0.0\nsamples = 12\nvalue = [12, 0]\nclass = 1", fillcolor="#e58139"] ;
503 -> 504 ;
505 [label="gini = 0.0\nsamples = 1\nvalue = [0, 1]\nclass = 0", fillcolor="#399de5"] ;
503 -> 505 ;
506 [label="gini = 0.0\nsamples = 2\nvalue = [0, 2]\nclass = 0", fillcolor="#399de5"] ;
502 -> 506 ;
507 [label="gini = 0.0\nsamples = 7\nvalue = [0, 7]\nclass = 0", fillcolor="#399de5"] ;
491 -> 507 ;
508 [label="H2CO <= 1.594\ngini = 0.427\nsamples = 334\nvalue = [103, 231]\nclass = 0", fillcolor="#91c9f1"] ;
490 -> 508 ;
509 [label="H2CO <= 0.45\ngini = 0.389\nsamples = 287\nvalue = [76, 211]\nclass = 0", fillcolor="#80c0ee"] ;
508 -> 509 ;
510 [label="CFCs <= 0.173\ngini = 0.496\nsamples = 97\nvalue = [44, 53]\nclass = 0", fillcolor="#ddeefb"] ;
509 -> 510 ;
511 [label="SO2 <= 0.016\ngini = 0.287\nsamples = 46\nvalue = [38, 8]\nclass = 1", fillcolor="#ea9c63"] ;
510 -> 511 ;
512 [label="CH4 <= 0.473\ngini = 0.061\nsamples = 32\nvalue = [31, 1]\nclass = 1", fillcolor="#e6853f"] ;
511 -> 512 ;
513 [label="gini = 0.0\nsamples = 1\nvalue = [0, 1]\nclass = 0", fillcolor="#399de5"] ;
512 -> 513 ;
514 [label="gini = 0.0\nsamples = 31\nvalue = [31, 0]\nclass = 1", fillcolor="#e58139"] ;
512 -> 514 ;
515 [label="PM2.5 <= -0.018\ngini = 0.5\nsamples = 14\nvalue = [7, 7]\nclass = 1", fillcolor="#ffffff"] ;
511 -> 515 ;
516 [label="C2H3NO5 <= 38.0\ngini = 0.245\nsamples = 7\nvalue = [6, 1]\nclass = 1", fillcolor="#e9965a"] ;
515 -> 516 ;
517 [label="gini = 0.0\nsamples = 6\nvalue = [6, 0]\nclass = 1", fillcolor="#e58139"] ;
516 -> 517 ;
518 [label="gini = 0.0\nsamples = 1\nvalue = [0, 1]\nclass = 0", fillcolor="#399de5"] ;
516 -> 518 ;
519 [label="CH4 <= 0.677\ngini = 0.245\nsamples = 7\nvalue = [1, 6]\nclass = 0", fillcolor="#5aade9"] ;
515 -> 519 ;
520 [label="gini = 0.0\nsamples = 1\nvalue = [1, 0]\nclass = 1", fillcolor="#e58139"] ;
519 -> 520 ;
521 [label="gini = 0.0\nsamples = 6\nvalue = [0, 6]\nclass = 0", fillcolor="#399de5"] ;
519 -> 521 ;
522 [label="index <= -1.74\ngini = 0.208\nsamples = 51\nvalue = [6, 45]\nclass = 0", fillcolor="#53aae8"] ;
510 -> 522 ;
523 [label="SO2 <= -0.046\ngini = 0.5\nsamples = 6\nvalue = [3, 3]\nclass = 1", fillcolor="#ffffff"] ;
522 -> 523 ;
524 [label="gini = 0.0\nsamples = 3\nvalue = [3, 0]\nclass = 1", fillcolor="#e58139"] ;
523 -> 524 ;
525 [label="gini = 0.0\nsamples = 3\nvalue = [0, 3]\nclass = 0", fillcolor="#399de5"] ;
523 -> 525 ;
526 [label="PM2.5 <= -0.389\ngini = 0.124\nsamples = 45\nvalue = [3, 42]\nclass = 0", fillcolor="#47a4e7"] ;
522 -> 526 ;
527 [label="CFCs <= 0.523\ngini = 0.48\nsamples = 5\nvalue = [2, 3]\nclass = 0", fillcolor="#bddef6"] ;
526 -> 527 ;
528 [label="gini = 0.0\nsamples = 2\nvalue = [2, 0]\nclass = 1", fillcolor="#e58139"] ;
527 -> 528 ;
529 [label="gini = 0.0\nsamples = 3\nvalue = [0, 3]\nclass = 0", fillcolor="#399de5"] ;
527 -> 529 ;
530 [label="index <= 0.034\ngini = 0.049\nsamples = 40\nvalue = [1, 39]\nclass = 0", fillcolor="#3ea0e6"] ;
526 -> 530 ;
531 [label="gini = 0.0\nsamples = 37\nvalue = [0, 37]\nclass = 0", fillcolor="#399de5"] ;
530 -> 531 ;
532 [label="C2H3NO5 <= 16.5\ngini = 0.444\nsamples = 3\nvalue = [1, 2]\nclass = 0", fillcolor="#9ccef2"] ;
530 -> 532 ;
533 [label="gini = 0.0\nsamples = 1\nvalue = [1, 0]\nclass = 1", fillcolor="#e58139"] ;
532 -> 533 ;
534 [label="gini = 0.0\nsamples = 2\nvalue = [0, 2]\nclass = 0", fillcolor="#399de5"] ;
532 -> 534 ;
535 [label="PM2.5 <= -1.067\ngini = 0.28\nsamples = 190\nvalue = [32, 158]\nclass = 0", fillcolor="#61b1ea"] ;
509 -> 535 ;
536 [label="CH4 <= 1.408\ngini = 0.375\nsamples = 8\nvalue = [6, 2]\nclass = 1", fillcolor="#eeab7b"] ;
535 -> 536 ;
537 [label="gini = 0.0\nsamples = 6\nvalue = [6, 0]\nclass = 1", fillcolor="#e58139"] ;
536 -> 537 ;
538 [label="gini = 0.0\nsamples = 2\nvalue = [0, 2]\nclass = 0", fillcolor="#399de5"] ;
536 -> 538 ;
539 [label="NOx <= -1.048\ngini = 0.245\nsamples = 182\nvalue = [26, 156]\nclass = 0", fillcolor="#5aade9"] ;
535 -> 539 ;
540 [label="location <= -0.83\ngini = 0.436\nsamples = 28\nvalue = [9, 19]\nclass = 0", fillcolor="#97cbf1"] ;
539 -> 540 ;
541 [label="index <= -0.753\ngini = 0.375\nsamples = 8\nvalue = [6, 2]\nclass = 1", fillcolor="#eeab7b"] ;
540 -> 541 ;
542 [label="gini = 0.0\nsamples = 5\nvalue = [5, 0]\nclass = 1", fillcolor="#e58139"] ;
541 -> 542 ;
543 [label="CH4 <= 0.934\ngini = 0.444\nsamples = 3\nvalue = [1, 2]\nclass = 0", fillcolor="#9ccef2"] ;
541 -> 543 ;
544 [label="gini = 0.0\nsamples = 1\nvalue = [1, 0]\nclass = 1", fillcolor="#e58139"] ;
543 -> 544 ;
545 [label="gini = 0.0\nsamples = 2\nvalue = [0, 2]\nclass = 0", fillcolor="#399de5"] ;
543 -> 545 ;
546 [label="CFCs <= 0.271\ngini = 0.255\nsamples = 20\nvalue = [3, 17]\nclass = 0", fillcolor="#5caeea"] ;
540 -> 546 ;
547 [label="gini = 0.0\nsamples = 15\nvalue = [0, 15]\nclass = 0", fillcolor="#399de5"] ;
546 -> 547 ;
548 [label="Pb <= -0.398\ngini = 0.48\nsamples = 5\nvalue = [3, 2]\nclass = 1", fillcolor="#f6d5bd"] ;
546 -> 548 ;
549 [label="gini = 0.0\nsamples = 2\nvalue = [0, 2]\nclass = 0", fillcolor="#399de5"] ;
548 -> 549 ;
550 [label="gini = 0.0\nsamples = 3\nvalue = [3, 0]\nclass = 1", fillcolor="#e58139"] ;
548 -> 550 ;
551 [label="CFCs <= 1.66\ngini = 0.196\nsamples = 154\nvalue = [17, 137]\nclass = 0", fillcolor="#52a9e8"] ;
539 -> 551 ;
552 [label="CH4 <= 1.713\ngini = 0.178\nsamples = 152\nvalue = [15, 137]\nclass = 0", fillcolor="#4fa8e8"] ;
551 -> 552 ;
553 [label="H2CO <= 0.58\ngini = 0.127\nsamples = 132\nvalue = [9, 123]\nclass = 0", fillcolor="#47a4e7"] ;
552 -> 553 ;
554 [label="NOx <= -0.094\ngini = 0.355\nsamples = 13\nvalue = [3, 10]\nclass = 0", fillcolor="#74baed"] ;
553 -> 554 ;
555 [label="gini = 0.0\nsamples = 2\nvalue = [2, 0]\nclass = 1", fillcolor="#e58139"] ;
554 -> 555 ;
556 [label="CFCs <= -0.743\ngini = 0.165\nsamples = 11\nvalue = [1, 10]\nclass = 0", fillcolor="#4da7e8"] ;
554 -> 556 ;
557 [label="gini = 0.0\nsamples = 1\nvalue = [1, 0]\nclass = 1", fillcolor="#e58139"] ;
556 -> 557 ;
558 [label="gini = 0.0\nsamples = 10\nvalue = [0, 10]\nclass = 0", fillcolor="#399de5"] ;
556 -> 558 ;
559 [label="TEMP <= 1.3\ngini = 0.096\nsamples = 119\nvalue = [6, 113]\nclass = 0", fillcolor="#44a2e6"] ;
553 -> 559 ;
560 [label="H2CO <= 1.363\ngini = 0.056\nsamples = 104\nvalue = [3, 101]\nclass = 0", fillcolor="#3fa0e6"] ;
559 -> 560 ;
561 [label="gini = 0.0\nsamples = 82\nvalue = [0, 82]\nclass = 0", fillcolor="#399de5"] ;
560 -> 561 ;
562 [label="CFCs <= 1.219\ngini = 0.236\nsamples = 22\nvalue = [3, 19]\nclass = 0", fillcolor="#58ace9"] ;
560 -> 562 ;
563 [label="H2CO <= 1.364\ngini = 0.172\nsamples = 21\nvalue = [2, 19]\nclass = 0", fillcolor="#4ea7e8"] ;
562 -> 563 ;
564 [label="gini = 0.0\nsamples = 1\nvalue = [1, 0]\nclass = 1", fillcolor="#e58139"] ;
563 -> 564 ;
565 [label="O3 <= -0.88\ngini = 0.095\nsamples = 20\nvalue = [1, 19]\nclass = 0", fillcolor="#43a2e6"] ;
563 -> 565 ;
566 [label="PRES <= 0.142\ngini = 0.375\nsamples = 4\nvalue = [1, 3]\nclass = 0", fillcolor="#7bbeee"] ;
565 -> 566 ;
567 [label="gini = 0.0\nsamples = 3\nvalue = [0, 3]\nclass = 0", fillcolor="#399de5"] ;
566 -> 567 ;
568 [label="gini = 0.0\nsamples = 1\nvalue = [1, 0]\nclass = 1", fillcolor="#e58139"] ;
566 -> 568 ;
569 [label="gini = 0.0\nsamples = 16\nvalue = [0, 16]\nclass = 0", fillcolor="#399de5"] ;
565 -> 569 ;
570 [label="gini = 0.0\nsamples = 1\nvalue = [1, 0]\nclass = 1", fillcolor="#e58139"] ;
562 -> 570 ;
571 [label="NOx <= 1.689\ngini = 0.32\nsamples = 15\nvalue = [3, 12]\nclass = 0", fillcolor="#6ab6ec"] ;
559 -> 571 ;
572 [label="CH4 <= 0.443\ngini = 0.142\nsamples = 13\nvalue = [1, 12]\nclass = 0", fillcolor="#49a5e7"] ;
571 -> 572 ;
573 [label="gini = 0.0\nsamples = 1\nvalue = [1, 0]\nclass = 1", fillcolor="#e58139"] ;
572 -> 573 ;
574 [label="gini = 0.0\nsamples = 12\nvalue = [0, 12]\nclass = 0", fillcolor="#399de5"] ;
572 -> 574 ;
575 [label="gini = 0.0\nsamples = 2\nvalue = [2, 0]\nclass = 1", fillcolor="#e58139"] ;
571 -> 575 ;
576 [label="Pb <= 0.023\ngini = 0.42\nsamples = 20\nvalue = [6, 14]\nclass = 0", fillcolor="#8ec7f0"] ;
552 -> 576 ;
577 [label="index <= -0.293\ngini = 0.291\nsamples = 17\nvalue = [3, 14]\nclass = 0", fillcolor="#63b2eb"] ;
576 -> 577 ;
578 [label="gini = 0.0\nsamples = 11\nvalue = [0, 11]\nclass = 0", fillcolor="#399de5"] ;
577 -> 578 ;
579 [label="NH3 <= -0.849\ngini = 0.5\nsamples = 6\nvalue = [3, 3]\nclass = 1", fillcolor="#ffffff"] ;
577 -> 579 ;
580 [label="gini = 0.0\nsamples = 3\nvalue = [0, 3]\nclass = 0", fillcolor="#399de5"] ;
579 -> 580 ;
581 [label="gini = 0.0\nsamples = 3\nvalue = [3, 0]\nclass = 1", fillcolor="#e58139"] ;
579 -> 581 ;
582 [label="gini = 0.0\nsamples = 3\nvalue = [3, 0]\nclass = 1", fillcolor="#e58139"] ;
576 -> 582 ;
583 [label="gini = 0.0\nsamples = 2\nvalue = [2, 0]\nclass = 1", fillcolor="#e58139"] ;
551 -> 583 ;
584 [label="CFCs <= -0.46\ngini = 0.489\nsamples = 47\nvalue = [27, 20]\nclass = 1", fillcolor="#f8decc"] ;
508 -> 584 ;
585 [label="PM10 <= -1.64\ngini = 0.124\nsamples = 15\nvalue = [1, 14]\nclass = 0", fillcolor="#47a4e7"] ;
584 -> 585 ;
586 [label="SO2 <= 0.581\ngini = 0.5\nsamples = 2\nvalue = [1, 1]\nclass = 1", fillcolor="#ffffff"] ;
585 -> 586 ;
587 [label="gini = 0.0\nsamples = 1\nvalue = [0, 1]\nclass = 0", fillcolor="#399de5"] ;
586 -> 587 ;
588 [label="gini = 0.0\nsamples = 1\nvalue = [1, 0]\nclass = 1", fillcolor="#e58139"] ;
586 -> 588 ;
589 [label="gini = 0.0\nsamples = 13\nvalue = [0, 13]\nclass = 0", fillcolor="#399de5"] ;
585 -> 589 ;
590 [label="O3 <= -1.427\ngini = 0.305\nsamples = 32\nvalue = [26, 6]\nclass = 1", fillcolor="#eb9e67"] ;
584 -> 590 ;
591 [label="CO <= 0.378\ngini = 0.375\nsamples = 4\nvalue = [1, 3]\nclass = 0", fillcolor="#7bbeee"] ;
590 -> 591 ;
592 [label="gini = 0.0\nsamples = 1\nvalue = [1, 0]\nclass = 1", fillcolor="#e58139"] ;
591 -> 592 ;
593 [label="gini = 0.0\nsamples = 3\nvalue = [0, 3]\nclass = 0", fillcolor="#399de5"] ;
591 -> 593 ;
594 [label="CO <= -1.693\ngini = 0.191\nsamples = 28\nvalue = [25, 3]\nclass = 1", fillcolor="#e89051"] ;
590 -> 594 ;
595 [label="gini = 0.0\nsamples = 1\nvalue = [0, 1]\nclass = 0", fillcolor="#399de5"] ;
594 -> 595 ;
596 [label="SO2 <= -0.48\ngini = 0.137\nsamples = 27\nvalue = [25, 2]\nclass = 1", fillcolor="#e78b49"] ;
594 -> 596 ;
597 [label="gini = 0.0\nsamples = 1\nvalue = [0, 1]\nclass = 0", fillcolor="#399de5"] ;
596 -> 597 ;
598 [label="CO <= 1.172\ngini = 0.074\nsamples = 26\nvalue = [25, 1]\nclass = 1", fillcolor="#e68641"] ;
596 -> 598 ;
599 [label="gini = 0.0\nsamples = 24\nvalue = [24, 0]\nclass = 1", fillcolor="#e58139"] ;
598 -> 599 ;
600 [label="Pb <= 0.086\ngini = 0.5\nsamples = 2\nvalue = [1, 1]\nclass = 1", fillcolor="#ffffff"] ;
598 -> 600 ;
601 [label="gini = 0.0\nsamples = 1\nvalue = [0, 1]\nclass = 0", fillcolor="#399de5"] ;
600 -> 601 ;
602 [label="gini = 0.0\nsamples = 1\nvalue = [1, 0]\nclass = 1", fillcolor="#e58139"] ;
600 -> 602 ;
603 [label="CH4 <= 0.003\ngini = 0.37\nsamples = 1343\nvalue = [1014, 329]\nclass = 1", fillcolor="#edaa79"] ;
311 -> 603 ;
604 [label="H2CO <= -0.807\ngini = 0.222\nsamples = 1024\nvalue = [894, 130]\nclass = 1", fillcolor="#e99356"] ;
603 -> 604 ;
605 [label="index <= 1.164\ngini = 0.416\nsamples = 115\nvalue = [34, 81]\nclass = 0", fillcolor="#8cc6f0"] ;
604 -> 605 ;
606 [label="SO2 <= 1.504\ngini = 0.227\nsamples = 92\nvalue = [12, 80]\nclass = 0", fillcolor="#57ace9"] ;
605 -> 606 ;
607 [label="CH4 <= -1.691\ngini = 0.075\nsamples = 77\nvalue = [3, 74]\nclass = 0", fillcolor="#41a1e6"] ;
606 -> 607 ;
608 [label="C2H3NO5 <= 71.5\ngini = 0.5\nsamples = 2\nvalue = [1, 1]\nclass = 1", fillcolor="#ffffff"] ;
607 -> 608 ;
609 [label="gini = 0.0\nsamples = 1\nvalue = [1, 0]\nclass = 1", fillcolor="#e58139"] ;
608 -> 609 ;
610 [label="gini = 0.0\nsamples = 1\nvalue = [0, 1]\nclass = 0", fillcolor="#399de5"] ;
608 -> 610 ;
611 [label="index <= 0.982\ngini = 0.052\nsamples = 75\nvalue = [2, 73]\nclass = 0", fillcolor="#3ea0e6"] ;
607 -> 611 ;
612 [label="O3 <= 1.391\ngini = 0.027\nsamples = 73\nvalue = [1, 72]\nclass = 0", fillcolor="#3c9ee5"] ;
611 -> 612 ;
613 [label="gini = 0.0\nsamples = 68\nvalue = [0, 68]\nclass = 0", fillcolor="#399de5"] ;
612 -> 613 ;
614 [label="PAHs <= 0.084\ngini = 0.32\nsamples = 5\nvalue = [1, 4]\nclass = 0", fillcolor="#6ab6ec"] ;
612 -> 614 ;
615 [label="gini = 0.0\nsamples = 4\nvalue = [0, 4]\nclass = 0", fillcolor="#399de5"] ;
614 -> 615 ;
616 [label="gini = 0.0\nsamples = 1\nvalue = [1, 0]\nclass = 1", fillcolor="#e58139"] ;
614 -> 616 ;
617 [label="PM10 <= 0.298\ngini = 0.5\nsamples = 2\nvalue = [1, 1]\nclass = 1", fillcolor="#ffffff"] ;
611 -> 617 ;
618 [label="gini = 0.0\nsamples = 1\nvalue = [0, 1]\nclass = 0", fillcolor="#399de5"] ;
617 -> 618 ;
619 [label="gini = 0.0\nsamples = 1\nvalue = [1, 0]\nclass = 1", fillcolor="#e58139"] ;
617 -> 619 ;
620 [label="H2CO <= -1.351\ngini = 0.48\nsamples = 15\nvalue = [9, 6]\nclass = 1", fillcolor="#f6d5bd"] ;
606 -> 620 ;
621 [label="index <= 0.748\ngini = 0.245\nsamples = 7\nvalue = [1, 6]\nclass = 0", fillcolor="#5aade9"] ;
620 -> 621 ;
622 [label="gini = 0.0\nsamples = 6\nvalue = [0, 6]\nclass = 0", fillcolor="#399de5"] ;
621 -> 622 ;
623 [label="gini = 0.0\nsamples = 1\nvalue = [1, 0]\nclass = 1", fillcolor="#e58139"] ;
621 -> 623 ;
624 [label="gini = 0.0\nsamples = 8\nvalue = [8, 0]\nclass = 1", fillcolor="#e58139"] ;
620 -> 624 ;
625 [label="PM10 <= 1.468\ngini = 0.083\nsamples = 23\nvalue = [22, 1]\nclass = 1", fillcolor="#e68742"] ;
605 -> 625 ;
626 [label="gini = 0.0\nsamples = 22\nvalue = [22, 0]\nclass = 1", fillcolor="#e58139"] ;
625 -> 626 ;
627 [label="gini = 0.0\nsamples = 1\nvalue = [0, 1]\nclass = 0", fillcolor="#399de5"] ;
625 -> 627 ;
628 [label="H2CO <= -0.518\ngini = 0.102\nsamples = 909\nvalue = [860, 49]\nclass = 1", fillcolor="#e68844"] ;
604 -> 628 ;
629 [label="index <= 0.451\ngini = 0.425\nsamples = 62\nvalue = [43, 19]\nclass = 1", fillcolor="#f0b990"] ;
628 -> 629 ;
630 [label="gini = 0.0\nsamples = 13\nvalue = [0, 13]\nclass = 0", fillcolor="#399de5"] ;
629 -> 630 ;
631 [label="CH4 <= -0.169\ngini = 0.215\nsamples = 49\nvalue = [43, 6]\nclass = 1", fillcolor="#e99355"] ;
629 -> 631 ;
632 [label="PM10 <= -1.254\ngini = 0.122\nsamples = 46\nvalue = [43, 3]\nclass = 1", fillcolor="#e78a47"] ;
631 -> 632 ;
633 [label="gini = 0.0\nsamples = 1\nvalue = [0, 1]\nclass = 0", fillcolor="#399de5"] ;
632 -> 633 ;
634 [label="PM10 <= 1.651\ngini = 0.085\nsamples = 45\nvalue = [43, 2]\nclass = 1", fillcolor="#e68742"] ;
632 -> 634 ;
635 [label="index <= 0.54\ngini = 0.045\nsamples = 43\nvalue = [42, 1]\nclass = 1", fillcolor="#e6843e"] ;
634 -> 635 ;
636 [label="PM2.5 <= -0.955\ngini = 0.444\nsamples = 3\nvalue = [2, 1]\nclass = 1", fillcolor="#f2c09c"] ;
635 -> 636 ;
637 [label="gini = 0.0\nsamples = 1\nvalue = [0, 1]\nclass = 0", fillcolor="#399de5"] ;
636 -> 637 ;
638 [label="gini = 0.0\nsamples = 2\nvalue = [2, 0]\nclass = 1", fillcolor="#e58139"] ;
636 -> 638 ;
639 [label="gini = 0.0\nsamples = 40\nvalue = [40, 0]\nclass = 1", fillcolor="#e58139"] ;
635 -> 639 ;
640 [label="PAHs <= -0.479\ngini = 0.5\nsamples = 2\nvalue = [1, 1]\nclass = 1", fillcolor="#ffffff"] ;
634 -> 640 ;
641 [label="gini = 0.0\nsamples = 1\nvalue = [0, 1]\nclass = 0", fillcolor="#399de5"] ;
640 -> 641 ;
642 [label="gini = 0.0\nsamples = 1\nvalue = [1, 0]\nclass = 1", fillcolor="#e58139"] ;
640 -> 642 ;
643 [label="gini = 0.0\nsamples = 3\nvalue = [0, 3]\nclass = 0", fillcolor="#399de5"] ;
631 -> 643 ;
644 [label="C2H3NO5 <= 148.5\ngini = 0.068\nsamples = 847\nvalue = [817, 30]\nclass = 1", fillcolor="#e68640"] ;
628 -> 644 ;
645 [label="CH4 <= -0.363\ngini = 0.064\nsamples = 844\nvalue = [816, 28]\nclass = 1", fillcolor="#e68540"] ;
644 -> 645 ;
646 [label="SO2 <= 1.752\ngini = 0.041\nsamples = 710\nvalue = [695, 15]\nclass = 1", fillcolor="#e6843d"] ;
645 -> 646 ;
647 [label="PAHs <= -1.178\ngini = 0.037\nsamples = 693\nvalue = [680, 13]\nclass = 1", fillcolor="#e5833d"] ;
646 -> 647 ;
648 [label="Pb <= 0.129\ngini = 0.092\nsamples = 103\nvalue = [98, 5]\nclass = 1", fillcolor="#e68743"] ;
647 -> 648 ;
649 [label="H2CO <= -0.418\ngini = 0.075\nsamples = 102\nvalue = [98, 4]\nclass = 1", fillcolor="#e68641"] ;
648 -> 649 ;
650 [label="PM10 <= -0.941\ngini = 0.5\nsamples = 4\nvalue = [2, 2]\nclass = 1", fillcolor="#ffffff"] ;
649 -> 650 ;
651 [label="gini = 0.0\nsamples = 2\nvalue = [0, 2]\nclass = 0", fillcolor="#399de5"] ;
650 -> 651 ;
652 [label="gini = 0.0\nsamples = 2\nvalue = [2, 0]\nclass = 1", fillcolor="#e58139"] ;
650 -> 652 ;
653 [label="index <= 0.202\ngini = 0.04\nsamples = 98\nvalue = [96, 2]\nclass = 1", fillcolor="#e6843d"] ;
649 -> 653 ;
654 [label="CFCs <= 1.251\ngini = 0.375\nsamples = 4\nvalue = [3, 1]\nclass = 1", fillcolor="#eeab7b"] ;
653 -> 654 ;
655 [label="gini = 0.0\nsamples = 3\nvalue = [3, 0]\nclass = 1", fillcolor="#e58139"] ;
654 -> 655 ;
656 [label="gini = 0.0\nsamples = 1\nvalue = [0, 1]\nclass = 0", fillcolor="#399de5"] ;
654 -> 656 ;
657 [label="NOx <= 1.353\ngini = 0.021\nsamples = 94\nvalue = [93, 1]\nclass = 1", fillcolor="#e5823b"] ;
653 -> 657 ;
658 [label="gini = 0.0\nsamples = 86\nvalue = [86, 0]\nclass = 1", fillcolor="#e58139"] ;
657 -> 658 ;
659 [label="NOx <= 1.502\ngini = 0.219\nsamples = 8\nvalue = [7, 1]\nclass = 1", fillcolor="#e99355"] ;
657 -> 659 ;
660 [label="gini = 0.0\nsamples = 1\nvalue = [0, 1]\nclass = 0", fillcolor="#399de5"] ;
659 -> 660 ;
661 [label="gini = 0.0\nsamples = 7\nvalue = [7, 0]\nclass = 1", fillcolor="#e58139"] ;
659 -> 661 ;
662 [label="gini = 0.0\nsamples = 1\nvalue = [0, 1]\nclass = 0", fillcolor="#399de5"] ;
648 -> 662 ;
663 [label="PM2.5 <= -1.06\ngini = 0.027\nsamples = 590\nvalue = [582, 8]\nclass = 1", fillcolor="#e5833c"] ;
647 -> 663 ;
664 [label="PM2.5 <= -1.061\ngini = 0.06\nsamples = 227\nvalue = [220, 7]\nclass = 1", fillcolor="#e6853f"] ;
663 -> 664 ;
665 [label="PM2.5 <= -1.076\ngini = 0.052\nsamples = 226\nvalue = [220, 6]\nclass = 1", fillcolor="#e6843e"] ;
664 -> 665 ;
666 [label="NH3 <= 0.837\ngini = 0.044\nsamples = 223\nvalue = [218, 5]\nclass = 1", fillcolor="#e6843e"] ;
665 -> 666 ;
667 [label="SO2 <= 0.163\ngini = 0.011\nsamples = 183\nvalue = [182, 1]\nclass = 1", fillcolor="#e5823a"] ;
666 -> 667 ;
668 [label="SO2 <= 0.145\ngini = 0.095\nsamples = 20\nvalue = [19, 1]\nclass = 1", fillcolor="#e68843"] ;
667 -> 668 ;
669 [label="gini = 0.0\nsamples = 19\nvalue = [19, 0]\nclass = 1", fillcolor="#e58139"] ;
668 -> 669 ;
670 [label="gini = 0.0\nsamples = 1\nvalue = [0, 1]\nclass = 0", fillcolor="#399de5"] ;
668 -> 670 ;
671 [label="gini = 0.0\nsamples = 163\nvalue = [163, 0]\nclass = 1", fillcolor="#e58139"] ;
667 -> 671 ;
672 [label="NH3 <= 0.867\ngini = 0.18\nsamples = 40\nvalue = [36, 4]\nclass = 1", fillcolor="#e88f4f"] ;
666 -> 672 ;
673 [label="gini = 0.0\nsamples = 1\nvalue = [0, 1]\nclass = 0", fillcolor="#399de5"] ;
672 -> 673 ;
674 [label="PM10 <= -0.035\ngini = 0.142\nsamples = 39\nvalue = [36, 3]\nclass = 1", fillcolor="#e78c49"] ;
672 -> 674 ;
675 [label="PRES <= -0.245\ngini = 0.355\nsamples = 13\nvalue = [10, 3]\nclass = 1", fillcolor="#eda774"] ;
674 -> 675 ;
676 [label="TEMP <= 0.275\ngini = 0.375\nsamples = 4\nvalue = [1, 3]\nclass = 0", fillcolor="#7bbeee"] ;
675 -> 676 ;
677 [label="gini = 0.0\nsamples = 3\nvalue = [0, 3]\nclass = 0", fillcolor="#399de5"] ;
676 -> 677 ;
678 [label="gini = 0.0\nsamples = 1\nvalue = [1, 0]\nclass = 1", fillcolor="#e58139"] ;
676 -> 678 ;
679 [label="gini = 0.0\nsamples = 9\nvalue = [9, 0]\nclass = 1", fillcolor="#e58139"] ;
675 -> 679 ;
680 [label="gini = 0.0\nsamples = 26\nvalue = [26, 0]\nclass = 1", fillcolor="#e58139"] ;
674 -> 680 ;
681 [label="O3 <= 0.488\ngini = 0.444\nsamples = 3\nvalue = [2, 1]\nclass = 1", fillcolor="#f2c09c"] ;
665 -> 681 ;
682 [label="gini = 0.0\nsamples = 1\nvalue = [0, 1]\nclass = 0", fillcolor="#399de5"] ;
681 -> 682 ;
683 [label="gini = 0.0\nsamples = 2\nvalue = [2, 0]\nclass = 1", fillcolor="#e58139"] ;
681 -> 683 ;
684 [label="gini = 0.0\nsamples = 1\nvalue = [0, 1]\nclass = 0", fillcolor="#399de5"] ;
664 -> 684 ;
685 [label="location <= -1.76\ngini = 0.005\nsamples = 363\nvalue = [362, 1]\nclass = 1", fillcolor="#e5813a"] ;
663 -> 685 ;
686 [label="location <= -1.764\ngini = 0.095\nsamples = 20\nvalue = [19, 1]\nclass = 1", fillcolor="#e68843"] ;
685 -> 686 ;
687 [label="gini = 0.0\nsamples = 19\nvalue = [19, 0]\nclass = 1", fillcolor="#e58139"] ;
686 -> 687 ;
688 [label="gini = 0.0\nsamples = 1\nvalue = [0, 1]\nclass = 0", fillcolor="#399de5"] ;
686 -> 688 ;
689 [label="gini = 0.0\nsamples = 343\nvalue = [343, 0]\nclass = 1", fillcolor="#e58139"] ;
685 -> 689 ;
690 [label="NH3 <= 1.606\ngini = 0.208\nsamples = 17\nvalue = [15, 2]\nclass = 1", fillcolor="#e89253"] ;
646 -> 690 ;
691 [label="Pb <= -0.808\ngini = 0.117\nsamples = 16\nvalue = [15, 1]\nclass = 1", fillcolor="#e78946"] ;
690 -> 691 ;
692 [label="gini = 0.0\nsamples = 15\nvalue = [15, 0]\nclass = 1", fillcolor="#e58139"] ;
691 -> 692 ;
693 [label="gini = 0.0\nsamples = 1\nvalue = [0, 1]\nclass = 0", fillcolor="#399de5"] ;
691 -> 693 ;
694 [label="gini = 0.0\nsamples = 1\nvalue = [0, 1]\nclass = 0", fillcolor="#399de5"] ;
690 -> 694 ;
695 [label="H2CO <= 0.068\ngini = 0.175\nsamples = 134\nvalue = [121, 13]\nclass = 1", fillcolor="#e88f4e"] ;
645 -> 695 ;
696 [label="index <= 0.653\ngini = 0.49\nsamples = 21\nvalue = [12, 9]\nclass = 1", fillcolor="#f8e0ce"] ;
695 -> 696 ;
697 [label="O3 <= -1.627\ngini = 0.18\nsamples = 10\nvalue = [1, 9]\nclass = 0", fillcolor="#4fa8e8"] ;
696 -> 697 ;
698 [label="gini = 0.0\nsamples = 1\nvalue = [1, 0]\nclass = 1", fillcolor="#e58139"] ;
697 -> 698 ;
699 [label="gini = 0.0\nsamples = 9\nvalue = [0, 9]\nclass = 0", fillcolor="#399de5"] ;
697 -> 699 ;
700 [label="gini = 0.0\nsamples = 11\nvalue = [11, 0]\nclass = 1", fillcolor="#e58139"] ;
696 -> 700 ;
701 [label="location <= 1.596\ngini = 0.068\nsamples = 113\nvalue = [109, 4]\nclass = 1", fillcolor="#e68640"] ;
695 -> 701 ;
702 [label="TEMP <= 1.141\ngini = 0.036\nsamples = 108\nvalue = [106, 2]\nclass = 1", fillcolor="#e5833d"] ;
701 -> 702 ;
703 [label="gini = 0.0\nsamples = 96\nvalue = [96, 0]\nclass = 1", fillcolor="#e58139"] ;
702 -> 703 ;
704 [label="H2CO <= 0.832\ngini = 0.278\nsamples = 12\nvalue = [10, 2]\nclass = 1", fillcolor="#ea9a61"] ;
702 -> 704 ;
705 [label="SO2 <= 0.808\ngini = 0.444\nsamples = 3\nvalue = [1, 2]\nclass = 0", fillcolor="#9ccef2"] ;
704 -> 705 ;
706 [label="gini = 0.0\nsamples = 2\nvalue = [0, 2]\nclass = 0", fillcolor="#399de5"] ;
705 -> 706 ;
707 [label="gini = 0.0\nsamples = 1\nvalue = [1, 0]\nclass = 1", fillcolor="#e58139"] ;
705 -> 707 ;
708 [label="gini = 0.0\nsamples = 9\nvalue = [9, 0]\nclass = 1", fillcolor="#e58139"] ;
704 -> 708 ;
709 [label="PM10 <= 0.076\ngini = 0.48\nsamples = 5\nvalue = [3, 2]\nclass = 1", fillcolor="#f6d5bd"] ;
701 -> 709 ;
710 [label="gini = 0.0\nsamples = 3\nvalue = [3, 0]\nclass = 1", fillcolor="#e58139"] ;
709 -> 710 ;
711 [label="gini = 0.0\nsamples = 2\nvalue = [0, 2]\nclass = 0", fillcolor="#399de5"] ;
709 -> 711 ;
712 [label="TEMP <= -0.664\ngini = 0.444\nsamples = 3\nvalue = [1, 2]\nclass = 0", fillcolor="#9ccef2"] ;
644 -> 712 ;
713 [label="gini = 0.0\nsamples = 1\nvalue = [1, 0]\nclass = 1", fillcolor="#e58139"] ;
712 -> 713 ;
714 [label="gini = 0.0\nsamples = 2\nvalue = [0, 2]\nclass = 0", fillcolor="#399de5"] ;
712 -> 714 ;
715 [label="CFCs <= 0.819\ngini = 0.469\nsamples = 319\nvalue = [120, 199]\nclass = 0", fillcolor="#b0d8f5"] ;
603 -> 715 ;
716 [label="PM2.5 <= -0.579\ngini = 0.341\nsamples = 229\nvalue = [50, 179]\nclass = 0", fillcolor="#70b8ec"] ;
715 -> 716 ;
717 [label="NOx <= -0.843\ngini = 0.332\nsamples = 19\nvalue = [15, 4]\nclass = 1", fillcolor="#eca36e"] ;
716 -> 717 ;
718 [label="H2CO <= 0.399\ngini = 0.444\nsamples = 6\nvalue = [2, 4]\nclass = 0", fillcolor="#9ccef2"] ;
717 -> 718 ;
719 [label="gini = 0.0\nsamples = 4\nvalue = [0, 4]\nclass = 0", fillcolor="#399de5"] ;
718 -> 719 ;
720 [label="gini = 0.0\nsamples = 2\nvalue = [2, 0]\nclass = 1", fillcolor="#e58139"] ;
718 -> 720 ;
721 [label="gini = 0.0\nsamples = 13\nvalue = [13, 0]\nclass = 1", fillcolor="#e58139"] ;
717 -> 721 ;
722 [label="H2CO <= 1.292\ngini = 0.278\nsamples = 210\nvalue = [35, 175]\nclass = 0", fillcolor="#61b1ea"] ;
716 -> 722 ;
723 [label="CFCs <= -1.363\ngini = 0.198\nsamples = 179\nvalue = [20, 159]\nclass = 0", fillcolor="#52a9e8"] ;
722 -> 723 ;
724 [label="PM2.5 <= 0.407\ngini = 0.375\nsamples = 4\nvalue = [3, 1]\nclass = 1", fillcolor="#eeab7b"] ;
723 -> 724 ;
725 [label="gini = 0.0\nsamples = 3\nvalue = [3, 0]\nclass = 1", fillcolor="#e58139"] ;
724 -> 725 ;
726 [label="gini = 0.0\nsamples = 1\nvalue = [0, 1]\nclass = 0", fillcolor="#399de5"] ;
724 -> 726 ;
727 [label="H2CO <= 0.329\ngini = 0.175\nsamples = 175\nvalue = [17, 158]\nclass = 0", fillcolor="#4ea8e8"] ;
723 -> 727 ;
728 [label="gini = 0.0\nsamples = 96\nvalue = [0, 96]\nclass = 0", fillcolor="#399de5"] ;
727 -> 728 ;
729 [label="CH4 <= 0.786\ngini = 0.338\nsamples = 79\nvalue = [17, 62]\nclass = 0", fillcolor="#6fb8ec"] ;
727 -> 729 ;
730 [label="PM2.5 <= -0.24\ngini = 0.476\nsamples = 23\nvalue = [14, 9]\nclass = 1", fillcolor="#f6d2b8"] ;
729 -> 730 ;
731 [label="location <= -1.643\ngini = 0.278\nsamples = 6\nvalue = [1, 5]\nclass = 0", fillcolor="#61b1ea"] ;
730 -> 731 ;
732 [label="gini = 0.0\nsamples = 1\nvalue = [1, 0]\nclass = 1", fillcolor="#e58139"] ;
731 -> 732 ;
733 [label="gini = 0.0\nsamples = 5\nvalue = [0, 5]\nclass = 0", fillcolor="#399de5"] ;
731 -> 733 ;
734 [label="NH3 <= -0.344\ngini = 0.36\nsamples = 17\nvalue = [13, 4]\nclass = 1", fillcolor="#eda876"] ;
730 -> 734 ;
735 [label="TEMP <= 0.381\ngini = 0.48\nsamples = 5\nvalue = [2, 3]\nclass = 0", fillcolor="#bddef6"] ;
734 -> 735 ;
736 [label="gini = 0.0\nsamples = 3\nvalue = [0, 3]\nclass = 0", fillcolor="#399de5"] ;
735 -> 736 ;
737 [label="gini = 0.0\nsamples = 2\nvalue = [2, 0]\nclass = 1", fillcolor="#e58139"] ;
735 -> 737 ;
738 [label="location <= 1.188\ngini = 0.153\nsamples = 12\nvalue = [11, 1]\nclass = 1", fillcolor="#e78c4b"] ;
734 -> 738 ;
739 [label="gini = 0.0\nsamples = 11\nvalue = [11, 0]\nclass = 1", fillcolor="#e58139"] ;
738 -> 739 ;
740 [label="gini = 0.0\nsamples = 1\nvalue = [0, 1]\nclass = 0", fillcolor="#399de5"] ;
738 -> 740 ;
741 [label="PAHs <= -1.662\ngini = 0.101\nsamples = 56\nvalue = [3, 53]\nclass = 0", fillcolor="#44a3e6"] ;
729 -> 741 ;
742 [label="gini = 0.0\nsamples = 1\nvalue = [1, 0]\nclass = 1", fillcolor="#e58139"] ;
741 -> 742 ;
743 [label="Pb <= 0.334\ngini = 0.07\nsamples = 55\nvalue = [2, 53]\nclass = 0", fillcolor="#40a1e6"] ;
741 -> 743 ;
744 [label="NOx <= -1.435\ngini = 0.038\nsamples = 52\nvalue = [1, 51]\nclass = 0", fillcolor="#3d9fe6"] ;
743 -> 744 ;
745 [label="TEMP <= -0.328\ngini = 0.444\nsamples = 3\nvalue = [1, 2]\nclass = 0", fillcolor="#9ccef2"] ;
744 -> 745 ;
746 [label="gini = 0.0\nsamples = 1\nvalue = [1, 0]\nclass = 1", fillcolor="#e58139"] ;
745 -> 746 ;
747 [label="gini = 0.0\nsamples = 2\nvalue = [0, 2]\nclass = 0", fillcolor="#399de5"] ;
745 -> 747 ;
748 [label="gini = 0.0\nsamples = 49\nvalue = [0, 49]\nclass = 0", fillcolor="#399de5"] ;
744 -> 748 ;
749 [label="TEMP <= -0.225\ngini = 0.444\nsamples = 3\nvalue = [1, 2]\nclass = 0", fillcolor="#9ccef2"] ;
743 -> 749 ;
750 [label="gini = 0.0\nsamples = 1\nvalue = [1, 0]\nclass = 1", fillcolor="#e58139"] ;
749 -> 750 ;
751 [label="gini = 0.0\nsamples = 2\nvalue = [0, 2]\nclass = 0", fillcolor="#399de5"] ;
749 -> 751 ;
752 [label="CFCs <= -0.418\ngini = 0.499\nsamples = 31\nvalue = [15, 16]\nclass = 0", fillcolor="#f3f9fd"] ;
722 -> 752 ;
753 [label="PAHs <= 1.115\ngini = 0.124\nsamples = 15\nvalue = [1, 14]\nclass = 0", fillcolor="#47a4e7"] ;
752 -> 753 ;
754 [label="gini = 0.0\nsamples = 14\nvalue = [0, 14]\nclass = 0", fillcolor="#399de5"] ;
753 -> 754 ;
755 [label="gini = 0.0\nsamples = 1\nvalue = [1, 0]\nclass = 1", fillcolor="#e58139"] ;
753 -> 755 ;
756 [label="CH4 <= 1.53\ngini = 0.219\nsamples = 16\nvalue = [14, 2]\nclass = 1", fillcolor="#e99355"] ;
752 -> 756 ;
757 [label="C2H3NO5 <= 80.0\ngini = 0.124\nsamples = 15\nvalue = [14, 1]\nclass = 1", fillcolor="#e78a47"] ;
756 -> 757 ;
758 [label="gini = 0.0\nsamples = 14\nvalue = [14, 0]\nclass = 1", fillcolor="#e58139"] ;
757 -> 758 ;
759 [label="gini = 0.0\nsamples = 1\nvalue = [0, 1]\nclass = 0", fillcolor="#399de5"] ;
757 -> 759 ;
760 [label="gini = 0.0\nsamples = 1\nvalue = [0, 1]\nclass = 0", fillcolor="#399de5"] ;
756 -> 760 ;
761 [label="H2CO <= 0.622\ngini = 0.346\nsamples = 90\nvalue = [70, 20]\nclass = 1", fillcolor="#eca572"] ;
715 -> 761 ;
762 [label="index <= 0.985\ngini = 0.208\nsamples = 17\nvalue = [2, 15]\nclass = 0", fillcolor="#53aae8"] ;
761 -> 762 ;
763 [label="gini = 0.0\nsamples = 14\nvalue = [0, 14]\nclass = 0", fillcolor="#399de5"] ;
762 -> 763 ;
764 [label="O3 <= -0.351\ngini = 0.444\nsamples = 3\nvalue = [2, 1]\nclass = 1", fillcolor="#f2c09c"] ;
762 -> 764 ;
765 [label="gini = 0.0\nsamples = 2\nvalue = [2, 0]\nclass = 1", fillcolor="#e58139"] ;
764 -> 765 ;
766 [label="gini = 0.0\nsamples = 1\nvalue = [0, 1]\nclass = 0", fillcolor="#399de5"] ;
764 -> 766 ;
767 [label="CH4 <= 1.465\ngini = 0.128\nsamples = 73\nvalue = [68, 5]\nclass = 1", fillcolor="#e78a48"] ;
761 -> 767 ;
768 [label="PM10 <= -1.628\ngini = 0.056\nsamples = 70\nvalue = [68, 2]\nclass = 1", fillcolor="#e6853f"] ;
767 -> 768 ;
769 [label="TEMP <= 1.014\ngini = 0.444\nsamples = 6\nvalue = [4, 2]\nclass = 1", fillcolor="#f2c09c"] ;
768 -> 769 ;
770 [label="gini = 0.0\nsamples = 4\nvalue = [4, 0]\nclass = 1", fillcolor="#e58139"] ;
769 -> 770 ;
771 [label="gini = 0.0\nsamples = 2\nvalue = [0, 2]\nclass = 0", fillcolor="#399de5"] ;
769 -> 771 ;
772 [label="gini = 0.0\nsamples = 64\nvalue = [64, 0]\nclass = 1", fillcolor="#e58139"] ;
768 -> 772 ;
773 [label="gini = 0.0\nsamples = 3\nvalue = [0, 3]\nclass = 0", fillcolor="#399de5"] ;
767 -> 773 ;
774 [label="index <= -1.419\ngini = 0.224\nsamples = 2082\nvalue = [267, 1815]\nclass = 0", fillcolor="#56abe9"] ;
310 -> 774 ;
775 [label="CH4 <= 0.504\ngini = 0.264\nsamples = 64\nvalue = [54, 10]\nclass = 1", fillcolor="#ea985e"] ;
774 -> 775 ;
776 [label="NOx <= 1.223\ngini = 0.355\nsamples = 13\nvalue = [3, 10]\nclass = 0", fillcolor="#74baed"] ;
775 -> 776 ;
777 [label="gini = 0.0\nsamples = 10\nvalue = [0, 10]\nclass = 0", fillcolor="#399de5"] ;
776 -> 777 ;
778 [label="gini = 0.0\nsamples = 3\nvalue = [3, 0]\nclass = 1", fillcolor="#e58139"] ;
776 -> 778 ;
779 [label="gini = 0.0\nsamples = 51\nvalue = [51, 0]\nclass = 1", fillcolor="#e58139"] ;
775 -> 779 ;
780 [label="SO2 <= -0.029\ngini = 0.189\nsamples = 2018\nvalue = [213, 1805]\nclass = 0", fillcolor="#50a9e8"] ;
774 -> 780 ;
781 [label="CFCs <= 0.003\ngini = 0.383\nsamples = 484\nvalue = [125, 359]\nclass = 0", fillcolor="#7ebfee"] ;
780 -> 781 ;
782 [label="index <= 0.601\ngini = 0.251\nsamples = 340\nvalue = [50, 290]\nclass = 0", fillcolor="#5baee9"] ;
781 -> 782 ;
783 [label="CH4 <= 1.466\ngini = 0.399\nsamples = 127\nvalue = [35, 92]\nclass = 0", fillcolor="#84c2ef"] ;
782 -> 783 ;
784 [label="PM2.5 <= 1.693\ngini = 0.344\nsamples = 118\nvalue = [26, 92]\nclass = 0", fillcolor="#71b9ec"] ;
783 -> 784 ;
785 [label="PM2.5 <= 0.952\ngini = 0.293\nsamples = 112\nvalue = [20, 92]\nclass = 0", fillcolor="#64b2eb"] ;
784 -> 785 ;
786 [label="index <= -0.993\ngini = 0.151\nsamples = 73\nvalue = [6, 67]\nclass = 0", fillcolor="#4ba6e7"] ;
785 -> 786 ;
787 [label="gini = 0.0\nsamples = 1\nvalue = [1, 0]\nclass = 1", fillcolor="#e58139"] ;
786 -> 787 ;
788 [label="C2H3NO5 <= 3.5\ngini = 0.129\nsamples = 72\nvalue = [5, 67]\nclass = 0", fillcolor="#48a4e7"] ;
786 -> 788 ;
789 [label="PM10 <= -0.01\ngini = 0.48\nsamples = 5\nvalue = [2, 3]\nclass = 0", fillcolor="#bddef6"] ;
788 -> 789 ;
790 [label="gini = 0.0\nsamples = 3\nvalue = [0, 3]\nclass = 0", fillcolor="#399de5"] ;
789 -> 790 ;
791 [label="gini = 0.0\nsamples = 2\nvalue = [2, 0]\nclass = 1", fillcolor="#e58139"] ;
789 -> 791 ;
792 [label="H2CO <= 1.215\ngini = 0.086\nsamples = 67\nvalue = [3, 64]\nclass = 0", fillcolor="#42a2e6"] ;
788 -> 792 ;
793 [label="gini = 0.0\nsamples = 49\nvalue = [0, 49]\nclass = 0", fillcolor="#399de5"] ;
792 -> 793 ;
794 [label="CFCs <= -0.647\ngini = 0.278\nsamples = 18\nvalue = [3, 15]\nclass = 0", fillcolor="#61b1ea"] ;
792 -> 794 ;
795 [label="gini = 0.0\nsamples = 13\nvalue = [0, 13]\nclass = 0", fillcolor="#399de5"] ;
794 -> 795 ;
796 [label="Pb <= 0.509\ngini = 0.48\nsamples = 5\nvalue = [3, 2]\nclass = 1", fillcolor="#f6d5bd"] ;
794 -> 796 ;
797 [label="gini = 0.0\nsamples = 2\nvalue = [0, 2]\nclass = 0", fillcolor="#399de5"] ;
796 -> 797 ;
798 [label="gini = 0.0\nsamples = 3\nvalue = [3, 0]\nclass = 1", fillcolor="#e58139"] ;
796 -> 798 ;
799 [label="TEMP <= -0.394\ngini = 0.46\nsamples = 39\nvalue = [14, 25]\nclass = 0", fillcolor="#a8d4f4"] ;
785 -> 799 ;
800 [label="NOx <= 0.488\ngini = 0.444\nsamples = 15\nvalue = [10, 5]\nclass = 1", fillcolor="#f2c09c"] ;
799 -> 800 ;
801 [label="PAHs <= 0.059\ngini = 0.469\nsamples = 8\nvalue = [3, 5]\nclass = 0", fillcolor="#b0d8f5"] ;
800 -> 801 ;
802 [label="gini = 0.0\nsamples = 3\nvalue = [3, 0]\nclass = 1", fillcolor="#e58139"] ;
801 -> 802 ;
803 [label="gini = 0.0\nsamples = 5\nvalue = [0, 5]\nclass = 0", fillcolor="#399de5"] ;
801 -> 803 ;
804 [label="gini = 0.0\nsamples = 7\nvalue = [7, 0]\nclass = 1", fillcolor="#e58139"] ;
800 -> 804 ;
805 [label="TEMP <= 1.258\ngini = 0.278\nsamples = 24\nvalue = [4, 20]\nclass = 0", fillcolor="#61b1ea"] ;
799 -> 805 ;
806 [label="CH4 <= 0.471\ngini = 0.1\nsamples = 19\nvalue = [1, 18]\nclass = 0", fillcolor="#44a2e6"] ;
805 -> 806 ;
807 [label="gini = 0.0\nsamples = 17\nvalue = [0, 17]\nclass = 0", fillcolor="#399de5"] ;
806 -> 807 ;
808 [label="index <= 0.326\ngini = 0.5\nsamples = 2\nvalue = [1, 1]\nclass = 1", fillcolor="#ffffff"] ;
806 -> 808 ;
809 [label="gini = 0.0\nsamples = 1\nvalue = [0, 1]\nclass = 0", fillcolor="#399de5"] ;
808 -> 809 ;
810 [label="gini = 0.0\nsamples = 1\nvalue = [1, 0]\nclass = 1", fillcolor="#e58139"] ;
808 -> 810 ;
811 [label="PRES <= 0.242\ngini = 0.48\nsamples = 5\nvalue = [3, 2]\nclass = 1", fillcolor="#f6d5bd"] ;
805 -> 811 ;
812 [label="gini = 0.0\nsamples = 2\nvalue = [0, 2]\nclass = 0", fillcolor="#399de5"] ;
811 -> 812 ;
813 [label="gini = 0.0\nsamples = 3\nvalue = [3, 0]\nclass = 1", fillcolor="#e58139"] ;
811 -> 813 ;
814 [label="gini = 0.0\nsamples = 6\nvalue = [6, 0]\nclass = 1", fillcolor="#e58139"] ;
784 -> 814 ;
815 [label="gini = 0.0\nsamples = 9\nvalue = [9, 0]\nclass = 1", fillcolor="#e58139"] ;
783 -> 815 ;
816 [label="CH4 <= -0.768\ngini = 0.131\nsamples = 213\nvalue = [15, 198]\nclass = 0", fillcolor="#48a4e7"] ;
782 -> 816 ;
817 [label="H2CO <= 0.729\ngini = 0.497\nsamples = 13\nvalue = [7, 6]\nclass = 1", fillcolor="#fbede3"] ;
816 -> 817 ;
818 [label="gini = 0.0\nsamples = 7\nvalue = [7, 0]\nclass = 1", fillcolor="#e58139"] ;
817 -> 818 ;
819 [label="gini = 0.0\nsamples = 6\nvalue = [0, 6]\nclass = 0", fillcolor="#399de5"] ;
817 -> 819 ;
820 [label="H2CO <= -0.375\ngini = 0.077\nsamples = 200\nvalue = [8, 192]\nclass = 0", fillcolor="#41a1e6"] ;
816 -> 820 ;
821 [label="C2H3NO5 <= 40.5\ngini = 0.5\nsamples = 2\nvalue = [1, 1]\nclass = 1", fillcolor="#ffffff"] ;
820 -> 821 ;
822 [label="gini = 0.0\nsamples = 1\nvalue = [1, 0]\nclass = 1", fillcolor="#e58139"] ;
821 -> 822 ;
823 [label="gini = 0.0\nsamples = 1\nvalue = [0, 1]\nclass = 0", fillcolor="#399de5"] ;
821 -> 823 ;
824 [label="index <= 0.871\ngini = 0.068\nsamples = 198\nvalue = [7, 191]\nclass = 0", fillcolor="#40a1e6"] ;
820 -> 824 ;
825 [label="H2CO <= 0.082\ngini = 0.225\nsamples = 31\nvalue = [4, 27]\nclass = 0", fillcolor="#56ace9"] ;
824 -> 825 ;
826 [label="gini = 0.0\nsamples = 2\nvalue = [2, 0]\nclass = 1", fillcolor="#e58139"] ;
825 -> 826 ;
827 [label="index <= 0.859\ngini = 0.128\nsamples = 29\nvalue = [2, 27]\nclass = 0", fillcolor="#48a4e7"] ;
825 -> 827 ;
828 [label="location <= -0.839\ngini = 0.069\nsamples = 28\nvalue = [1, 27]\nclass = 0", fillcolor="#40a1e6"] ;
827 -> 828 ;
829 [label="Pb <= 1.352\ngini = 0.5\nsamples = 2\nvalue = [1, 1]\nclass = 1", fillcolor="#ffffff"] ;
828 -> 829 ;
830 [label="gini = 0.0\nsamples = 1\nvalue = [0, 1]\nclass = 0", fillcolor="#399de5"] ;
829 -> 830 ;
831 [label="gini = 0.0\nsamples = 1\nvalue = [1, 0]\nclass = 1", fillcolor="#e58139"] ;
829 -> 831 ;
832 [label="gini = 0.0\nsamples = 26\nvalue = [0, 26]\nclass = 0", fillcolor="#399de5"] ;
828 -> 832 ;
833 [label="gini = 0.0\nsamples = 1\nvalue = [1, 0]\nclass = 1", fillcolor="#e58139"] ;
827 -> 833 ;
834 [label="CH4 <= 1.524\ngini = 0.035\nsamples = 167\nvalue = [3, 164]\nclass = 0", fillcolor="#3d9fe5"] ;
824 -> 834 ;
835 [label="gini = 0.0\nsamples = 147\nvalue = [0, 147]\nclass = 0", fillcolor="#399de5"] ;
834 -> 835 ;
836 [label="CO <= 0.696\ngini = 0.255\nsamples = 20\nvalue = [3, 17]\nclass = 0", fillcolor="#5caeea"] ;
834 -> 836 ;
837 [label="gini = 0.0\nsamples = 14\nvalue = [0, 14]\nclass = 0", fillcolor="#399de5"] ;
836 -> 837 ;
838 [label="Pb <= 1.284\ngini = 0.5\nsamples = 6\nvalue = [3, 3]\nclass = 1", fillcolor="#ffffff"] ;
836 -> 838 ;
839 [label="location <= -0.528\ngini = 0.375\nsamples = 4\nvalue = [3, 1]\nclass = 1", fillcolor="#eeab7b"] ;
838 -> 839 ;
840 [label="gini = 0.0\nsamples = 1\nvalue = [0, 1]\nclass = 0", fillcolor="#399de5"] ;
839 -> 840 ;
841 [label="gini = 0.0\nsamples = 3\nvalue = [3, 0]\nclass = 1", fillcolor="#e58139"] ;
839 -> 841 ;
842 [label="gini = 0.0\nsamples = 2\nvalue = [0, 2]\nclass = 0", fillcolor="#399de5"] ;
838 -> 842 ;
843 [label="CH4 <= 0.373\ngini = 0.499\nsamples = 144\nvalue = [75, 69]\nclass = 1", fillcolor="#fdf5ef"] ;
781 -> 843 ;
844 [label="index <= -0.311\ngini = 0.211\nsamples = 75\nvalue = [66, 9]\nclass = 1", fillcolor="#e99254"] ;
843 -> 844 ;
845 [label="SO2 <= -0.49\ngini = 0.375\nsamples = 4\nvalue = [1, 3]\nclass = 0", fillcolor="#7bbeee"] ;
844 -> 845 ;
846 [label="gini = 0.0\nsamples = 1\nvalue = [1, 0]\nclass = 1", fillcolor="#e58139"] ;
845 -> 846 ;
847 [label="gini = 0.0\nsamples = 3\nvalue = [0, 3]\nclass = 0", fillcolor="#399de5"] ;
845 -> 847 ;
848 [label="Pb <= 1.749\ngini = 0.155\nsamples = 71\nvalue = [65, 6]\nclass = 1", fillcolor="#e78d4b"] ;
844 -> 848 ;
849 [label="location <= 1.086\ngini = 0.109\nsamples = 69\nvalue = [65, 4]\nclass = 1", fillcolor="#e78945"] ;
848 -> 849 ;
850 [label="PM10 <= 1.606\ngini = 0.061\nsamples = 64\nvalue = [62, 2]\nclass = 1", fillcolor="#e6853f"] ;
849 -> 850 ;
851 [label="gini = 0.0\nsamples = 60\nvalue = [60, 0]\nclass = 1", fillcolor="#e58139"] ;
850 -> 851 ;
852 [label="Pb <= 1.331\ngini = 0.5\nsamples = 4\nvalue = [2, 2]\nclass = 1", fillcolor="#ffffff"] ;
850 -> 852 ;
853 [label="gini = 0.0\nsamples = 2\nvalue = [2, 0]\nclass = 1", fillcolor="#e58139"] ;
852 -> 853 ;
854 [label="gini = 0.0\nsamples = 2\nvalue = [0, 2]\nclass = 0", fillcolor="#399de5"] ;
852 -> 854 ;
855 [label="PM10 <= 0.217\ngini = 0.48\nsamples = 5\nvalue = [3, 2]\nclass = 1", fillcolor="#f6d5bd"] ;
849 -> 855 ;
856 [label="gini = 0.0\nsamples = 2\nvalue = [0, 2]\nclass = 0", fillcolor="#399de5"] ;
855 -> 856 ;
857 [label="gini = 0.0\nsamples = 3\nvalue = [3, 0]\nclass = 1", fillcolor="#e58139"] ;
855 -> 857 ;
858 [label="gini = 0.0\nsamples = 2\nvalue = [0, 2]\nclass = 0", fillcolor="#399de5"] ;
848 -> 858 ;
859 [label="H2CO <= 0.849\ngini = 0.227\nsamples = 69\nvalue = [9, 60]\nclass = 0", fillcolor="#57ace9"] ;
843 -> 859 ;
860 [label="index <= 0.732\ngini = 0.119\nsamples = 63\nvalue = [4, 59]\nclass = 0", fillcolor="#46a4e7"] ;
859 -> 860 ;
861 [label="index <= 0.633\ngini = 0.269\nsamples = 25\nvalue = [4, 21]\nclass = 0", fillcolor="#5fb0ea"] ;
860 -> 861 ;
862 [label="CH4 <= 0.568\ngini = 0.159\nsamples = 23\nvalue = [2, 21]\nclass = 0", fillcolor="#4ca6e7"] ;
861 -> 862 ;
863 [label="location <= -0.269\ngini = 0.48\nsamples = 5\nvalue = [2, 3]\nclass = 0", fillcolor="#bddef6"] ;
862 -> 863 ;
864 [label="gini = 0.0\nsamples = 2\nvalue = [2, 0]\nclass = 1", fillcolor="#e58139"] ;
863 -> 864 ;
865 [label="gini = 0.0\nsamples = 3\nvalue = [0, 3]\nclass = 0", fillcolor="#399de5"] ;
863 -> 865 ;
866 [label="gini = 0.0\nsamples = 18\nvalue = [0, 18]\nclass = 0", fillcolor="#399de5"] ;
862 -> 866 ;
867 [label="gini = 0.0\nsamples = 2\nvalue = [2, 0]\nclass = 1", fillcolor="#e58139"] ;
861 -> 867 ;
868 [label="gini = 0.0\nsamples = 38\nvalue = [0, 38]\nclass = 0", fillcolor="#399de5"] ;
860 -> 868 ;
869 [label="C2H3NO5 <= 8.5\ngini = 0.278\nsamples = 6\nvalue = [5, 1]\nclass = 1", fillcolor="#ea9a61"] ;
859 -> 869 ;
870 [label="gini = 0.0\nsamples = 1\nvalue = [0, 1]\nclass = 0", fillcolor="#399de5"] ;
869 -> 870 ;
871 [label="gini = 0.0\nsamples = 5\nvalue = [5, 0]\nclass = 1", fillcolor="#e58139"] ;
869 -> 871 ;
872 [label="CH4 <= -1.443\ngini = 0.108\nsamples = 1534\nvalue = [88, 1446]\nclass = 0", fillcolor="#45a3e7"] ;
780 -> 872 ;
873 [label="SO2 <= 1.135\ngini = 0.499\nsamples = 27\nvalue = [14, 13]\nclass = 1", fillcolor="#fdf6f1"] ;
872 -> 873 ;
874 [label="H2CO <= 0.505\ngini = 0.305\nsamples = 16\nvalue = [13, 3]\nclass = 1", fillcolor="#eb9e67"] ;
873 -> 874 ;
875 [label="gini = 0.0\nsamples = 13\nvalue = [13, 0]\nclass = 1", fillcolor="#e58139"] ;
874 -> 875 ;
876 [label="gini = 0.0\nsamples = 3\nvalue = [0, 3]\nclass = 0", fillcolor="#399de5"] ;
874 -> 876 ;
877 [label="PM10 <= -1.569\ngini = 0.165\nsamples = 11\nvalue = [1, 10]\nclass = 0", fillcolor="#4da7e8"] ;
873 -> 877 ;
878 [label="gini = 0.0\nsamples = 1\nvalue = [1, 0]\nclass = 1", fillcolor="#e58139"] ;
877 -> 878 ;
879 [label="gini = 0.0\nsamples = 10\nvalue = [0, 10]\nclass = 0", fillcolor="#399de5"] ;
877 -> 879 ;
880 [label="CH4 <= -0.575\ngini = 0.093\nsamples = 1507\nvalue = [74, 1433]\nclass = 0", fillcolor="#43a2e6"] ;
872 -> 880 ;
881 [label="SO2 <= 0.791\ngini = 0.268\nsamples = 169\nvalue = [27, 142]\nclass = 0", fillcolor="#5fb0ea"] ;
880 -> 881 ;
882 [label="H2CO <= 0.634\ngini = 0.478\nsamples = 53\nvalue = [21, 32]\nclass = 0", fillcolor="#bbddf6"] ;
881 -> 882 ;
883 [label="index <= -0.08\ngini = 0.417\nsamples = 27\nvalue = [19, 8]\nclass = 1", fillcolor="#f0b68c"] ;
882 -> 883 ;
884 [label="gini = 0.0\nsamples = 6\nvalue = [0, 6]\nclass = 0", fillcolor="#399de5"] ;
883 -> 884 ;
885 [label="PRES <= 1.068\ngini = 0.172\nsamples = 21\nvalue = [19, 2]\nclass = 1", fillcolor="#e88e4e"] ;
883 -> 885 ;
886 [label="gini = 0.0\nsamples = 18\nvalue = [18, 0]\nclass = 1", fillcolor="#e58139"] ;
885 -> 886 ;
887 [label="NH3 <= 0.802\ngini = 0.444\nsamples = 3\nvalue = [1, 2]\nclass = 0", fillcolor="#9ccef2"] ;
885 -> 887 ;
888 [label="gini = 0.0\nsamples = 2\nvalue = [0, 2]\nclass = 0", fillcolor="#399de5"] ;
887 -> 888 ;
889 [label="gini = 0.0\nsamples = 1\nvalue = [1, 0]\nclass = 1", fillcolor="#e58139"] ;
887 -> 889 ;
890 [label="PM10 <= 1.541\ngini = 0.142\nsamples = 26\nvalue = [2, 24]\nclass = 0", fillcolor="#49a5e7"] ;
882 -> 890 ;
891 [label="gini = 0.0\nsamples = 23\nvalue = [0, 23]\nclass = 0", fillcolor="#399de5"] ;
890 -> 891 ;
892 [label="NH3 <= -1.005\ngini = 0.444\nsamples = 3\nvalue = [2, 1]\nclass = 1", fillcolor="#f2c09c"] ;
890 -> 892 ;
893 [label="gini = 0.0\nsamples = 1\nvalue = [0, 1]\nclass = 0", fillcolor="#399de5"] ;
892 -> 893 ;
894 [label="gini = 0.0\nsamples = 2\nvalue = [2, 0]\nclass = 1", fillcolor="#e58139"] ;
892 -> 894 ;
895 [label="CFCs <= -0.829\ngini = 0.098\nsamples = 116\nvalue = [6, 110]\nclass = 0", fillcolor="#44a2e6"] ;
881 -> 895 ;
896 [label="H2CO <= -0.05\ngini = 0.172\nsamples = 63\nvalue = [6, 57]\nclass = 0", fillcolor="#4ea7e8"] ;
895 -> 896 ;
897 [label="gini = 0.0\nsamples = 3\nvalue = [3, 0]\nclass = 1", fillcolor="#e58139"] ;
896 -> 897 ;
898 [label="PM2.5 <= 1.294\ngini = 0.095\nsamples = 60\nvalue = [3, 57]\nclass = 0", fillcolor="#43a2e6"] ;
896 -> 898 ;
899 [label="index <= -0.565\ngini = 0.346\nsamples = 9\nvalue = [2, 7]\nclass = 0", fillcolor="#72b9ec"] ;
898 -> 899 ;
900 [label="gini = 0.0\nsamples = 7\nvalue = [0, 7]\nclass = 0", fillcolor="#399de5"] ;
899 -> 900 ;
901 [label="gini = 0.0\nsamples = 2\nvalue = [2, 0]\nclass = 1", fillcolor="#e58139"] ;
899 -> 901 ;
